elements: [In, P] 
E0: [-3.524917, 0.100554] 
deltaSplineBins: 0.001000 
embeddings:
  0: {ndensity: 1, FS_parameters: [1.0, 1.0], npoti: FinnisSinclair, rho_core_cutoff: 100000, drho_core_cutoff: 250}
  1: {ndensity: 1, FS_parameters: [1.0, 1.0], npoti: FinnisSinclair, rho_core_cutoff: 100000, drho_core_cutoff: 250}
bonds:
  [0, 0]: {nradmax: 16, lmax: 4, nradbasemax: 16, radbasename: ChebExpCos, radparameters: [1.737], radcoefficients: [[[1, 0, 0, 0, 0, 0, 0, 0, 0, 0, 0, 0, 0, 0, 0, 0], [1, 0, 0, 0, 0, 0, 0, 0, 0, 0, 0, 0, 0, 0, 0, 0], [1, 0, 0, 0, 0, 0, 0, 0, 0, 0, 0, 0, 0, 0, 0, 0], [1, 0, 0, 0, 0, 0, 0, 0, 0, 0, 0, 0, 0, 0, 0, 0], [1, 0, 0, 0, 0, 0, 0, 0, 0, 0, 0, 0, 0, 0, 0, 0]], [[0, 1, 0, 0, 0, 0, 0, 0, 0, 0, 0, 0, 0, 0, 0, 0], [0, 1, 0, 0, 0, 0, 0, 0, 0, 0, 0, 0, 0, 0, 0, 0], [0, 1, 0, 0, 0, 0, 0, 0, 0, 0, 0, 0, 0, 0, 0, 0], [0, 1, 0, 0, 0, 0, 0, 0, 0, 0, 0, 0, 0, 0, 0, 0], [0, 1, 0, 0, 0, 0, 0, 0, 0, 0, 0, 0, 0, 0, 0, 0]], [[0, 0, 1, 0, 0, 0, 0, 0, 0, 0, 0, 0, 0, 0, 0, 0], [0, 0, 1, 0, 0, 0, 0, 0, 0, 0, 0, 0, 0, 0, 0, 0], [0, 0, 1, 0, 0, 0, 0, 0, 0, 0, 0, 0, 0, 0, 0, 0], [0, 0, 1, 0, 0, 0, 0, 0, 0, 0, 0, 0, 0, 0, 0, 0], [0, 0, 1, 0, 0, 0, 0, 0, 0, 0, 0, 0, 0, 0, 0, 0]], [[0, 0, 0, 1, 0, 0, 0, 0, 0, 0, 0, 0, 0, 0, 0, 0], [0, 0, 0, 1, 0, 0, 0, 0, 0, 0, 0, 0, 0, 0, 0, 0], [0, 0, 0, 1, 0, 0, 0, 0, 0, 0, 0, 0, 0, 0, 0, 0], [0, 0, 0, 1, 0, 0, 0, 0, 0, 0, 0, 0, 0, 0, 0, 0], [0, 0, 0, 1, 0, 0, 0, 0, 0, 0, 0, 0, 0, 0, 0, 0]], [[0, 0, 0, 0, 1, 0, 0, 0, 0, 0, 0, 0, 0, 0, 0, 0], [0, 0, 0, 0, 1, 0, 0, 0, 0, 0, 0, 0, 0, 0, 0, 0], [0, 0, 0, 0, 1, 0, 0, 0, 0, 0, 0, 0, 0, 0, 0, 0], [0, 0, 0, 0, 1, 0, 0, 0, 0, 0, 0, 0, 0, 0, 0, 0], [0, 0, 0, 0, 1, 0, 0, 0, 0, 0, 0, 0, 0, 0, 0, 0]], [[0, 0, 0, 0, 0, 1, 0, 0, 0, 0, 0, 0, 0, 0, 0, 0], [0, 0, 0, 0, 0, 1, 0, 0, 0, 0, 0, 0, 0, 0, 0, 0], [0, 0, 0, 0, 0, 1, 0, 0, 0, 0, 0, 0, 0, 0, 0, 0], [0, 0, 0, 0, 0, 1, 0, 0, 0, 0, 0, 0, 0, 0, 0, 0], [0, 0, 0, 0, 0, 1, 0, 0, 0, 0, 0, 0, 0, 0, 0, 0]], [[0, 0, 0, 0, 0, 0, 1, 0, 0, 0, 0, 0, 0, 0, 0, 0], [0, 0, 0, 0, 0, 0, 1, 0, 0, 0, 0, 0, 0, 0, 0, 0], [0, 0, 0, 0, 0, 0, 1, 0, 0, 0, 0, 0, 0, 0, 0, 0], [0, 0, 0, 0, 0, 0, 1, 0, 0, 0, 0, 0, 0, 0, 0, 0], [0, 0, 0, 0, 0, 0, 1, 0, 0, 0, 0, 0, 0, 0, 0, 0]], [[0, 0, 0, 0, 0, 0, 0, 1, 0, 0, 0, 0, 0, 0, 0, 0], [0, 0, 0, 0, 0, 0, 0, 1, 0, 0, 0, 0, 0, 0, 0, 0], [0, 0, 0, 0, 0, 0, 0, 1, 0, 0, 0, 0, 0, 0, 0, 0], [0, 0, 0, 0, 0, 0, 0, 1, 0, 0, 0, 0, 0, 0, 0, 0], [0, 0, 0, 0, 0, 0, 0, 1, 0, 0, 0, 0, 0, 0, 0, 0]], [[0, 0, 0, 0, 0, 0, 0, 0, 1, 0, 0, 0, 0, 0, 0, 0], [0, 0, 0, 0, 0, 0, 0, 0, 1, 0, 0, 0, 0, 0, 0, 0], [0, 0, 0, 0, 0, 0, 0, 0, 1, 0, 0, 0, 0, 0, 0, 0], [0, 0, 0, 0, 0, 0, 0, 0, 1, 0, 0, 0, 0, 0, 0, 0], [0, 0, 0, 0, 0, 0, 0, 0, 1, 0, 0, 0, 0, 0, 0, 0]], [[0, 0, 0, 0, 0, 0, 0, 0, 0, 1, 0, 0, 0, 0, 0, 0], [0, 0, 0, 0, 0, 0, 0, 0, 0, 1, 0, 0, 0, 0, 0, 0], [0, 0, 0, 0, 0, 0, 0, 0, 0, 1, 0, 0, 0, 0, 0, 0], [0, 0, 0, 0, 0, 0, 0, 0, 0, 1, 0, 0, 0, 0, 0, 0], [0, 0, 0, 0, 0, 0, 0, 0, 0, 1, 0, 0, 0, 0, 0, 0]], [[0, 0, 0, 0, 0, 0, 0, 0, 0, 0, 1, 0, 0, 0, 0, 0], [0, 0, 0, 0, 0, 0, 0, 0, 0, 0, 1, 0, 0, 0, 0, 0], [0, 0, 0, 0, 0, 0, 0, 0, 0, 0, 1, 0, 0, 0, 0, 0], [0, 0, 0, 0, 0, 0, 0, 0, 0, 0, 1, 0, 0, 0, 0, 0], [0, 0, 0, 0, 0, 0, 0, 0, 0, 0, 1, 0, 0, 0, 0, 0]], [[0, 0, 0, 0, 0, 0, 0, 0, 0, 0, 0, 1, 0, 0, 0, 0], [0, 0, 0, 0, 0, 0, 0, 0, 0, 0, 0, 1, 0, 0, 0, 0], [0, 0, 0, 0, 0, 0, 0, 0, 0, 0, 0, 1, 0, 0, 0, 0], [0, 0, 0, 0, 0, 0, 0, 0, 0, 0, 0, 1, 0, 0, 0, 0], [0, 0, 0, 0, 0, 0, 0, 0, 0, 0, 0, 1, 0, 0, 0, 0]], [[0, 0, 0, 0, 0, 0, 0, 0, 0, 0, 0, 0, 1, 0, 0, 0], [0, 0, 0, 0, 0, 0, 0, 0, 0, 0, 0, 0, 1, 0, 0, 0], [0, 0, 0, 0, 0, 0, 0, 0, 0, 0, 0, 0, 1, 0, 0, 0], [0, 0, 0, 0, 0, 0, 0, 0, 0, 0, 0, 0, 1, 0, 0, 0], [0, 0, 0, 0, 0, 0, 0, 0, 0, 0, 0, 0, 1, 0, 0, 0]], [[0, 0, 0, 0, 0, 0, 0, 0, 0, 0, 0, 0, 0, 1, 0, 0], [0, 0, 0, 0, 0, 0, 0, 0, 0, 0, 0, 0, 0, 1, 0, 0], [0, 0, 0, 0, 0, 0, 0, 0, 0, 0, 0, 0, 0, 1, 0, 0], [0, 0, 0, 0, 0, 0, 0, 0, 0, 0, 0, 0, 0, 1, 0, 0], [0, 0, 0, 0, 0, 0, 0, 0, 0, 0, 0, 0, 0, 1, 0, 0]], [[0, 0, 0, 0, 0, 0, 0, 0, 0, 0, 0, 0, 0, 0, 1, 0], [0, 0, 0, 0, 0, 0, 0, 0, 0, 0, 0, 0, 0, 0, 1, 0], [0, 0, 0, 0, 0, 0, 0, 0, 0, 0, 0, 0, 0, 0, 1, 0], [0, 0, 0, 0, 0, 0, 0, 0, 0, 0, 0, 0, 0, 0, 1, 0], [0, 0, 0, 0, 0, 0, 0, 0, 0, 0, 0, 0, 0, 0, 1, 0]], [[0, 0, 0, 0, 0, 0, 0, 0, 0, 0, 0, 0, 0, 0, 0, 1], [0, 0, 0, 0, 0, 0, 0, 0, 0, 0, 0, 0, 0, 0, 0, 1], [0, 0, 0, 0, 0, 0, 0, 0, 0, 0, 0, 0, 0, 0, 0, 1], [0, 0, 0, 0, 0, 0, 0, 0, 0, 0, 0, 0, 0, 0, 0, 1], [0, 0, 0, 0, 0, 0, 0, 0, 0, 0, 0, 0, 0, 0, 0, 1]]], prehc: 0, lambdahc: 1.737, rcut: 5.790, dcut: 0.01, rcut_in: 1.705, dcut_in: 0.01, inner_cutoff_type: distance}
  [0, 1]: {nradmax: 16, lmax: 4, nradbasemax: 16, radbasename: ChebExpCos, radparameters: [1.502], radcoefficients: [[[1, 0, 0, 0, 0, 0, 0, 0, 0, 0, 0, 0, 0, 0, 0, 0], [1, 0, 0, 0, 0, 0, 0, 0, 0, 0, 0, 0, 0, 0, 0, 0], [1, 0, 0, 0, 0, 0, 0, 0, 0, 0, 0, 0, 0, 0, 0, 0], [1, 0, 0, 0, 0, 0, 0, 0, 0, 0, 0, 0, 0, 0, 0, 0], [1, 0, 0, 0, 0, 0, 0, 0, 0, 0, 0, 0, 0, 0, 0, 0]], [[0, 1, 0, 0, 0, 0, 0, 0, 0, 0, 0, 0, 0, 0, 0, 0], [0, 1, 0, 0, 0, 0, 0, 0, 0, 0, 0, 0, 0, 0, 0, 0], [0, 1, 0, 0, 0, 0, 0, 0, 0, 0, 0, 0, 0, 0, 0, 0], [0, 1, 0, 0, 0, 0, 0, 0, 0, 0, 0, 0, 0, 0, 0, 0], [0, 1, 0, 0, 0, 0, 0, 0, 0, 0, 0, 0, 0, 0, 0, 0]], [[0, 0, 1, 0, 0, 0, 0, 0, 0, 0, 0, 0, 0, 0, 0, 0], [0, 0, 1, 0, 0, 0, 0, 0, 0, 0, 0, 0, 0, 0, 0, 0], [0, 0, 1, 0, 0, 0, 0, 0, 0, 0, 0, 0, 0, 0, 0, 0], [0, 0, 1, 0, 0, 0, 0, 0, 0, 0, 0, 0, 0, 0, 0, 0], [0, 0, 1, 0, 0, 0, 0, 0, 0, 0, 0, 0, 0, 0, 0, 0]], [[0, 0, 0, 1, 0, 0, 0, 0, 0, 0, 0, 0, 0, 0, 0, 0], [0, 0, 0, 1, 0, 0, 0, 0, 0, 0, 0, 0, 0, 0, 0, 0], [0, 0, 0, 1, 0, 0, 0, 0, 0, 0, 0, 0, 0, 0, 0, 0], [0, 0, 0, 1, 0, 0, 0, 0, 0, 0, 0, 0, 0, 0, 0, 0], [0, 0, 0, 1, 0, 0, 0, 0, 0, 0, 0, 0, 0, 0, 0, 0]], [[0, 0, 0, 0, 1, 0, 0, 0, 0, 0, 0, 0, 0, 0, 0, 0], [0, 0, 0, 0, 1, 0, 0, 0, 0, 0, 0, 0, 0, 0, 0, 0], [0, 0, 0, 0, 1, 0, 0, 0, 0, 0, 0, 0, 0, 0, 0, 0], [0, 0, 0, 0, 1, 0, 0, 0, 0, 0, 0, 0, 0, 0, 0, 0], [0, 0, 0, 0, 1, 0, 0, 0, 0, 0, 0, 0, 0, 0, 0, 0]], [[0, 0, 0, 0, 0, 1, 0, 0, 0, 0, 0, 0, 0, 0, 0, 0], [0, 0, 0, 0, 0, 1, 0, 0, 0, 0, 0, 0, 0, 0, 0, 0], [0, 0, 0, 0, 0, 1, 0, 0, 0, 0, 0, 0, 0, 0, 0, 0], [0, 0, 0, 0, 0, 1, 0, 0, 0, 0, 0, 0, 0, 0, 0, 0], [0, 0, 0, 0, 0, 1, 0, 0, 0, 0, 0, 0, 0, 0, 0, 0]], [[0, 0, 0, 0, 0, 0, 1, 0, 0, 0, 0, 0, 0, 0, 0, 0], [0, 0, 0, 0, 0, 0, 1, 0, 0, 0, 0, 0, 0, 0, 0, 0], [0, 0, 0, 0, 0, 0, 1, 0, 0, 0, 0, 0, 0, 0, 0, 0], [0, 0, 0, 0, 0, 0, 1, 0, 0, 0, 0, 0, 0, 0, 0, 0], [0, 0, 0, 0, 0, 0, 1, 0, 0, 0, 0, 0, 0, 0, 0, 0]], [[0, 0, 0, 0, 0, 0, 0, 1, 0, 0, 0, 0, 0, 0, 0, 0], [0, 0, 0, 0, 0, 0, 0, 1, 0, 0, 0, 0, 0, 0, 0, 0], [0, 0, 0, 0, 0, 0, 0, 1, 0, 0, 0, 0, 0, 0, 0, 0], [0, 0, 0, 0, 0, 0, 0, 1, 0, 0, 0, 0, 0, 0, 0, 0], [0, 0, 0, 0, 0, 0, 0, 1, 0, 0, 0, 0, 0, 0, 0, 0]], [[0, 0, 0, 0, 0, 0, 0, 0, 1, 0, 0, 0, 0, 0, 0, 0], [0, 0, 0, 0, 0, 0, 0, 0, 1, 0, 0, 0, 0, 0, 0, 0], [0, 0, 0, 0, 0, 0, 0, 0, 1, 0, 0, 0, 0, 0, 0, 0], [0, 0, 0, 0, 0, 0, 0, 0, 1, 0, 0, 0, 0, 0, 0, 0], [0, 0, 0, 0, 0, 0, 0, 0, 1, 0, 0, 0, 0, 0, 0, 0]], [[0, 0, 0, 0, 0, 0, 0, 0, 0, 1, 0, 0, 0, 0, 0, 0], [0, 0, 0, 0, 0, 0, 0, 0, 0, 1, 0, 0, 0, 0, 0, 0], [0, 0, 0, 0, 0, 0, 0, 0, 0, 1, 0, 0, 0, 0, 0, 0], [0, 0, 0, 0, 0, 0, 0, 0, 0, 1, 0, 0, 0, 0, 0, 0], [0, 0, 0, 0, 0, 0, 0, 0, 0, 1, 0, 0, 0, 0, 0, 0]], [[0, 0, 0, 0, 0, 0, 0, 0, 0, 0, 1, 0, 0, 0, 0, 0], [0, 0, 0, 0, 0, 0, 0, 0, 0, 0, 1, 0, 0, 0, 0, 0], [0, 0, 0, 0, 0, 0, 0, 0, 0, 0, 1, 0, 0, 0, 0, 0], [0, 0, 0, 0, 0, 0, 0, 0, 0, 0, 1, 0, 0, 0, 0, 0], [0, 0, 0, 0, 0, 0, 0, 0, 0, 0, 1, 0, 0, 0, 0, 0]], [[0, 0, 0, 0, 0, 0, 0, 0, 0, 0, 0, 1, 0, 0, 0, 0], [0, 0, 0, 0, 0, 0, 0, 0, 0, 0, 0, 1, 0, 0, 0, 0], [0, 0, 0, 0, 0, 0, 0, 0, 0, 0, 0, 1, 0, 0, 0, 0], [0, 0, 0, 0, 0, 0, 0, 0, 0, 0, 0, 1, 0, 0, 0, 0], [0, 0, 0, 0, 0, 0, 0, 0, 0, 0, 0, 1, 0, 0, 0, 0]], [[0, 0, 0, 0, 0, 0, 0, 0, 0, 0, 0, 0, 1, 0, 0, 0], [0, 0, 0, 0, 0, 0, 0, 0, 0, 0, 0, 0, 1, 0, 0, 0], [0, 0, 0, 0, 0, 0, 0, 0, 0, 0, 0, 0, 1, 0, 0, 0], [0, 0, 0, 0, 0, 0, 0, 0, 0, 0, 0, 0, 1, 0, 0, 0], [0, 0, 0, 0, 0, 0, 0, 0, 0, 0, 0, 0, 1, 0, 0, 0]], [[0, 0, 0, 0, 0, 0, 0, 0, 0, 0, 0, 0, 0, 1, 0, 0], [0, 0, 0, 0, 0, 0, 0, 0, 0, 0, 0, 0, 0, 1, 0, 0], [0, 0, 0, 0, 0, 0, 0, 0, 0, 0, 0, 0, 0, 1, 0, 0], [0, 0, 0, 0, 0, 0, 0, 0, 0, 0, 0, 0, 0, 1, 0, 0], [0, 0, 0, 0, 0, 0, 0, 0, 0, 0, 0, 0, 0, 1, 0, 0]], [[0, 0, 0, 0, 0, 0, 0, 0, 0, 0, 0, 0, 0, 0, 1, 0], [0, 0, 0, 0, 0, 0, 0, 0, 0, 0, 0, 0, 0, 0, 1, 0], [0, 0, 0, 0, 0, 0, 0, 0, 0, 0, 0, 0, 0, 0, 1, 0], [0, 0, 0, 0, 0, 0, 0, 0, 0, 0, 0, 0, 0, 0, 1, 0], [0, 0, 0, 0, 0, 0, 0, 0, 0, 0, 0, 0, 0, 0, 1, 0]], [[0, 0, 0, 0, 0, 0, 0, 0, 0, 0, 0, 0, 0, 0, 0, 1], [0, 0, 0, 0, 0, 0, 0, 0, 0, 0, 0, 0, 0, 0, 0, 1], [0, 0, 0, 0, 0, 0, 0, 0, 0, 0, 0, 0, 0, 0, 0, 1], [0, 0, 0, 0, 0, 0, 0, 0, 0, 0, 0, 0, 0, 0, 0, 1], [0, 0, 0, 0, 0, 0, 0, 0, 0, 0, 0, 0, 0, 0, 0, 1]]], prehc: 0, lambdahc: 1.502, rcut: 5.007, dcut: 0.01, rcut_in: 1.403, dcut_in: 0.01, inner_cutoff_type: distance}
  [1, 0]: {nradmax: 16, lmax: 4, nradbasemax: 16, radbasename: ChebExpCos, radparameters: [1.502], radcoefficients: [[[1, 0, 0, 0, 0, 0, 0, 0, 0, 0, 0, 0, 0, 0, 0, 0], [1, 0, 0, 0, 0, 0, 0, 0, 0, 0, 0, 0, 0, 0, 0, 0], [1, 0, 0, 0, 0, 0, 0, 0, 0, 0, 0, 0, 0, 0, 0, 0], [1, 0, 0, 0, 0, 0, 0, 0, 0, 0, 0, 0, 0, 0, 0, 0], [1, 0, 0, 0, 0, 0, 0, 0, 0, 0, 0, 0, 0, 0, 0, 0]], [[0, 1, 0, 0, 0, 0, 0, 0, 0, 0, 0, 0, 0, 0, 0, 0], [0, 1, 0, 0, 0, 0, 0, 0, 0, 0, 0, 0, 0, 0, 0, 0], [0, 1, 0, 0, 0, 0, 0, 0, 0, 0, 0, 0, 0, 0, 0, 0], [0, 1, 0, 0, 0, 0, 0, 0, 0, 0, 0, 0, 0, 0, 0, 0], [0, 1, 0, 0, 0, 0, 0, 0, 0, 0, 0, 0, 0, 0, 0, 0]], [[0, 0, 1, 0, 0, 0, 0, 0, 0, 0, 0, 0, 0, 0, 0, 0], [0, 0, 1, 0, 0, 0, 0, 0, 0, 0, 0, 0, 0, 0, 0, 0], [0, 0, 1, 0, 0, 0, 0, 0, 0, 0, 0, 0, 0, 0, 0, 0], [0, 0, 1, 0, 0, 0, 0, 0, 0, 0, 0, 0, 0, 0, 0, 0], [0, 0, 1, 0, 0, 0, 0, 0, 0, 0, 0, 0, 0, 0, 0, 0]], [[0, 0, 0, 1, 0, 0, 0, 0, 0, 0, 0, 0, 0, 0, 0, 0], [0, 0, 0, 1, 0, 0, 0, 0, 0, 0, 0, 0, 0, 0, 0, 0], [0, 0, 0, 1, 0, 0, 0, 0, 0, 0, 0, 0, 0, 0, 0, 0], [0, 0, 0, 1, 0, 0, 0, 0, 0, 0, 0, 0, 0, 0, 0, 0], [0, 0, 0, 1, 0, 0, 0, 0, 0, 0, 0, 0, 0, 0, 0, 0]], [[0, 0, 0, 0, 1, 0, 0, 0, 0, 0, 0, 0, 0, 0, 0, 0], [0, 0, 0, 0, 1, 0, 0, 0, 0, 0, 0, 0, 0, 0, 0, 0], [0, 0, 0, 0, 1, 0, 0, 0, 0, 0, 0, 0, 0, 0, 0, 0], [0, 0, 0, 0, 1, 0, 0, 0, 0, 0, 0, 0, 0, 0, 0, 0], [0, 0, 0, 0, 1, 0, 0, 0, 0, 0, 0, 0, 0, 0, 0, 0]], [[0, 0, 0, 0, 0, 1, 0, 0, 0, 0, 0, 0, 0, 0, 0, 0], [0, 0, 0, 0, 0, 1, 0, 0, 0, 0, 0, 0, 0, 0, 0, 0], [0, 0, 0, 0, 0, 1, 0, 0, 0, 0, 0, 0, 0, 0, 0, 0], [0, 0, 0, 0, 0, 1, 0, 0, 0, 0, 0, 0, 0, 0, 0, 0], [0, 0, 0, 0, 0, 1, 0, 0, 0, 0, 0, 0, 0, 0, 0, 0]], [[0, 0, 0, 0, 0, 0, 1, 0, 0, 0, 0, 0, 0, 0, 0, 0], [0, 0, 0, 0, 0, 0, 1, 0, 0, 0, 0, 0, 0, 0, 0, 0], [0, 0, 0, 0, 0, 0, 1, 0, 0, 0, 0, 0, 0, 0, 0, 0], [0, 0, 0, 0, 0, 0, 1, 0, 0, 0, 0, 0, 0, 0, 0, 0], [0, 0, 0, 0, 0, 0, 1, 0, 0, 0, 0, 0, 0, 0, 0, 0]], [[0, 0, 0, 0, 0, 0, 0, 1, 0, 0, 0, 0, 0, 0, 0, 0], [0, 0, 0, 0, 0, 0, 0, 1, 0, 0, 0, 0, 0, 0, 0, 0], [0, 0, 0, 0, 0, 0, 0, 1, 0, 0, 0, 0, 0, 0, 0, 0], [0, 0, 0, 0, 0, 0, 0, 1, 0, 0, 0, 0, 0, 0, 0, 0], [0, 0, 0, 0, 0, 0, 0, 1, 0, 0, 0, 0, 0, 0, 0, 0]], [[0, 0, 0, 0, 0, 0, 0, 0, 1, 0, 0, 0, 0, 0, 0, 0], [0, 0, 0, 0, 0, 0, 0, 0, 1, 0, 0, 0, 0, 0, 0, 0], [0, 0, 0, 0, 0, 0, 0, 0, 1, 0, 0, 0, 0, 0, 0, 0], [0, 0, 0, 0, 0, 0, 0, 0, 1, 0, 0, 0, 0, 0, 0, 0], [0, 0, 0, 0, 0, 0, 0, 0, 1, 0, 0, 0, 0, 0, 0, 0]], [[0, 0, 0, 0, 0, 0, 0, 0, 0, 1, 0, 0, 0, 0, 0, 0], [0, 0, 0, 0, 0, 0, 0, 0, 0, 1, 0, 0, 0, 0, 0, 0], [0, 0, 0, 0, 0, 0, 0, 0, 0, 1, 0, 0, 0, 0, 0, 0], [0, 0, 0, 0, 0, 0, 0, 0, 0, 1, 0, 0, 0, 0, 0, 0], [0, 0, 0, 0, 0, 0, 0, 0, 0, 1, 0, 0, 0, 0, 0, 0]], [[0, 0, 0, 0, 0, 0, 0, 0, 0, 0, 1, 0, 0, 0, 0, 0], [0, 0, 0, 0, 0, 0, 0, 0, 0, 0, 1, 0, 0, 0, 0, 0], [0, 0, 0, 0, 0, 0, 0, 0, 0, 0, 1, 0, 0, 0, 0, 0], [0, 0, 0, 0, 0, 0, 0, 0, 0, 0, 1, 0, 0, 0, 0, 0], [0, 0, 0, 0, 0, 0, 0, 0, 0, 0, 1, 0, 0, 0, 0, 0]], [[0, 0, 0, 0, 0, 0, 0, 0, 0, 0, 0, 1, 0, 0, 0, 0], [0, 0, 0, 0, 0, 0, 0, 0, 0, 0, 0, 1, 0, 0, 0, 0], [0, 0, 0, 0, 0, 0, 0, 0, 0, 0, 0, 1, 0, 0, 0, 0], [0, 0, 0, 0, 0, 0, 0, 0, 0, 0, 0, 1, 0, 0, 0, 0], [0, 0, 0, 0, 0, 0, 0, 0, 0, 0, 0, 1, 0, 0, 0, 0]], [[0, 0, 0, 0, 0, 0, 0, 0, 0, 0, 0, 0, 1, 0, 0, 0], [0, 0, 0, 0, 0, 0, 0, 0, 0, 0, 0, 0, 1, 0, 0, 0], [0, 0, 0, 0, 0, 0, 0, 0, 0, 0, 0, 0, 1, 0, 0, 0], [0, 0, 0, 0, 0, 0, 0, 0, 0, 0, 0, 0, 1, 0, 0, 0], [0, 0, 0, 0, 0, 0, 0, 0, 0, 0, 0, 0, 1, 0, 0, 0]], [[0, 0, 0, 0, 0, 0, 0, 0, 0, 0, 0, 0, 0, 1, 0, 0], [0, 0, 0, 0, 0, 0, 0, 0, 0, 0, 0, 0, 0, 1, 0, 0], [0, 0, 0, 0, 0, 0, 0, 0, 0, 0, 0, 0, 0, 1, 0, 0], [0, 0, 0, 0, 0, 0, 0, 0, 0, 0, 0, 0, 0, 1, 0, 0], [0, 0, 0, 0, 0, 0, 0, 0, 0, 0, 0, 0, 0, 1, 0, 0]], [[0, 0, 0, 0, 0, 0, 0, 0, 0, 0, 0, 0, 0, 0, 1, 0], [0, 0, 0, 0, 0, 0, 0, 0, 0, 0, 0, 0, 0, 0, 1, 0], [0, 0, 0, 0, 0, 0, 0, 0, 0, 0, 0, 0, 0, 0, 1, 0], [0, 0, 0, 0, 0, 0, 0, 0, 0, 0, 0, 0, 0, 0, 1, 0], [0, 0, 0, 0, 0, 0, 0, 0, 0, 0, 0, 0, 0, 0, 1, 0]], [[0, 0, 0, 0, 0, 0, 0, 0, 0, 0, 0, 0, 0, 0, 0, 1], [0, 0, 0, 0, 0, 0, 0, 0, 0, 0, 0, 0, 0, 0, 0, 1], [0, 0, 0, 0, 0, 0, 0, 0, 0, 0, 0, 0, 0, 0, 0, 1], [0, 0, 0, 0, 0, 0, 0, 0, 0, 0, 0, 0, 0, 0, 0, 1], [0, 0, 0, 0, 0, 0, 0, 0, 0, 0, 0, 0, 0, 0, 0, 1]]], prehc: 0, lambdahc: 1.502, rcut: 5.007, dcut: 0.01, rcut_in: 1.403, dcut_in: 0.01, inner_cutoff_type: distance}
  [1, 1]: {nradmax: 16, lmax: 4, nradbasemax: 16, radbasename: ChebExpCos, radparameters: [1.267], radcoefficients: [[[1, 0, 0, 0, 0, 0, 0, 0, 0, 0, 0, 0, 0, 0, 0, 0], [1, 0, 0, 0, 0, 0, 0, 0, 0, 0, 0, 0, 0, 0, 0, 0], [1, 0, 0, 0, 0, 0, 0, 0, 0, 0, 0, 0, 0, 0, 0, 0], [1, 0, 0, 0, 0, 0, 0, 0, 0, 0, 0, 0, 0, 0, 0, 0], [1, 0, 0, 0, 0, 0, 0, 0, 0, 0, 0, 0, 0, 0, 0, 0]], [[0, 1, 0, 0, 0, 0, 0, 0, 0, 0, 0, 0, 0, 0, 0, 0], [0, 1, 0, 0, 0, 0, 0, 0, 0, 0, 0, 0, 0, 0, 0, 0], [0, 1, 0, 0, 0, 0, 0, 0, 0, 0, 0, 0, 0, 0, 0, 0], [0, 1, 0, 0, 0, 0, 0, 0, 0, 0, 0, 0, 0, 0, 0, 0], [0, 1, 0, 0, 0, 0, 0, 0, 0, 0, 0, 0, 0, 0, 0, 0]], [[0, 0, 1, 0, 0, 0, 0, 0, 0, 0, 0, 0, 0, 0, 0, 0], [0, 0, 1, 0, 0, 0, 0, 0, 0, 0, 0, 0, 0, 0, 0, 0], [0, 0, 1, 0, 0, 0, 0, 0, 0, 0, 0, 0, 0, 0, 0, 0], [0, 0, 1, 0, 0, 0, 0, 0, 0, 0, 0, 0, 0, 0, 0, 0], [0, 0, 1, 0, 0, 0, 0, 0, 0, 0, 0, 0, 0, 0, 0, 0]], [[0, 0, 0, 1, 0, 0, 0, 0, 0, 0, 0, 0, 0, 0, 0, 0], [0, 0, 0, 1, 0, 0, 0, 0, 0, 0, 0, 0, 0, 0, 0, 0], [0, 0, 0, 1, 0, 0, 0, 0, 0, 0, 0, 0, 0, 0, 0, 0], [0, 0, 0, 1, 0, 0, 0, 0, 0, 0, 0, 0, 0, 0, 0, 0], [0, 0, 0, 1, 0, 0, 0, 0, 0, 0, 0, 0, 0, 0, 0, 0]], [[0, 0, 0, 0, 1, 0, 0, 0, 0, 0, 0, 0, 0, 0, 0, 0], [0, 0, 0, 0, 1, 0, 0, 0, 0, 0, 0, 0, 0, 0, 0, 0], [0, 0, 0, 0, 1, 0, 0, 0, 0, 0, 0, 0, 0, 0, 0, 0], [0, 0, 0, 0, 1, 0, 0, 0, 0, 0, 0, 0, 0, 0, 0, 0], [0, 0, 0, 0, 1, 0, 0, 0, 0, 0, 0, 0, 0, 0, 0, 0]], [[0, 0, 0, 0, 0, 1, 0, 0, 0, 0, 0, 0, 0, 0, 0, 0], [0, 0, 0, 0, 0, 1, 0, 0, 0, 0, 0, 0, 0, 0, 0, 0], [0, 0, 0, 0, 0, 1, 0, 0, 0, 0, 0, 0, 0, 0, 0, 0], [0, 0, 0, 0, 0, 1, 0, 0, 0, 0, 0, 0, 0, 0, 0, 0], [0, 0, 0, 0, 0, 1, 0, 0, 0, 0, 0, 0, 0, 0, 0, 0]], [[0, 0, 0, 0, 0, 0, 1, 0, 0, 0, 0, 0, 0, 0, 0, 0], [0, 0, 0, 0, 0, 0, 1, 0, 0, 0, 0, 0, 0, 0, 0, 0], [0, 0, 0, 0, 0, 0, 1, 0, 0, 0, 0, 0, 0, 0, 0, 0], [0, 0, 0, 0, 0, 0, 1, 0, 0, 0, 0, 0, 0, 0, 0, 0], [0, 0, 0, 0, 0, 0, 1, 0, 0, 0, 0, 0, 0, 0, 0, 0]], [[0, 0, 0, 0, 0, 0, 0, 1, 0, 0, 0, 0, 0, 0, 0, 0], [0, 0, 0, 0, 0, 0, 0, 1, 0, 0, 0, 0, 0, 0, 0, 0], [0, 0, 0, 0, 0, 0, 0, 1, 0, 0, 0, 0, 0, 0, 0, 0], [0, 0, 0, 0, 0, 0, 0, 1, 0, 0, 0, 0, 0, 0, 0, 0], [0, 0, 0, 0, 0, 0, 0, 1, 0, 0, 0, 0, 0, 0, 0, 0]], [[0, 0, 0, 0, 0, 0, 0, 0, 1, 0, 0, 0, 0, 0, 0, 0], [0, 0, 0, 0, 0, 0, 0, 0, 1, 0, 0, 0, 0, 0, 0, 0], [0, 0, 0, 0, 0, 0, 0, 0, 1, 0, 0, 0, 0, 0, 0, 0], [0, 0, 0, 0, 0, 0, 0, 0, 1, 0, 0, 0, 0, 0, 0, 0], [0, 0, 0, 0, 0, 0, 0, 0, 1, 0, 0, 0, 0, 0, 0, 0]], [[0, 0, 0, 0, 0, 0, 0, 0, 0, 1, 0, 0, 0, 0, 0, 0], [0, 0, 0, 0, 0, 0, 0, 0, 0, 1, 0, 0, 0, 0, 0, 0], [0, 0, 0, 0, 0, 0, 0, 0, 0, 1, 0, 0, 0, 0, 0, 0], [0, 0, 0, 0, 0, 0, 0, 0, 0, 1, 0, 0, 0, 0, 0, 0], [0, 0, 0, 0, 0, 0, 0, 0, 0, 1, 0, 0, 0, 0, 0, 0]], [[0, 0, 0, 0, 0, 0, 0, 0, 0, 0, 1, 0, 0, 0, 0, 0], [0, 0, 0, 0, 0, 0, 0, 0, 0, 0, 1, 0, 0, 0, 0, 0], [0, 0, 0, 0, 0, 0, 0, 0, 0, 0, 1, 0, 0, 0, 0, 0], [0, 0, 0, 0, 0, 0, 0, 0, 0, 0, 1, 0, 0, 0, 0, 0], [0, 0, 0, 0, 0, 0, 0, 0, 0, 0, 1, 0, 0, 0, 0, 0]], [[0, 0, 0, 0, 0, 0, 0, 0, 0, 0, 0, 1, 0, 0, 0, 0], [0, 0, 0, 0, 0, 0, 0, 0, 0, 0, 0, 1, 0, 0, 0, 0], [0, 0, 0, 0, 0, 0, 0, 0, 0, 0, 0, 1, 0, 0, 0, 0], [0, 0, 0, 0, 0, 0, 0, 0, 0, 0, 0, 1, 0, 0, 0, 0], [0, 0, 0, 0, 0, 0, 0, 0, 0, 0, 0, 1, 0, 0, 0, 0]], [[0, 0, 0, 0, 0, 0, 0, 0, 0, 0, 0, 0, 1, 0, 0, 0], [0, 0, 0, 0, 0, 0, 0, 0, 0, 0, 0, 0, 1, 0, 0, 0], [0, 0, 0, 0, 0, 0, 0, 0, 0, 0, 0, 0, 1, 0, 0, 0], [0, 0, 0, 0, 0, 0, 0, 0, 0, 0, 0, 0, 1, 0, 0, 0], [0, 0, 0, 0, 0, 0, 0, 0, 0, 0, 0, 0, 1, 0, 0, 0]], [[0, 0, 0, 0, 0, 0, 0, 0, 0, 0, 0, 0, 0, 1, 0, 0], [0, 0, 0, 0, 0, 0, 0, 0, 0, 0, 0, 0, 0, 1, 0, 0], [0, 0, 0, 0, 0, 0, 0, 0, 0, 0, 0, 0, 0, 1, 0, 0], [0, 0, 0, 0, 0, 0, 0, 0, 0, 0, 0, 0, 0, 1, 0, 0], [0, 0, 0, 0, 0, 0, 0, 0, 0, 0, 0, 0, 0, 1, 0, 0]], [[0, 0, 0, 0, 0, 0, 0, 0, 0, 0, 0, 0, 0, 0, 1, 0], [0, 0, 0, 0, 0, 0, 0, 0, 0, 0, 0, 0, 0, 0, 1, 0], [0, 0, 0, 0, 0, 0, 0, 0, 0, 0, 0, 0, 0, 0, 1, 0], [0, 0, 0, 0, 0, 0, 0, 0, 0, 0, 0, 0, 0, 0, 1, 0], [0, 0, 0, 0, 0, 0, 0, 0, 0, 0, 0, 0, 0, 0, 1, 0]], [[0, 0, 0, 0, 0, 0, 0, 0, 0, 0, 0, 0, 0, 0, 0, 1], [0, 0, 0, 0, 0, 0, 0, 0, 0, 0, 0, 0, 0, 0, 0, 1], [0, 0, 0, 0, 0, 0, 0, 0, 0, 0, 0, 0, 0, 0, 0, 1], [0, 0, 0, 0, 0, 0, 0, 0, 0, 0, 0, 0, 0, 0, 0, 1], [0, 0, 0, 0, 0, 0, 0, 0, 0, 0, 0, 0, 0, 0, 0, 1]]], prehc: 0, lambdahc: 1.267, rcut: 4.224, dcut: 0.01, rcut_in: 1.100, dcut_in: 0.01, inner_cutoff_type: distance}
functions:
  0:
    - {mu0: 0, rank: 1, ndensity: 1, num_ms_combs: 1, mus: [0], ns: [1], ls: [0], ms_combs: [0], ctildes: [-2.490426415271031]}
    - {mu0: 0, rank: 1, ndensity: 1, num_ms_combs: 1, mus: [1], ns: [1], ls: [0], ms_combs: [0], ctildes: [0.6271907174195803]}
    - {mu0: 0, rank: 1, ndensity: 1, num_ms_combs: 1, mus: [0], ns: [2], ls: [0], ms_combs: [0], ctildes: [4.168120824830112]}
    - {mu0: 0, rank: 1, ndensity: 1, num_ms_combs: 1, mus: [1], ns: [2], ls: [0], ms_combs: [0], ctildes: [1.0259273983583626]}
    - {mu0: 0, rank: 1, ndensity: 1, num_ms_combs: 1, mus: [0], ns: [3], ls: [0], ms_combs: [0], ctildes: [-0.6494771242614661]}
    - {mu0: 0, rank: 1, ndensity: 1, num_ms_combs: 1, mus: [1], ns: [3], ls: [0], ms_combs: [0], ctildes: [1.4160021482384764]}
    - {mu0: 0, rank: 1, ndensity: 1, num_ms_combs: 1, mus: [0], ns: [4], ls: [0], ms_combs: [0], ctildes: [1.6941817152637668]}
    - {mu0: 0, rank: 1, ndensity: 1, num_ms_combs: 1, mus: [1], ns: [4], ls: [0], ms_combs: [0], ctildes: [-2.5474565683246055]}
    - {mu0: 0, rank: 1, ndensity: 1, num_ms_combs: 1, mus: [0], ns: [5], ls: [0], ms_combs: [0], ctildes: [0.9702800519389712]}
    - {mu0: 0, rank: 1, ndensity: 1, num_ms_combs: 1, mus: [1], ns: [5], ls: [0], ms_combs: [0], ctildes: [0.7318329370809806]}
    - {mu0: 0, rank: 1, ndensity: 1, num_ms_combs: 1, mus: [0], ns: [6], ls: [0], ms_combs: [0], ctildes: [-0.09275005709332618]}
    - {mu0: 0, rank: 1, ndensity: 1, num_ms_combs: 1, mus: [1], ns: [6], ls: [0], ms_combs: [0], ctildes: [-0.26415699389713154]}
    - {mu0: 0, rank: 1, ndensity: 1, num_ms_combs: 1, mus: [0], ns: [7], ls: [0], ms_combs: [0], ctildes: [0.26166805979664787]}
    - {mu0: 0, rank: 1, ndensity: 1, num_ms_combs: 1, mus: [1], ns: [7], ls: [0], ms_combs: [0], ctildes: [0.31885608900029183]}
    - {mu0: 0, rank: 1, ndensity: 1, num_ms_combs: 1, mus: [0], ns: [8], ls: [0], ms_combs: [0], ctildes: [-0.2318964730729931]}
    - {mu0: 0, rank: 1, ndensity: 1, num_ms_combs: 1, mus: [1], ns: [8], ls: [0], ms_combs: [0], ctildes: [0.18223288593389952]}
    - {mu0: 0, rank: 1, ndensity: 1, num_ms_combs: 1, mus: [0], ns: [9], ls: [0], ms_combs: [0], ctildes: [-1.118484324997553]}
    - {mu0: 0, rank: 1, ndensity: 1, num_ms_combs: 1, mus: [1], ns: [9], ls: [0], ms_combs: [0], ctildes: [-1.5339698006146136]}
    - {mu0: 0, rank: 1, ndensity: 1, num_ms_combs: 1, mus: [0], ns: [10], ls: [0], ms_combs: [0], ctildes: [0.16545399094866298]}
    - {mu0: 0, rank: 1, ndensity: 1, num_ms_combs: 1, mus: [1], ns: [10], ls: [0], ms_combs: [0], ctildes: [0.16336646269155608]}
    - {mu0: 0, rank: 1, ndensity: 1, num_ms_combs: 1, mus: [0], ns: [11], ls: [0], ms_combs: [0], ctildes: [0.6445623116833303]}
    - {mu0: 0, rank: 1, ndensity: 1, num_ms_combs: 1, mus: [1], ns: [11], ls: [0], ms_combs: [0], ctildes: [0.7978405982355525]}
    - {mu0: 0, rank: 1, ndensity: 1, num_ms_combs: 1, mus: [0], ns: [12], ls: [0], ms_combs: [0], ctildes: [-0.08111692789589142]}
    - {mu0: 0, rank: 1, ndensity: 1, num_ms_combs: 1, mus: [1], ns: [12], ls: [0], ms_combs: [0], ctildes: [-0.3071807291098594]}
    - {mu0: 0, rank: 1, ndensity: 1, num_ms_combs: 1, mus: [0], ns: [13], ls: [0], ms_combs: [0], ctildes: [-0.6459822342326333]}
    - {mu0: 0, rank: 1, ndensity: 1, num_ms_combs: 1, mus: [1], ns: [13], ls: [0], ms_combs: [0], ctildes: [-0.5298570068093795]}
    - {mu0: 0, rank: 1, ndensity: 1, num_ms_combs: 1, mus: [0], ns: [14], ls: [0], ms_combs: [0], ctildes: [-0.12006504419696284]}
    - {mu0: 0, rank: 1, ndensity: 1, num_ms_combs: 1, mus: [1], ns: [14], ls: [0], ms_combs: [0], ctildes: [0.46978974363310044]}
    - {mu0: 0, rank: 1, ndensity: 1, num_ms_combs: 1, mus: [0], ns: [15], ls: [0], ms_combs: [0], ctildes: [0.4867576906526665]}
    - {mu0: 0, rank: 1, ndensity: 1, num_ms_combs: 1, mus: [1], ns: [15], ls: [0], ms_combs: [0], ctildes: [-0.0002813837545545539]}
    - {mu0: 0, rank: 1, ndensity: 1, num_ms_combs: 1, mus: [0], ns: [16], ls: [0], ms_combs: [0], ctildes: [-0.27613979803663824]}
    - {mu0: 0, rank: 1, ndensity: 1, num_ms_combs: 1, mus: [1], ns: [16], ls: [0], ms_combs: [0], ctildes: [-0.17870658626952718]}
    - {mu0: 0, rank: 2, ndensity: 1, num_ms_combs: 1, mus: [0, 0], ns: [1, 1], ls: [0, 0], ms_combs: [0, 0], ctildes: [0.28431772502744934]}
    - {mu0: 0, rank: 2, ndensity: 1, num_ms_combs: 1, mus: [0, 1], ns: [1, 1], ls: [0, 0], ms_combs: [0, 0], ctildes: [-0.005516227600310231]}
    - {mu0: 0, rank: 2, ndensity: 1, num_ms_combs: 1, mus: [1, 1], ns: [1, 1], ls: [0, 0], ms_combs: [0, 0], ctildes: [-0.5880248294965895]}
    - {mu0: 0, rank: 2, ndensity: 1, num_ms_combs: 1, mus: [0, 0], ns: [1, 2], ls: [0, 0], ms_combs: [0, 0], ctildes: [1.3492669069123622]}
    - {mu0: 0, rank: 2, ndensity: 1, num_ms_combs: 1, mus: [0, 1], ns: [1, 2], ls: [0, 0], ms_combs: [0, 0], ctildes: [1.1082654664410256]}
    - {mu0: 0, rank: 2, ndensity: 1, num_ms_combs: 1, mus: [1, 1], ns: [1, 2], ls: [0, 0], ms_combs: [0, 0], ctildes: [-0.5605553564187176]}
    - {mu0: 0, rank: 2, ndensity: 1, num_ms_combs: 1, mus: [0, 0], ns: [1, 3], ls: [0, 0], ms_combs: [0, 0], ctildes: [-0.6579799920109508]}
    - {mu0: 0, rank: 2, ndensity: 1, num_ms_combs: 1, mus: [0, 1], ns: [1, 3], ls: [0, 0], ms_combs: [0, 0], ctildes: [-1.6573505786618625]}
    - {mu0: 0, rank: 2, ndensity: 1, num_ms_combs: 1, mus: [1, 1], ns: [1, 3], ls: [0, 0], ms_combs: [0, 0], ctildes: [-1.1191218967028362]}
    - {mu0: 0, rank: 2, ndensity: 1, num_ms_combs: 1, mus: [0, 0], ns: [1, 4], ls: [0, 0], ms_combs: [0, 0], ctildes: [-0.27420770216212986]}
    - {mu0: 0, rank: 2, ndensity: 1, num_ms_combs: 1, mus: [0, 1], ns: [1, 4], ls: [0, 0], ms_combs: [0, 0], ctildes: [0.7425088577256247]}
    - {mu0: 0, rank: 2, ndensity: 1, num_ms_combs: 1, mus: [1, 1], ns: [1, 4], ls: [0, 0], ms_combs: [0, 0], ctildes: [0.550094740192435]}
    - {mu0: 0, rank: 2, ndensity: 1, num_ms_combs: 1, mus: [0, 1], ns: [2, 1], ls: [0, 0], ms_combs: [0, 0], ctildes: [-0.2719387233607904]}
    - {mu0: 0, rank: 2, ndensity: 1, num_ms_combs: 1, mus: [0, 0], ns: [2, 2], ls: [0, 0], ms_combs: [0, 0], ctildes: [-1.1974761901301463]}
    - {mu0: 0, rank: 2, ndensity: 1, num_ms_combs: 1, mus: [0, 1], ns: [2, 2], ls: [0, 0], ms_combs: [0, 0], ctildes: [0.23665723572048591]}
    - {mu0: 0, rank: 2, ndensity: 1, num_ms_combs: 1, mus: [1, 1], ns: [2, 2], ls: [0, 0], ms_combs: [0, 0], ctildes: [2.200147957181798]}
    - {mu0: 0, rank: 2, ndensity: 1, num_ms_combs: 1, mus: [0, 0], ns: [2, 3], ls: [0, 0], ms_combs: [0, 0], ctildes: [-0.6217896855187064]}
    - {mu0: 0, rank: 2, ndensity: 1, num_ms_combs: 1, mus: [0, 1], ns: [2, 3], ls: [0, 0], ms_combs: [0, 0], ctildes: [0.7934317625140466]}
    - {mu0: 0, rank: 2, ndensity: 1, num_ms_combs: 1, mus: [1, 1], ns: [2, 3], ls: [0, 0], ms_combs: [0, 0], ctildes: [2.0395090891688596]}
    - {mu0: 0, rank: 2, ndensity: 1, num_ms_combs: 1, mus: [0, 0], ns: [2, 4], ls: [0, 0], ms_combs: [0, 0], ctildes: [0.8528164961880975]}
    - {mu0: 0, rank: 2, ndensity: 1, num_ms_combs: 1, mus: [0, 1], ns: [2, 4], ls: [0, 0], ms_combs: [0, 0], ctildes: [-0.5121561147489047]}
    - {mu0: 0, rank: 2, ndensity: 1, num_ms_combs: 1, mus: [1, 1], ns: [2, 4], ls: [0, 0], ms_combs: [0, 0], ctildes: [0.3453629398263729]}
    - {mu0: 0, rank: 2, ndensity: 1, num_ms_combs: 1, mus: [0, 1], ns: [3, 1], ls: [0, 0], ms_combs: [0, 0], ctildes: [0.13178747897381982]}
    - {mu0: 0, rank: 2, ndensity: 1, num_ms_combs: 1, mus: [0, 1], ns: [3, 2], ls: [0, 0], ms_combs: [0, 0], ctildes: [-0.6305839539318185]}
    - {mu0: 0, rank: 2, ndensity: 1, num_ms_combs: 1, mus: [0, 0], ns: [3, 3], ls: [0, 0], ms_combs: [0, 0], ctildes: [1.173270929204591]}
    - {mu0: 0, rank: 2, ndensity: 1, num_ms_combs: 1, mus: [0, 1], ns: [3, 3], ls: [0, 0], ms_combs: [0, 0], ctildes: [-0.6759395924091223]}
    - {mu0: 0, rank: 2, ndensity: 1, num_ms_combs: 1, mus: [1, 1], ns: [3, 3], ls: [0, 0], ms_combs: [0, 0], ctildes: [0.18613082585397933]}
    - {mu0: 0, rank: 2, ndensity: 1, num_ms_combs: 1, mus: [0, 0], ns: [3, 4], ls: [0, 0], ms_combs: [0, 0], ctildes: [-0.32007359141789493]}
    - {mu0: 0, rank: 2, ndensity: 1, num_ms_combs: 1, mus: [0, 1], ns: [3, 4], ls: [0, 0], ms_combs: [0, 0], ctildes: [-0.9540232425715658]}
    - {mu0: 0, rank: 2, ndensity: 1, num_ms_combs: 1, mus: [1, 1], ns: [3, 4], ls: [0, 0], ms_combs: [0, 0], ctildes: [0.869965617557682]}
    - {mu0: 0, rank: 2, ndensity: 1, num_ms_combs: 1, mus: [0, 1], ns: [4, 1], ls: [0, 0], ms_combs: [0, 0], ctildes: [-0.32503321771946503]}
    - {mu0: 0, rank: 2, ndensity: 1, num_ms_combs: 1, mus: [0, 1], ns: [4, 2], ls: [0, 0], ms_combs: [0, 0], ctildes: [0.9286232935091903]}
    - {mu0: 0, rank: 2, ndensity: 1, num_ms_combs: 1, mus: [0, 1], ns: [4, 3], ls: [0, 0], ms_combs: [0, 0], ctildes: [0.16884333556663478]}
    - {mu0: 0, rank: 2, ndensity: 1, num_ms_combs: 1, mus: [0, 0], ns: [4, 4], ls: [0, 0], ms_combs: [0, 0], ctildes: [0.015352904513953547]}
    - {mu0: 0, rank: 2, ndensity: 1, num_ms_combs: 1, mus: [0, 1], ns: [4, 4], ls: [0, 0], ms_combs: [0, 0], ctildes: [-0.3976475272851303]}
    - {mu0: 0, rank: 2, ndensity: 1, num_ms_combs: 1, mus: [1, 1], ns: [4, 4], ls: [0, 0], ms_combs: [0, 0], ctildes: [-1.0282845255065922]}
    - {mu0: 0, rank: 2, ndensity: 1, num_ms_combs: 3, mus: [0, 0], ns: [1, 1], ls: [1, 1], ms_combs: [-1, 1, 0, 0, 1, -1], ctildes: [0.17692743824565327, -0.17692743824565327, 0.17692743824565327]}
    - {mu0: 0, rank: 2, ndensity: 1, num_ms_combs: 3, mus: [0, 1], ns: [1, 1], ls: [1, 1], ms_combs: [-1, 1, 0, 0, 1, -1], ctildes: [0.8622075700069598, -0.8622075700069598, 0.8622075700069598]}
    - {mu0: 0, rank: 2, ndensity: 1, num_ms_combs: 3, mus: [1, 1], ns: [1, 1], ls: [1, 1], ms_combs: [-1, 1, 0, 0, 1, -1], ctildes: [-0.22145215694200274, 0.22145215694200274, -0.22145215694200274]}
    - {mu0: 0, rank: 2, ndensity: 1, num_ms_combs: 3, mus: [0, 0], ns: [1, 2], ls: [1, 1], ms_combs: [-1, 1, 0, 0, 1, -1], ctildes: [-0.2550560924670019, 0.2550560924670019, -0.2550560924670019]}
    - {mu0: 0, rank: 2, ndensity: 1, num_ms_combs: 3, mus: [0, 1], ns: [1, 2], ls: [1, 1], ms_combs: [-1, 1, 0, 0, 1, -1], ctildes: [-0.32549831815604136, 0.32549831815604136, -0.32549831815604136]}
    - {mu0: 0, rank: 2, ndensity: 1, num_ms_combs: 3, mus: [1, 1], ns: [1, 2], ls: [1, 1], ms_combs: [-1, 1, 0, 0, 1, -1], ctildes: [-0.8970805168135275, 0.8970805168135275, -0.8970805168135275]}
    - {mu0: 0, rank: 2, ndensity: 1, num_ms_combs: 3, mus: [0, 0], ns: [1, 3], ls: [1, 1], ms_combs: [-1, 1, 0, 0, 1, -1], ctildes: [-0.6638376875554393, 0.6638376875554393, -0.6638376875554393]}
    - {mu0: 0, rank: 2, ndensity: 1, num_ms_combs: 3, mus: [0, 1], ns: [1, 3], ls: [1, 1], ms_combs: [-1, 1, 0, 0, 1, -1], ctildes: [-0.6073102455411697, 0.6073102455411697, -0.6073102455411697]}
    - {mu0: 0, rank: 2, ndensity: 1, num_ms_combs: 3, mus: [1, 1], ns: [1, 3], ls: [1, 1], ms_combs: [-1, 1, 0, 0, 1, -1], ctildes: [-0.825070719809325, 0.825070719809325, -0.825070719809325]}
    - {mu0: 0, rank: 2, ndensity: 1, num_ms_combs: 3, mus: [0, 0], ns: [1, 4], ls: [1, 1], ms_combs: [-1, 1, 0, 0, 1, -1], ctildes: [-0.4832900135784857, 0.4832900135784857, -0.4832900135784857]}
    - {mu0: 0, rank: 2, ndensity: 1, num_ms_combs: 3, mus: [0, 1], ns: [1, 4], ls: [1, 1], ms_combs: [-1, 1, 0, 0, 1, -1], ctildes: [0.6061081721638395, -0.6061081721638395, 0.6061081721638395]}
    - {mu0: 0, rank: 2, ndensity: 1, num_ms_combs: 3, mus: [1, 1], ns: [1, 4], ls: [1, 1], ms_combs: [-1, 1, 0, 0, 1, -1], ctildes: [1.1015201549636158, -1.1015201549636158, 1.1015201549636158]}
    - {mu0: 0, rank: 2, ndensity: 1, num_ms_combs: 3, mus: [0, 1], ns: [2, 1], ls: [1, 1], ms_combs: [-1, 1, 0, 0, 1, -1], ctildes: [-0.7082952923477362, 0.7082952923477362, -0.7082952923477362]}
    - {mu0: 0, rank: 2, ndensity: 1, num_ms_combs: 3, mus: [0, 0], ns: [2, 2], ls: [1, 1], ms_combs: [-1, 1, 0, 0, 1, -1], ctildes: [-0.018931921905860034, 0.018931921905860034, -0.018931921905860034]}
    - {mu0: 0, rank: 2, ndensity: 1, num_ms_combs: 3, mus: [0, 1], ns: [2, 2], ls: [1, 1], ms_combs: [-1, 1, 0, 0, 1, -1], ctildes: [0.023299076883181866, -0.023299076883181866, 0.023299076883181866]}
    - {mu0: 0, rank: 2, ndensity: 1, num_ms_combs: 3, mus: [1, 1], ns: [2, 2], ls: [1, 1], ms_combs: [-1, 1, 0, 0, 1, -1], ctildes: [0.09389984900549612, -0.09389984900549612, 0.09389984900549612]}
    - {mu0: 0, rank: 2, ndensity: 1, num_ms_combs: 3, mus: [0, 0], ns: [2, 3], ls: [1, 1], ms_combs: [-1, 1, 0, 0, 1, -1], ctildes: [0.03362257037214236, -0.03362257037214236, 0.03362257037214236]}
    - {mu0: 0, rank: 2, ndensity: 1, num_ms_combs: 3, mus: [0, 1], ns: [2, 3], ls: [1, 1], ms_combs: [-1, 1, 0, 0, 1, -1], ctildes: [0.08335214202946778, -0.08335214202946778, 0.08335214202946778]}
    - {mu0: 0, rank: 2, ndensity: 1, num_ms_combs: 3, mus: [1, 1], ns: [2, 3], ls: [1, 1], ms_combs: [-1, 1, 0, 0, 1, -1], ctildes: [0.24974098854038146, -0.24974098854038146, 0.24974098854038146]}
    - {mu0: 0, rank: 2, ndensity: 1, num_ms_combs: 3, mus: [0, 0], ns: [2, 4], ls: [1, 1], ms_combs: [-1, 1, 0, 0, 1, -1], ctildes: [-0.3184971988994488, 0.3184971988994488, -0.3184971988994488]}
    - {mu0: 0, rank: 2, ndensity: 1, num_ms_combs: 3, mus: [0, 1], ns: [2, 4], ls: [1, 1], ms_combs: [-1, 1, 0, 0, 1, -1], ctildes: [0.1751638725972397, -0.1751638725972397, 0.1751638725972397]}
    - {mu0: 0, rank: 2, ndensity: 1, num_ms_combs: 3, mus: [1, 1], ns: [2, 4], ls: [1, 1], ms_combs: [-1, 1, 0, 0, 1, -1], ctildes: [1.1791722089380756, -1.1791722089380756, 1.1791722089380756]}
    - {mu0: 0, rank: 2, ndensity: 1, num_ms_combs: 3, mus: [0, 1], ns: [3, 1], ls: [1, 1], ms_combs: [-1, 1, 0, 0, 1, -1], ctildes: [-0.5851557970677579, 0.5851557970677579, -0.5851557970677579]}
    - {mu0: 0, rank: 2, ndensity: 1, num_ms_combs: 3, mus: [0, 1], ns: [3, 2], ls: [1, 1], ms_combs: [-1, 1, 0, 0, 1, -1], ctildes: [-0.0005791730279034876, 0.0005791730279034876, -0.0005791730279034876]}
    - {mu0: 0, rank: 2, ndensity: 1, num_ms_combs: 3, mus: [0, 0], ns: [3, 3], ls: [1, 1], ms_combs: [-1, 1, 0, 0, 1, -1], ctildes: [0.6848617388298901, -0.6848617388298901, 0.6848617388298901]}
    - {mu0: 0, rank: 2, ndensity: 1, num_ms_combs: 3, mus: [0, 1], ns: [3, 3], ls: [1, 1], ms_combs: [-1, 1, 0, 0, 1, -1], ctildes: [-0.14886523354306613, 0.14886523354306613, -0.14886523354306613]}
    - {mu0: 0, rank: 2, ndensity: 1, num_ms_combs: 3, mus: [1, 1], ns: [3, 3], ls: [1, 1], ms_combs: [-1, 1, 0, 0, 1, -1], ctildes: [-0.2589559581089258, 0.2589559581089258, -0.2589559581089258]}
    - {mu0: 0, rank: 2, ndensity: 1, num_ms_combs: 3, mus: [0, 0], ns: [3, 4], ls: [1, 1], ms_combs: [-1, 1, 0, 0, 1, -1], ctildes: [0.22942927582860487, -0.22942927582860487, 0.22942927582860487]}
    - {mu0: 0, rank: 2, ndensity: 1, num_ms_combs: 3, mus: [0, 1], ns: [3, 4], ls: [1, 1], ms_combs: [-1, 1, 0, 0, 1, -1], ctildes: [0.24816297674848212, -0.24816297674848212, 0.24816297674848212]}
    - {mu0: 0, rank: 2, ndensity: 1, num_ms_combs: 3, mus: [1, 1], ns: [3, 4], ls: [1, 1], ms_combs: [-1, 1, 0, 0, 1, -1], ctildes: [1.1603852708838471, -1.1603852708838471, 1.1603852708838471]}
    - {mu0: 0, rank: 2, ndensity: 1, num_ms_combs: 3, mus: [0, 1], ns: [4, 1], ls: [1, 1], ms_combs: [-1, 1, 0, 0, 1, -1], ctildes: [0.5332780930463324, -0.5332780930463324, 0.5332780930463324]}
    - {mu0: 0, rank: 2, ndensity: 1, num_ms_combs: 3, mus: [0, 1], ns: [4, 2], ls: [1, 1], ms_combs: [-1, 1, 0, 0, 1, -1], ctildes: [0.31618564624798773, -0.31618564624798773, 0.31618564624798773]}
    - {mu0: 0, rank: 2, ndensity: 1, num_ms_combs: 3, mus: [0, 1], ns: [4, 3], ls: [1, 1], ms_combs: [-1, 1, 0, 0, 1, -1], ctildes: [0.1745915090426104, -0.1745915090426104, 0.1745915090426104]}
    - {mu0: 0, rank: 2, ndensity: 1, num_ms_combs: 3, mus: [0, 0], ns: [4, 4], ls: [1, 1], ms_combs: [-1, 1, 0, 0, 1, -1], ctildes: [0.18715131893190268, -0.18715131893190268, 0.18715131893190268]}
    - {mu0: 0, rank: 2, ndensity: 1, num_ms_combs: 3, mus: [0, 1], ns: [4, 4], ls: [1, 1], ms_combs: [-1, 1, 0, 0, 1, -1], ctildes: [-0.7947549505257838, 0.7947549505257838, -0.7947549505257838]}
    - {mu0: 0, rank: 2, ndensity: 1, num_ms_combs: 3, mus: [1, 1], ns: [4, 4], ls: [1, 1], ms_combs: [-1, 1, 0, 0, 1, -1], ctildes: [-0.9883183166716499, 0.9883183166716499, -0.9883183166716499]}
    - {mu0: 0, rank: 2, ndensity: 1, num_ms_combs: 5, mus: [0, 0], ns: [1, 1], ls: [2, 2], ms_combs: [-2, 2, -1, 1, 0, 0, 1, -1, 2, -2], ctildes: [0.2417215179156322, -0.2417215179156322, 0.2417215179156322, -0.2417215179156322, 0.2417215179156322]}
    - {mu0: 0, rank: 2, ndensity: 1, num_ms_combs: 5, mus: [0, 1], ns: [1, 1], ls: [2, 2], ms_combs: [-2, 2, -1, 1, 0, 0, 1, -1, 2, -2], ctildes: [0.013533931567330418, -0.013533931567330418, 0.013533931567330418, -0.013533931567330418, 0.013533931567330418]}
    - {mu0: 0, rank: 2, ndensity: 1, num_ms_combs: 5, mus: [1, 1], ns: [1, 1], ls: [2, 2], ms_combs: [-2, 2, -1, 1, 0, 0, 1, -1, 2, -2], ctildes: [0.5815593562492826, -0.5815593562492826, 0.5815593562492826, -0.5815593562492826, 0.5815593562492826]}
    - {mu0: 0, rank: 2, ndensity: 1, num_ms_combs: 5, mus: [0, 0], ns: [1, 2], ls: [2, 2], ms_combs: [-2, 2, -1, 1, 0, 0, 1, -1, 2, -2], ctildes: [1.3965628472650873, -1.3965628472650873, 1.3965628472650873, -1.3965628472650873, 1.3965628472650873]}
    - {mu0: 0, rank: 2, ndensity: 1, num_ms_combs: 5, mus: [0, 1], ns: [1, 2], ls: [2, 2], ms_combs: [-2, 2, -1, 1, 0, 0, 1, -1, 2, -2], ctildes: [0.9958877121683233, -0.9958877121683233, 0.9958877121683233, -0.9958877121683233, 0.9958877121683233]}
    - {mu0: 0, rank: 2, ndensity: 1, num_ms_combs: 5, mus: [1, 1], ns: [1, 2], ls: [2, 2], ms_combs: [-2, 2, -1, 1, 0, 0, 1, -1, 2, -2], ctildes: [-1.4091983373041812, 1.4091983373041812, -1.4091983373041812, 1.4091983373041812, -1.4091983373041812]}
    - {mu0: 0, rank: 2, ndensity: 1, num_ms_combs: 5, mus: [0, 0], ns: [1, 3], ls: [2, 2], ms_combs: [-2, 2, -1, 1, 0, 0, 1, -1, 2, -2], ctildes: [-0.4923931505947528, 0.4923931505947528, -0.4923931505947528, 0.4923931505947528, -0.4923931505947528]}
    - {mu0: 0, rank: 2, ndensity: 1, num_ms_combs: 5, mus: [0, 1], ns: [1, 3], ls: [2, 2], ms_combs: [-2, 2, -1, 1, 0, 0, 1, -1, 2, -2], ctildes: [-0.9078353459116701, 0.9078353459116701, -0.9078353459116701, 0.9078353459116701, -0.9078353459116701]}
    - {mu0: 0, rank: 2, ndensity: 1, num_ms_combs: 5, mus: [1, 1], ns: [1, 3], ls: [2, 2], ms_combs: [-2, 2, -1, 1, 0, 0, 1, -1, 2, -2], ctildes: [0.13951988510962732, -0.13951988510962732, 0.13951988510962732, -0.13951988510962732, 0.13951988510962732]}
    - {mu0: 0, rank: 2, ndensity: 1, num_ms_combs: 5, mus: [0, 0], ns: [1, 4], ls: [2, 2], ms_combs: [-2, 2, -1, 1, 0, 0, 1, -1, 2, -2], ctildes: [0.059358924380218295, -0.059358924380218295, 0.059358924380218295, -0.059358924380218295, 0.059358924380218295]}
    - {mu0: 0, rank: 2, ndensity: 1, num_ms_combs: 5, mus: [0, 1], ns: [1, 4], ls: [2, 2], ms_combs: [-2, 2, -1, 1, 0, 0, 1, -1, 2, -2], ctildes: [-0.09970340191664105, 0.09970340191664105, -0.09970340191664105, 0.09970340191664105, -0.09970340191664105]}
    - {mu0: 0, rank: 2, ndensity: 1, num_ms_combs: 5, mus: [1, 1], ns: [1, 4], ls: [2, 2], ms_combs: [-2, 2, -1, 1, 0, 0, 1, -1, 2, -2], ctildes: [-0.5026834022985549, 0.5026834022985549, -0.5026834022985549, 0.5026834022985549, -0.5026834022985549]}
    - {mu0: 0, rank: 2, ndensity: 1, num_ms_combs: 5, mus: [0, 1], ns: [2, 1], ls: [2, 2], ms_combs: [-2, 2, -1, 1, 0, 0, 1, -1, 2, -2], ctildes: [-1.2124640901073798, 1.2124640901073798, -1.2124640901073798, 1.2124640901073798, -1.2124640901073798]}
    - {mu0: 0, rank: 2, ndensity: 1, num_ms_combs: 5, mus: [0, 0], ns: [2, 2], ls: [2, 2], ms_combs: [-2, 2, -1, 1, 0, 0, 1, -1, 2, -2], ctildes: [0.6340421196779344, -0.6340421196779344, 0.6340421196779344, -0.6340421196779344, 0.6340421196779344]}
    - {mu0: 0, rank: 2, ndensity: 1, num_ms_combs: 5, mus: [0, 1], ns: [2, 2], ls: [2, 2], ms_combs: [-2, 2, -1, 1, 0, 0, 1, -1, 2, -2], ctildes: [0.24825174714325438, -0.24825174714325438, 0.24825174714325438, -0.24825174714325438, 0.24825174714325438]}
    - {mu0: 0, rank: 2, ndensity: 1, num_ms_combs: 5, mus: [1, 1], ns: [2, 2], ls: [2, 2], ms_combs: [-2, 2, -1, 1, 0, 0, 1, -1, 2, -2], ctildes: [0.09217883665704157, -0.09217883665704157, 0.09217883665704157, -0.09217883665704157, 0.09217883665704157]}
    - {mu0: 0, rank: 2, ndensity: 1, num_ms_combs: 5, mus: [0, 0], ns: [2, 3], ls: [2, 2], ms_combs: [-2, 2, -1, 1, 0, 0, 1, -1, 2, -2], ctildes: [1.0695969319277858, -1.0695969319277858, 1.0695969319277858, -1.0695969319277858, 1.0695969319277858]}
    - {mu0: 0, rank: 2, ndensity: 1, num_ms_combs: 5, mus: [0, 1], ns: [2, 3], ls: [2, 2], ms_combs: [-2, 2, -1, 1, 0, 0, 1, -1, 2, -2], ctildes: [-0.9183824707323339, 0.9183824707323339, -0.9183824707323339, 0.9183824707323339, -0.9183824707323339]}
    - {mu0: 0, rank: 2, ndensity: 1, num_ms_combs: 5, mus: [1, 1], ns: [2, 3], ls: [2, 2], ms_combs: [-2, 2, -1, 1, 0, 0, 1, -1, 2, -2], ctildes: [-0.2242387642119323, 0.2242387642119323, -0.2242387642119323, 0.2242387642119323, -0.2242387642119323]}
    - {mu0: 0, rank: 2, ndensity: 1, num_ms_combs: 5, mus: [0, 0], ns: [2, 4], ls: [2, 2], ms_combs: [-2, 2, -1, 1, 0, 0, 1, -1, 2, -2], ctildes: [1.8837296997707917, -1.8837296997707917, 1.8837296997707917, -1.8837296997707917, 1.8837296997707917]}
    - {mu0: 0, rank: 2, ndensity: 1, num_ms_combs: 5, mus: [0, 1], ns: [2, 4], ls: [2, 2], ms_combs: [-2, 2, -1, 1, 0, 0, 1, -1, 2, -2], ctildes: [-0.784047311378342, 0.784047311378342, -0.784047311378342, 0.784047311378342, -0.784047311378342]}
    - {mu0: 0, rank: 2, ndensity: 1, num_ms_combs: 5, mus: [1, 1], ns: [2, 4], ls: [2, 2], ms_combs: [-2, 2, -1, 1, 0, 0, 1, -1, 2, -2], ctildes: [-0.869083101936686, 0.869083101936686, -0.869083101936686, 0.869083101936686, -0.869083101936686]}
    - {mu0: 0, rank: 2, ndensity: 1, num_ms_combs: 5, mus: [0, 1], ns: [3, 1], ls: [2, 2], ms_combs: [-2, 2, -1, 1, 0, 0, 1, -1, 2, -2], ctildes: [0.17946491825766142, -0.17946491825766142, 0.17946491825766142, -0.17946491825766142, 0.17946491825766142]}
    - {mu0: 0, rank: 2, ndensity: 1, num_ms_combs: 5, mus: [0, 1], ns: [3, 2], ls: [2, 2], ms_combs: [-2, 2, -1, 1, 0, 0, 1, -1, 2, -2], ctildes: [1.3531977235226456, -1.3531977235226456, 1.3531977235226456, -1.3531977235226456, 1.3531977235226456]}
    - {mu0: 0, rank: 2, ndensity: 1, num_ms_combs: 5, mus: [0, 0], ns: [3, 3], ls: [2, 2], ms_combs: [-2, 2, -1, 1, 0, 0, 1, -1, 2, -2], ctildes: [-0.7312875101066981, 0.7312875101066981, -0.7312875101066981, 0.7312875101066981, -0.7312875101066981]}
    - {mu0: 0, rank: 2, ndensity: 1, num_ms_combs: 5, mus: [0, 1], ns: [3, 3], ls: [2, 2], ms_combs: [-2, 2, -1, 1, 0, 0, 1, -1, 2, -2], ctildes: [-0.562088549283654, 0.562088549283654, -0.562088549283654, 0.562088549283654, -0.562088549283654]}
    - {mu0: 0, rank: 2, ndensity: 1, num_ms_combs: 5, mus: [1, 1], ns: [3, 3], ls: [2, 2], ms_combs: [-2, 2, -1, 1, 0, 0, 1, -1, 2, -2], ctildes: [0.29141287228785506, -0.29141287228785506, 0.29141287228785506, -0.29141287228785506, 0.29141287228785506]}
    - {mu0: 0, rank: 2, ndensity: 1, num_ms_combs: 5, mus: [0, 0], ns: [3, 4], ls: [2, 2], ms_combs: [-2, 2, -1, 1, 0, 0, 1, -1, 2, -2], ctildes: [-0.7488419711474725, 0.7488419711474725, -0.7488419711474725, 0.7488419711474725, -0.7488419711474725]}
    - {mu0: 0, rank: 2, ndensity: 1, num_ms_combs: 5, mus: [0, 1], ns: [3, 4], ls: [2, 2], ms_combs: [-2, 2, -1, 1, 0, 0, 1, -1, 2, -2], ctildes: [1.2102423557616733, -1.2102423557616733, 1.2102423557616733, -1.2102423557616733, 1.2102423557616733]}
    - {mu0: 0, rank: 2, ndensity: 1, num_ms_combs: 5, mus: [1, 1], ns: [3, 4], ls: [2, 2], ms_combs: [-2, 2, -1, 1, 0, 0, 1, -1, 2, -2], ctildes: [0.9056989050155783, -0.9056989050155783, 0.9056989050155783, -0.9056989050155783, 0.9056989050155783]}
    - {mu0: 0, rank: 2, ndensity: 1, num_ms_combs: 5, mus: [0, 1], ns: [4, 1], ls: [2, 2], ms_combs: [-2, 2, -1, 1, 0, 0, 1, -1, 2, -2], ctildes: [-0.4101283600384985, 0.4101283600384985, -0.4101283600384985, 0.4101283600384985, -0.4101283600384985]}
    - {mu0: 0, rank: 2, ndensity: 1, num_ms_combs: 5, mus: [0, 1], ns: [4, 2], ls: [2, 2], ms_combs: [-2, 2, -1, 1, 0, 0, 1, -1, 2, -2], ctildes: [1.8403659149033977, -1.8403659149033977, 1.8403659149033977, -1.8403659149033977, 1.8403659149033977]}
    - {mu0: 0, rank: 2, ndensity: 1, num_ms_combs: 5, mus: [0, 1], ns: [4, 3], ls: [2, 2], ms_combs: [-2, 2, -1, 1, 0, 0, 1, -1, 2, -2], ctildes: [-0.7799643767887839, 0.7799643767887839, -0.7799643767887839, 0.7799643767887839, -0.7799643767887839]}
    - {mu0: 0, rank: 2, ndensity: 1, num_ms_combs: 5, mus: [0, 0], ns: [4, 4], ls: [2, 2], ms_combs: [-2, 2, -1, 1, 0, 0, 1, -1, 2, -2], ctildes: [0.1998768195372632, -0.1998768195372632, 0.1998768195372632, -0.1998768195372632, 0.1998768195372632]}
    - {mu0: 0, rank: 2, ndensity: 1, num_ms_combs: 5, mus: [0, 1], ns: [4, 4], ls: [2, 2], ms_combs: [-2, 2, -1, 1, 0, 0, 1, -1, 2, -2], ctildes: [0.3171535106553745, -0.3171535106553745, 0.3171535106553745, -0.3171535106553745, 0.3171535106553745]}
    - {mu0: 0, rank: 2, ndensity: 1, num_ms_combs: 5, mus: [1, 1], ns: [4, 4], ls: [2, 2], ms_combs: [-2, 2, -1, 1, 0, 0, 1, -1, 2, -2], ctildes: [-0.2902774139592991, 0.2902774139592991, -0.2902774139592991, 0.2902774139592991, -0.2902774139592991]}
    - {mu0: 0, rank: 3, ndensity: 1, num_ms_combs: 1, mus: [0, 0, 0], ns: [1, 1, 1], ls: [0, 0, 0], ms_combs: [0, 0, 0], ctildes: [-0.08715469570233836]}
    - {mu0: 0, rank: 3, ndensity: 1, num_ms_combs: 1, mus: [0, 0, 1], ns: [1, 1, 1], ls: [0, 0, 0], ms_combs: [0, 0, 0], ctildes: [0.33008963685097115]}
    - {mu0: 0, rank: 3, ndensity: 1, num_ms_combs: 1, mus: [0, 1, 1], ns: [1, 1, 1], ls: [0, 0, 0], ms_combs: [0, 0, 0], ctildes: [-0.04497822657140205]}
    - {mu0: 0, rank: 3, ndensity: 1, num_ms_combs: 1, mus: [1, 1, 1], ns: [1, 1, 1], ls: [0, 0, 0], ms_combs: [0, 0, 0], ctildes: [0.1714008555777582]}
    - {mu0: 0, rank: 3, ndensity: 1, num_ms_combs: 3, mus: [0, 0, 0], ns: [1, 1, 1], ls: [0, 1, 1], ms_combs: [0, -1, 1, 0, 0, 0, 0, 1, -1], ctildes: [0.021764243207728278, -0.021764243207728278, 0.021764243207728278]}
    - {mu0: 0, rank: 3, ndensity: 1, num_ms_combs: 3, mus: [0, 0, 1], ns: [1, 1, 1], ls: [0, 1, 1], ms_combs: [0, -1, 1, 0, 0, 0, 0, 1, -1], ctildes: [-0.08474951012436324, 0.08474951012436324, -0.08474951012436324]}
    - {mu0: 0, rank: 3, ndensity: 1, num_ms_combs: 3, mus: [0, 1, 1], ns: [1, 1, 1], ls: [0, 1, 1], ms_combs: [0, -1, 1, 0, 0, 0, 0, 1, -1], ctildes: [-0.04037645971793092, 0.04037645971793092, -0.04037645971793092]}
    - {mu0: 0, rank: 3, ndensity: 1, num_ms_combs: 3, mus: [1, 1, 1], ns: [1, 1, 1], ls: [0, 1, 1], ms_combs: [0, -1, 1, 0, 0, 0, 0, 1, -1], ctildes: [-0.049169509539235726, 0.049169509539235726, -0.049169509539235726]}
    - {mu0: 0, rank: 3, ndensity: 1, num_ms_combs: 5, mus: [0, 0, 0], ns: [1, 1, 1], ls: [0, 2, 2], ms_combs: [0, -2, 2, 0, -1, 1, 0, 0, 0, 0, 1, -1, 0, 2, -2], ctildes: [0.0007351556927850279, -0.0007351556927850279, 0.0007351556927850279, -0.0007351556927850279, 0.0007351556927850279]}
    - {mu0: 0, rank: 3, ndensity: 1, num_ms_combs: 5, mus: [0, 0, 1], ns: [1, 1, 1], ls: [0, 2, 2], ms_combs: [0, -2, 2, 0, -1, 1, 0, 0, 0, 0, 1, -1, 0, 2, -2], ctildes: [-0.002288912714840442, 0.002288912714840442, -0.002288912714840442, 0.002288912714840442, -0.002288912714840442]}
    - {mu0: 0, rank: 3, ndensity: 1, num_ms_combs: 5, mus: [0, 1, 1], ns: [1, 1, 1], ls: [0, 2, 2], ms_combs: [0, -2, 2, 0, -1, 1, 0, 0, 0, 0, 1, -1, 0, 2, -2], ctildes: [0.0041335047287812425, -0.0041335047287812425, 0.0041335047287812425, -0.0041335047287812425, 0.0041335047287812425]}
    - {mu0: 0, rank: 3, ndensity: 1, num_ms_combs: 5, mus: [1, 1, 1], ns: [1, 1, 1], ls: [0, 2, 2], ms_combs: [0, -2, 2, 0, -1, 1, 0, 0, 0, 0, 1, -1, 0, 2, -2], ctildes: [0.00978680878770936, -0.00978680878770936, 0.00978680878770936, -0.00978680878770936, 0.00978680878770936]}
    - {mu0: 0, rank: 3, ndensity: 1, num_ms_combs: 7, mus: [0, 0, 0], ns: [1, 1, 1], ls: [0, 3, 3], ms_combs: [0, -3, 3, 0, -2, 2, 0, -1, 1, 0, 0, 0, 0, 1, -1, 0, 2, -2, 0, 3, -3], ctildes: [-0.040456361782713904, 0.040456361782713904, -0.040456361782713904, 0.040456361782713904, -0.040456361782713904, 0.040456361782713904, -0.040456361782713904]}
    - {mu0: 0, rank: 3, ndensity: 1, num_ms_combs: 7, mus: [0, 0, 1], ns: [1, 1, 1], ls: [0, 3, 3], ms_combs: [0, -3, 3, 0, -2, 2, 0, -1, 1, 0, 0, 0, 0, 1, -1, 0, 2, -2, 0, 3, -3], ctildes: [0.08029223780680192, -0.08029223780680192, 0.08029223780680192, -0.08029223780680192, 0.08029223780680192, -0.08029223780680192, 0.08029223780680192]}
    - {mu0: 0, rank: 3, ndensity: 1, num_ms_combs: 7, mus: [0, 1, 1], ns: [1, 1, 1], ls: [0, 3, 3], ms_combs: [0, -3, 3, 0, -2, 2, 0, -1, 1, 0, 0, 0, 0, 1, -1, 0, 2, -2, 0, 3, -3], ctildes: [-0.027780605988146065, 0.027780605988146065, -0.027780605988146065, 0.027780605988146065, -0.027780605988146065, 0.027780605988146065, -0.027780605988146065]}
    - {mu0: 0, rank: 3, ndensity: 1, num_ms_combs: 7, mus: [1, 1, 1], ns: [1, 1, 1], ls: [0, 3, 3], ms_combs: [0, -3, 3, 0, -2, 2, 0, -1, 1, 0, 0, 0, 0, 1, -1, 0, 2, -2, 0, 3, -3], ctildes: [0.011321060740016488, -0.011321060740016488, 0.011321060740016488, -0.011321060740016488, 0.011321060740016488, -0.011321060740016488, 0.011321060740016488]}
    - {mu0: 0, rank: 3, ndensity: 1, num_ms_combs: 9, mus: [0, 0, 0], ns: [1, 1, 1], ls: [0, 4, 4], ms_combs: [0, -4, 4, 0, -3, 3, 0, -2, 2, 0, -1, 1, 0, 0, 0, 0, 1, -1, 0, 2, -2, 0, 3, -3, 0, 4, -4], ctildes: [0.013246409399274229, -0.013246409399274229, 0.013246409399274229, -0.013246409399274229, 0.013246409399274229, -0.013246409399274229, 0.013246409399274229, -0.013246409399274229, 0.013246409399274229]}
    - {mu0: 0, rank: 3, ndensity: 1, num_ms_combs: 9, mus: [0, 0, 1], ns: [1, 1, 1], ls: [0, 4, 4], ms_combs: [0, -4, 4, 0, -3, 3, 0, -2, 2, 0, -1, 1, 0, 0, 0, 0, 1, -1, 0, 2, -2, 0, 3, -3, 0, 4, -4], ctildes: [-0.024251169918384868, 0.024251169918384868, -0.024251169918384868, 0.024251169918384868, -0.024251169918384868, 0.024251169918384868, -0.024251169918384868, 0.024251169918384868, -0.024251169918384868]}
    - {mu0: 0, rank: 3, ndensity: 1, num_ms_combs: 9, mus: [0, 1, 1], ns: [1, 1, 1], ls: [0, 4, 4], ms_combs: [0, -4, 4, 0, -3, 3, 0, -2, 2, 0, -1, 1, 0, 0, 0, 0, 1, -1, 0, 2, -2, 0, 3, -3, 0, 4, -4], ctildes: [0.014292930386072131, -0.014292930386072131, 0.014292930386072131, -0.014292930386072131, 0.014292930386072131, -0.014292930386072131, 0.014292930386072131, -0.014292930386072131, 0.014292930386072131]}
    - {mu0: 0, rank: 3, ndensity: 1, num_ms_combs: 9, mus: [1, 1, 1], ns: [1, 1, 1], ls: [0, 4, 4], ms_combs: [0, -4, 4, 0, -3, 3, 0, -2, 2, 0, -1, 1, 0, 0, 0, 0, 1, -1, 0, 2, -2, 0, 3, -3, 0, 4, -4], ctildes: [-0.001800995966456624, 0.001800995966456624, -0.001800995966456624, 0.001800995966456624, -0.001800995966456624, 0.001800995966456624, -0.001800995966456624, 0.001800995966456624, -0.001800995966456624]}
    - {mu0: 0, rank: 3, ndensity: 1, num_ms_combs: 3, mus: [0, 1, 1], ns: [1, 1, 1], ls: [1, 0, 1], ms_combs: [-1, 0, 1, 0, 0, 0, 1, 0, -1], ctildes: [-0.00010503972170763342, 0.00010503972170763342, -0.00010503972170763342]}
    - {mu0: 0, rank: 3, ndensity: 1, num_ms_combs: 3, mus: [0, 0, 1], ns: [1, 1, 1], ls: [1, 1, 0], ms_combs: [-1, 1, 0, 0, 0, 0, 1, -1, 0], ctildes: [-0.029837161545197863, 0.029837161545197863, -0.029837161545197863]}
    - {mu0: 0, rank: 3, ndensity: 1, num_ms_combs: 9, mus: [0, 0, 0], ns: [1, 1, 1], ls: [1, 1, 2], ms_combs: [-1, -1, 2, -1, 0, 1, -1, 1, 0, 0, -1, 1, 0, 0, 0, 0, 1, -1, 1, -1, 0, 1, 0, -1, 1, 1, -2], ctildes: [-0.030000774493655215, 0.0212137511967268, -0.012247765838867, 0.0212137511967268, -0.024495531677734, 0.0212137511967268, -0.012247765838867, 0.0212137511967268, -0.030000774493655215]}
    - {mu0: 0, rank: 3, ndensity: 1, num_ms_combs: 9, mus: [0, 0, 1], ns: [1, 1, 1], ls: [1, 1, 2], ms_combs: [-1, -1, 2, -1, 0, 1, -1, 1, 0, 0, -1, 1, 0, 0, 0, 0, 1, -1, 1, -1, 0, 1, 0, -1, 1, 1, -2], ctildes: [0.04877392460598454, -0.03448837301510627, 0.019911872866581776, -0.03448837301510627, 0.03982374573316355, -0.03448837301510627, 0.019911872866581776, -0.03448837301510627, 0.04877392460598454]}
    - {mu0: 0, rank: 3, ndensity: 1, num_ms_combs: 9, mus: [0, 1, 1], ns: [1, 1, 1], ls: [1, 1, 2], ms_combs: [-1, -1, 2, -1, 0, 1, -1, 1, 0, 0, -1, 1, 0, 0, 0, 0, 1, -1, 1, -1, 0, 1, 0, -1, 1, 1, -2], ctildes: [-0.03107450910810021, 0.02197299622778314, -0.012686116193241672, 0.02197299622778314, -0.025372232386483343, 0.02197299622778314, -0.012686116193241672, 0.02197299622778314, -0.03107450910810021]}
    - {mu0: 0, rank: 3, ndensity: 1, num_ms_combs: 9, mus: [1, 1, 1], ns: [1, 1, 1], ls: [1, 1, 2], ms_combs: [-1, -1, 2, -1, 0, 1, -1, 1, 0, 0, -1, 1, 0, 0, 0, 0, 1, -1, 1, -1, 0, 1, 0, -1, 1, 1, -2], ctildes: [-0.0049092215803620215, 0.00347134388805285, -0.0020041814713851044, 0.00347134388805285, -0.004008362942770209, 0.00347134388805285, -0.0020041814713851044, 0.00347134388805285, -0.0049092215803620215]}
    - {mu0: 0, rank: 3, ndensity: 1, num_ms_combs: 9, mus: [0, 0, 1], ns: [1, 1, 1], ls: [1, 2, 1], ms_combs: [-1, 0, 1, -1, 1, 0, -1, 2, -1, 0, -1, 1, 0, 0, 0, 0, 1, -1, 1, -2, 1, 1, -1, 0, 1, 0, -1], ctildes: [0.056850498397575215, -0.09846795266284876, 0.13925472266348263, -0.09846795266284876, 0.11370099679515043, -0.09846795266284876, 0.13925472266348263, -0.09846795266284876, 0.056850498397575215]}
    - {mu0: 0, rank: 3, ndensity: 1, num_ms_combs: 15, mus: [0, 0, 0], ns: [1, 1, 1], ls: [1, 2, 3], ms_combs: [-1, -2, 3, -1, -1, 2, -1, 0, 1, -1, 1, 0, -1, 2, -1, 0, -2, 2, 0, -1, 1, 0, 0, 0, 0, 1, -1, 0, 2, -2, 1, -2, 1, 1, -1, 0, 1, 0, -1, 1, 1, -2, 1, 2, -3], ctildes: [0.061520839987222374, -0.050231558621988165, 0.03890919661502496, -0.027512955559226424, 0.01588461277530009, -0.03551907236795482, 0.04492846907715804, -0.04765383953862267, 0.04492846907715804, -0.03551907236795482, 0.01588461277530009, -0.027512955559226424, 0.03890919661502496, -0.050231558621988165, 0.061520839987222374]}
    - {mu0: 0, rank: 3, ndensity: 1, num_ms_combs: 15, mus: [0, 0, 1], ns: [1, 1, 1], ls: [1, 2, 3], ms_combs: [-1, -2, 3, -1, -1, 2, -1, 0, 1, -1, 1, 0, -1, 2, -1, 0, -2, 2, 0, -1, 1, 0, 0, 0, 0, 1, -1, 0, 2, -2, 1, -2, 1, 1, -1, 0, 1, 0, -1, 1, 1, -2, 1, 2, -3], ctildes: [-0.049408691433669084, 0.04034203012672695, -0.03124880105478104, 0.02209623815176136, -0.012757269428069052, 0.028526120368365222, -0.03608300643621739, 0.038271809258170246, -0.03608300643621739, 0.028526120368365222, -0.012757269428069052, 0.02209623815176136, -0.03124880105478104, 0.04034203012672695, -0.049408691433669084]}
    - {mu0: 0, rank: 3, ndensity: 1, num_ms_combs: 15, mus: [0, 1, 1], ns: [1, 1, 1], ls: [1, 2, 3], ms_combs: [-1, -2, 3, -1, -1, 2, -1, 0, 1, -1, 1, 0, -1, 2, -1, 0, -2, 2, 0, -1, 1, 0, 0, 0, 0, 1, -1, 0, 2, -2, 1, -2, 1, 1, -1, 0, 1, 0, -1, 1, 1, -2, 1, 2, -3], ctildes: [-0.013492693249072226, 0.011016738588908137, -0.008533528713252444, 0.006034115753508896, -0.0034837984592202033, 0.007790009825157616, -0.009853669935820564, 0.010451395643633756, -0.009853669935820564, 0.007790009825157616, -0.0034837984592202033, 0.006034115753508896, -0.008533528713252444, 0.011016738588908137, -0.013492693249072226]}
    - {mu0: 0, rank: 3, ndensity: 1, num_ms_combs: 15, mus: [1, 1, 1], ns: [1, 1, 1], ls: [1, 2, 3], ms_combs: [-1, -2, 3, -1, -1, 2, -1, 0, 1, -1, 1, 0, -1, 2, -1, 0, -2, 2, 0, -1, 1, 0, 0, 0, 0, 1, -1, 0, 2, -2, 1, -2, 1, 1, -1, 0, 1, 0, -1, 1, 1, -2, 1, 2, -3], ctildes: [-0.03335742083916675, 0.02723622175361956, -0.021097085902449325, 0.014917891844601332, -0.008612849130846414, 0.019258915272300753, -0.024360815797988516, 0.025838548050093522, -0.024360815797988516, 0.019258915272300753, -0.008612849130846414, 0.014917891844601332, -0.021097085902449325, 0.02723622175361956, -0.03335742083916675]}
    - {mu0: 0, rank: 3, ndensity: 1, num_ms_combs: 15, mus: [0, 0, 1], ns: [1, 1, 1], ls: [1, 3, 2], ms_combs: [-1, -1, 2, -1, 0, 1, -1, 1, 0, -1, 2, -1, -1, 3, -2, 0, -2, 2, 0, -1, 1, 0, 0, 0, 0, 1, -1, 0, 2, -2, 1, -3, 2, 1, -2, 1, 1, -1, 0, 1, 0, -1, 1, 1, -2], ctildes: [-0.005761017008450175, 0.009978373862276464, -0.014111552271066051, 0.018217936293179096, -0.022312322658040624, 0.012882025072360921, -0.016294618328101043, 0.01728305146517959, -0.016294618328101043, 0.012882025072360921, -0.022312322658040624, 0.018217936293179096, -0.014111552271066051, 0.009978373862276464, -0.005761017008450175]}
    - {mu0: 0, rank: 3, ndensity: 1, num_ms_combs: 21, mus: [0, 0, 0], ns: [1, 1, 1], ls: [1, 3, 4], ms_combs: [-1, -3, 4, -1, -2, 3, -1, -1, 2, -1, 0, 1, -1, 1, 0, -1, 2, -1, -1, 3, -2, 0, -3, 3, 0, -2, 2, 0, -1, 1, 0, 0, 0, 0, 1, -1, 0, 2, -2, 0, 3, -3, 1, -3, 2, 1, -2, 1, 1, -1, 0, 1, 0, -1, 1, 1, -2, 1, 2, -3, 1, 3, -4], ctildes: [0.012259471531825633, -0.01061701327656485, 0.008973014477861897, -0.0073264349537696906, 0.00567503266827901, -0.004012853977247545, 0.0023168222414041294, -0.0061297357659128165, 0.00802570795449509, -0.008973014477861897, 0.009267288965616518, -0.008973014477861897, 0.00802570795449509, -0.0061297357659128165, 0.0023168222414041294, -0.004012853977247545, 0.00567503266827901, -0.0073264349537696906, 0.008973014477861897, -0.01061701327656485, 0.012259471531825633]}
    - {mu0: 0, rank: 3, ndensity: 1, num_ms_combs: 21, mus: [0, 0, 1], ns: [1, 1, 1], ls: [1, 3, 4], ms_combs: [-1, -3, 4, -1, -2, 3, -1, -1, 2, -1, 0, 1, -1, 1, 0, -1, 2, -1, -1, 3, -2, 0, -3, 3, 0, -2, 2, 0, -1, 1, 0, 0, 0, 0, 1, -1, 0, 2, -2, 0, 3, -3, 1, -3, 2, 1, -2, 1, 1, -1, 0, 1, 0, -1, 1, 1, -2, 1, 2, -3, 1, 3, -4], ctildes: [-0.01696963947032501, 0.014696138172615813, -0.012420504444749726, 0.010141298460174706, -0.007855416778203509, 0.005554618326260752, -0.003206960271606719, 0.008484819735162505, -0.011109236652521504, 0.012420504444749726, -0.012827841086426876, 0.012420504444749726, -0.011109236652521504, 0.008484819735162505, -0.003206960271606719, 0.005554618326260752, -0.007855416778203509, 0.010141298460174706, -0.012420504444749726, 0.014696138172615813, -0.01696963947032501]}
    - {mu0: 0, rank: 3, ndensity: 1, num_ms_combs: 21, mus: [0, 1, 1], ns: [1, 1, 1], ls: [1, 3, 4], ms_combs: [-1, -3, 4, -1, -2, 3, -1, -1, 2, -1, 0, 1, -1, 1, 0, -1, 2, -1, -1, 3, -2, 0, -3, 3, 0, -2, 2, 0, -1, 1, 0, 0, 0, 0, 1, -1, 0, 2, -2, 0, 3, -3, 1, -3, 2, 1, -2, 1, 1, -1, 0, 1, 0, -1, 1, 1, -2, 1, 2, -3, 1, 3, -4], ctildes: [0.045900234188473055, -0.0397507669487515, 0.03359553181727461, -0.02743063428726485, 0.021247680034577412, -0.015024378240256726, 0.008674328512240237, -0.022950117094236527, 0.03004875648051345, -0.03359553181727461, 0.034697314048960946, -0.03359553181727461, 0.03004875648051345, -0.022950117094236527, 0.008674328512240237, -0.015024378240256726, 0.021247680034577412, -0.02743063428726485, 0.03359553181727461, -0.0397507669487515, 0.045900234188473055]}
    - {mu0: 0, rank: 3, ndensity: 1, num_ms_combs: 21, mus: [1, 1, 1], ns: [1, 1, 1], ls: [1, 3, 4], ms_combs: [-1, -3, 4, -1, -2, 3, -1, -1, 2, -1, 0, 1, -1, 1, 0, -1, 2, -1, -1, 3, -2, 0, -3, 3, 0, -2, 2, 0, -1, 1, 0, 0, 0, 0, 1, -1, 0, 2, -2, 0, 3, -3, 1, -3, 2, 1, -2, 1, 1, -1, 0, 1, 0, -1, 1, 1, -2, 1, 2, -3, 1, 3, -4], ctildes: [-0.02141742342685977, 0.018548031885589716, -0.015675948999009807, 0.012799357558511686, -0.00991434070402327, 0.007010497357716885, -0.004047512392365684, 0.010708711713429886, -0.01402099471543377, 0.015675948999009807, -0.016190049569462735, 0.015675948999009807, -0.01402099471543377, 0.010708711713429886, -0.004047512392365684, 0.007010497357716885, -0.00991434070402327, 0.012799357558511686, -0.015675948999009807, 0.018548031885589716, -0.02141742342685977]}
    - {mu0: 0, rank: 3, ndensity: 1, num_ms_combs: 21, mus: [0, 0, 1], ns: [1, 1, 1], ls: [1, 4, 3], ms_combs: [-1, -2, 3, -1, -1, 2, -1, 0, 1, -1, 1, 0, -1, 2, -1, -1, 3, -2, -1, 4, -3, 0, -3, 3, 0, -2, 2, 0, -1, 1, 0, 0, 0, 0, 1, -1, 0, 2, -2, 0, 3, -3, 1, -4, 3, 1, -3, 2, 1, -2, 1, 1, -1, 0, 1, 0, -1, 1, 1, -2, 1, 2, -3], ctildes: [-0.003470802616740269, 0.006011606279001843, -0.008501695936418419, 0.010975641184068569, -0.013442360691769862, 0.015905215688854266, -0.018365761995933417, 0.009182880997966708, -0.012023212558003687, 0.013442360691769862, -0.013883210466961076, 0.013442360691769862, -0.012023212558003687, 0.009182880997966708, -0.018365761995933417, 0.015905215688854266, -0.013442360691769862, 0.010975641184068569, -0.008501695936418419, 0.006011606279001843, -0.003470802616740269]}
    - {mu0: 0, rank: 3, ndensity: 1, num_ms_combs: 5, mus: [0, 1, 1], ns: [1, 1, 1], ls: [2, 0, 2], ms_combs: [-2, 0, 2, -1, 0, 1, 0, 0, 0, 1, 0, -1, 2, 0, -2], ctildes: [0.014946792610172413, -0.014946792610172413, 0.014946792610172413, -0.014946792610172413, 0.014946792610172413]}
    - {mu0: 0, rank: 3, ndensity: 1, num_ms_combs: 9, mus: [0, 1, 1], ns: [1, 1, 1], ls: [2, 1, 1], ms_combs: [-2, 1, 1, -1, 0, 1, -1, 1, 0, 0, -1, 1, 0, 0, 0, 0, 1, -1, 1, -1, 0, 1, 0, -1, 2, -1, -1], ctildes: [-0.027170215168921513, 0.019212242212840656, 0.019212242212840656, -0.011092193100375217, -0.022184386200750434, -0.011092193100375217, 0.019212242212840656, 0.019212242212840656, -0.027170215168921513]}
    - {mu0: 0, rank: 3, ndensity: 1, num_ms_combs: 15, mus: [0, 1, 1], ns: [1, 1, 1], ls: [2, 1, 3], ms_combs: [-2, -1, 3, -2, 0, 2, -2, 1, 1, -1, -1, 2, -1, 0, 1, -1, 1, 0, 0, -1, 1, 0, 0, 0, 0, 1, -1, 1, -1, 0, 1, 0, -1, 1, 1, -2, 2, -1, -1, 2, 0, -2, 2, 1, -3], ctildes: [-0.008379228786783986, 0.004837749837733776, -0.002163507596147186, 0.006841612079708438, -0.006119323492911463, 0.003747304966565154, -0.005299489740630493, 0.006490522953616132, -0.005299489740630493, 0.003747304966565154, -0.006119323492911463, 0.006841612079708438, -0.002163507596147186, 0.004837749837733776, -0.008379228786783986]}
    - {mu0: 0, rank: 3, ndensity: 1, num_ms_combs: 5, mus: [0, 0, 1], ns: [1, 1, 1], ls: [2, 2, 0], ms_combs: [-2, 2, 0, -1, 1, 0, 0, 0, 0, 1, -1, 0, 2, -2, 0], ctildes: [-0.007917854233160932, 0.007917854233160932, -0.007917854233160932, 0.007917854233160932, -0.007917854233160932]}
    - {mu0: 0, rank: 3, ndensity: 1, num_ms_combs: 19, mus: [0, 0, 0], ns: [1, 1, 1], ls: [2, 2, 2], ms_combs: [-2, 0, 2, -2, 1, 1, -2, 2, 0, -1, -1, 2, -1, 0, 1, -1, 1, 0, -1, 2, -1, 0, -2, 2, 0, -1, 1, 0, 0, 0, 0, 1, -1, 0, 2, -2, 1, -2, 1, 1, -1, 0, 1, 0, -1, 1, 1, -2, 2, -2, 0, 2, -1, -1, 2, 0, -2], ctildes: [-0.006194987080517242, 0.007587278740286573, -0.006194987080517242, 0.007587278740286573, -0.003097493540258621, -0.003097493540258621, 0.007587278740286573, -0.006194987080517242, -0.003097493540258621, 0.006194987080517242, -0.003097493540258621, -0.006194987080517242, 0.007587278740286573, -0.003097493540258621, -0.003097493540258621, 0.007587278740286573, -0.006194987080517242, 0.007587278740286573, -0.006194987080517242]}
    - {mu0: 0, rank: 3, ndensity: 1, num_ms_combs: 19, mus: [0, 0, 1], ns: [1, 1, 1], ls: [2, 2, 2], ms_combs: [-2, 0, 2, -2, 1, 1, -2, 2, 0, -1, -1, 2, -1, 0, 1, -1, 1, 0, -1, 2, -1, 0, -2, 2, 0, -1, 1, 0, 0, 0, 0, 1, -1, 0, 2, -2, 1, -2, 1, 1, -1, 0, 1, 0, -1, 1, 1, -2, 2, -2, 0, 2, -1, -1, 2, 0, -2], ctildes: [0.0010384490973423784, -0.0012718352204340293, 0.0010384490973423784, -0.0012718352204340293, 0.0005192245486711892, 0.0005192245486711892, -0.0012718352204340293, 0.0010384490973423784, 0.0005192245486711892, -0.0010384490973423784, 0.0005192245486711892, 0.0010384490973423784, -0.0012718352204340293, 0.0005192245486711892, 0.0005192245486711892, -0.0012718352204340293, 0.0010384490973423784, -0.0012718352204340293, 0.0010384490973423784]}
    - {mu0: 0, rank: 3, ndensity: 1, num_ms_combs: 19, mus: [0, 1, 1], ns: [1, 1, 1], ls: [2, 2, 2], ms_combs: [-2, 0, 2, -2, 1, 1, -2, 2, 0, -1, -1, 2, -1, 0, 1, -1, 1, 0, -1, 2, -1, 0, -2, 2, 0, -1, 1, 0, 0, 0, 0, 1, -1, 0, 2, -2, 1, -2, 1, 1, -1, 0, 1, 0, -1, 1, 1, -2, 2, -2, 0, 2, -1, -1, 2, 0, -2], ctildes: [-0.015153170782840671, 0.018558768409728355, -0.015153170782840671, 0.018558768409728355, -0.007576585391420336, -0.007576585391420336, 0.018558768409728355, -0.015153170782840671, -0.007576585391420336, 0.015153170782840671, -0.007576585391420336, -0.015153170782840671, 0.018558768409728355, -0.007576585391420336, -0.007576585391420336, 0.018558768409728355, -0.015153170782840671, 0.018558768409728355, -0.015153170782840671]}
    - {mu0: 0, rank: 3, ndensity: 1, num_ms_combs: 19, mus: [1, 1, 1], ns: [1, 1, 1], ls: [2, 2, 2], ms_combs: [-2, 0, 2, -2, 1, 1, -2, 2, 0, -1, -1, 2, -1, 0, 1, -1, 1, 0, -1, 2, -1, 0, -2, 2, 0, -1, 1, 0, 0, 0, 0, 1, -1, 0, 2, -2, 1, -2, 1, 1, -1, 0, 1, 0, -1, 1, 1, -2, 2, -2, 0, 2, -1, -1, 2, 0, -2], ctildes: [0.0033521440788915166, -0.004105521314828565, 0.0033521440788915166, -0.004105521314828565, 0.0016760720394457583, 0.0016760720394457583, -0.004105521314828565, 0.0033521440788915166, 0.0016760720394457583, -0.0033521440788915166, 0.0016760720394457583, 0.0033521440788915166, -0.004105521314828565, 0.0016760720394457583, 0.0016760720394457583, -0.004105521314828565, 0.0033521440788915166, -0.004105521314828565, 0.0033521440788915166]}
    - {mu0: 0, rank: 3, ndensity: 1, num_ms_combs: 25, mus: [0, 0, 0], ns: [1, 1, 1], ls: [2, 2, 4], ms_combs: [-2, -2, 4, -2, -1, 3, -2, 0, 2, -2, 1, 1, -2, 2, 0, -1, -2, 3, -1, -1, 2, -1, 0, 1, -1, 1, 0, -1, 2, -1, 0, -2, 2, 0, -1, 1, 0, 0, 0, 0, 1, -1, 0, 2, -2, 1, -2, 1, 1, -1, 0, 1, 0, -1, 1, 1, -2, 1, 2, -3, 2, -2, 0, 2, -1, -1, 2, 0, -2, 2, 1, -3, 2, 2, -4], ctildes: [-0.0030910079954740385, 0.002185672657816822, -0.0014308586880510145, 0.0008261065725071882, -0.00036944612300999195, 0.002185672657816822, -0.0023365823081954043, 0.002023539709055442, -0.0014777844920399678, 0.0008261065725071882, -0.0014308586880510145, 0.002023539709055442, -0.002216676668970541, 0.002023539709055442, -0.0014308586880510145, 0.0008261065725071882, -0.0014777844920399678, 0.002023539709055442, -0.0023365823081954043, 0.002185672657816822, -0.00036944612300999195, 0.0008261065725071882, -0.0014308586880510145, 0.002185672657816822, -0.0030910079954740385]}
    - {mu0: 0, rank: 3, ndensity: 1, num_ms_combs: 25, mus: [0, 0, 1], ns: [1, 1, 1], ls: [2, 2, 4], ms_combs: [-2, -2, 4, -2, -1, 3, -2, 0, 2, -2, 1, 1, -2, 2, 0, -1, -2, 3, -1, -1, 2, -1, 0, 1, -1, 1, 0, -1, 2, -1, 0, -2, 2, 0, -1, 1, 0, 0, 0, 0, 1, -1, 0, 2, -2, 1, -2, 1, 1, -1, 0, 1, 0, -1, 1, 1, -2, 1, 2, -3, 2, -2, 0, 2, -1, -1, 2, 0, -2, 2, 1, -3, 2, 2, -4], ctildes: [-0.0025455042001339585, 0.0017999432349373233, -0.0011783394949366492, 0.0006803145618369133, -0.00030424594799565287, 0.0017999432349373233, -0.0019242202181874158, 0.001666423650822206, -0.0012169837919826115, 0.0006803145618369133, -0.0011783394949366492, 0.001666423650822206, -0.0018254756310774663, 0.001666423650822206, -0.0011783394949366492, 0.0006803145618369133, -0.0012169837919826115, 0.001666423650822206, -0.0019242202181874158, 0.0017999432349373233, -0.00030424594799565287, 0.0006803145618369133, -0.0011783394949366492, 0.0017999432349373233, -0.0025455042001339585]}
    - {mu0: 0, rank: 3, ndensity: 1, num_ms_combs: 25, mus: [0, 1, 1], ns: [1, 1, 1], ls: [2, 2, 4], ms_combs: [-2, -2, 4, -2, -1, 3, -2, 0, 2, -2, 1, 1, -2, 2, 0, -1, -2, 3, -1, -1, 2, -1, 0, 1, -1, 1, 0, -1, 2, -1, 0, -2, 2, 0, -1, 1, 0, 0, 0, 0, 1, -1, 0, 2, -2, 1, -2, 1, 1, -1, 0, 1, 0, -1, 1, 1, -2, 1, 2, -3, 2, -2, 0, 2, -1, -1, 2, 0, -2, 2, 1, -3, 2, 2, -4], ctildes: [0.02242408751511947, -0.015856223934086502, 0.010380335634720447, -0.005993089020099937, 0.002680191124263701, -0.015856223934086502, 0.01695101605753633, -0.014680011049023422, 0.010720764497054804, -0.005993089020099937, 0.010380335634720447, -0.014680011049023422, 0.016081146244364807, -0.014680011049023422, 0.010380335634720447, -0.005993089020099937, 0.010720764497054804, -0.014680011049023422, 0.01695101605753633, -0.015856223934086502, 0.002680191124263701, -0.005993089020099937, 0.010380335634720447, -0.015856223934086502, 0.02242408751511947]}
    - {mu0: 0, rank: 3, ndensity: 1, num_ms_combs: 25, mus: [1, 1, 1], ns: [1, 1, 1], ls: [2, 2, 4], ms_combs: [-2, -2, 4, -2, -1, 3, -2, 0, 2, -2, 1, 1, -2, 2, 0, -1, -2, 3, -1, -1, 2, -1, 0, 1, -1, 1, 0, -1, 2, -1, 0, -2, 2, 0, -1, 1, 0, 0, 0, 0, 1, -1, 0, 2, -2, 1, -2, 1, 1, -1, 0, 1, 0, -1, 1, 1, -2, 1, 2, -3, 2, -2, 0, 2, -1, -1, 2, 0, -2, 2, 1, -3, 2, 2, -4], ctildes: [0.009379158218715057, -0.006632066206881349, 0.004341706667696723, -0.002506685282086129, 0.0011210238362615982, -0.006632066206881349, 0.007089976859233004, -0.0061401002911909254, 0.004484095345046393, -0.002506685282086129, 0.004341706667696723, -0.0061401002911909254, 0.0067261428079290735, -0.0061401002911909254, 0.004341706667696723, -0.002506685282086129, 0.004484095345046393, -0.0061401002911909254, 0.007089976859233004, -0.006632066206881349, 0.0011210238362615982, -0.002506685282086129, 0.004341706667696723, -0.006632066206881349, 0.009379158218715057]}
    - {mu0: 0, rank: 3, ndensity: 1, num_ms_combs: 15, mus: [0, 0, 1], ns: [1, 1, 1], ls: [2, 3, 1], ms_combs: [-2, 1, 1, -2, 2, 0, -2, 3, -1, -1, 0, 1, -1, 1, 0, -1, 2, -1, 0, -1, 1, 0, 0, 0, 0, 1, -1, 1, -2, 1, 1, -1, 0, 1, 0, -1, 2, -3, 1, 2, -2, 0, 2, -1, -1], ctildes: [-0.0048782430202069455, 0.010908082514458876, -0.018893353744927295, 0.008449365253817705, -0.013797754706682755, 0.015426358202388229, -0.011949206410889006, 0.014634727943321721, -0.011949206410889006, 0.015426358202388229, -0.013797754706682755, 0.008449365253817705, -0.018893353744927295, 0.010908082514458876, -0.0048782430202069455]}
    - {mu0: 0, rank: 3, ndensity: 1, num_ms_combs: 29, mus: [0, 0, 0], ns: [1, 1, 1], ls: [2, 3, 3], ms_combs: [-2, -1, 3, -2, 0, 2, -2, 1, 1, -2, 2, 0, -2, 3, -1, -1, -2, 3, -1, -1, 2, -1, 0, 1, -1, 1, 0, -1, 2, -1, -1, 3, -2, 0, -3, 3, 0, -2, 2, 0, -1, 1, 0, 0, 0, 0, 1, -1, 0, 2, -2, 0, 3, -3, 1, -3, 2, 1, -2, 1, 1, -1, 0, 1, 0, -1, 1, 1, -2, 1, 2, -3, 2, -3, 1, 2, -2, 0, 2, -1, -1, 2, 0, -2, 2, 1, -3], ctildes: [0.02350433304777017, -0.03324014342325487, 0.036412754887537715, -0.03324014342325487, 0.02350433304777017, -0.03716361123833812, 0.028786809569657314, -0.010511456636881168, -0.010511456636881168, 0.028786809569657314, -0.03716361123833812, 0.03716361123833812, -0.0, -0.02229816765093349, 0.029730889444635804, -0.02229816765093349, -0.0, 0.03716361123833812, -0.03716361123833812, 0.028786809569657314, -0.010511456636881168, -0.010511456636881168, 0.028786809569657314, -0.03716361123833812, 0.02350433304777017, -0.03324014342325487, 0.036412754887537715, -0.03324014342325487, 0.02350433304777017]}
    - {mu0: 0, rank: 3, ndensity: 1, num_ms_combs: 29, mus: [0, 0, 1], ns: [1, 1, 1], ls: [2, 3, 3], ms_combs: [-2, -1, 3, -2, 0, 2, -2, 1, 1, -2, 2, 0, -2, 3, -1, -1, -2, 3, -1, -1, 2, -1, 0, 1, -1, 1, 0, -1, 2, -1, -1, 3, -2, 0, -3, 3, 0, -2, 2, 0, -1, 1, 0, 0, 0, 0, 1, -1, 0, 2, -2, 0, 3, -3, 1, -3, 2, 1, -2, 1, 1, -1, 0, 1, 0, -1, 1, 1, -2, 1, 2, -3, 2, -3, 1, 2, -2, 0, 2, -1, -1, 2, 0, -2, 2, 1, -3], ctildes: [-0.048010609881454586, 0.06789724920311607, -0.0743777143585213, 0.06789724920311607, -0.048010609881454586, 0.0759114345990414, -0.058800744576398715, 0.02147099612881826, 0.02147099612881826, -0.058800744576398715, 0.0759114345990414, -0.0759114345990414, 0.0, 0.04554686261398939, -0.0607291486065154, 0.04554686261398939, 0.0, -0.0759114345990414, 0.0759114345990414, -0.058800744576398715, 0.02147099612881826, 0.02147099612881826, -0.058800744576398715, 0.0759114345990414, -0.048010609881454586, 0.06789724920311607, -0.0743777143585213, 0.06789724920311607, -0.048010609881454586]}
    - {mu0: 0, rank: 3, ndensity: 1, num_ms_combs: 29, mus: [0, 1, 1], ns: [1, 1, 1], ls: [2, 3, 3], ms_combs: [-2, -1, 3, -2, 0, 2, -2, 1, 1, -2, 2, 0, -2, 3, -1, -1, -2, 3, -1, -1, 2, -1, 0, 1, -1, 1, 0, -1, 2, -1, -1, 3, -2, 0, -3, 3, 0, -2, 2, 0, -1, 1, 0, 0, 0, 0, 1, -1, 0, 2, -2, 0, 3, -3, 1, -3, 2, 1, -2, 1, 1, -1, 0, 1, 0, -1, 1, 1, -2, 1, 2, -3, 2, -3, 1, 2, -2, 0, 2, -1, -1, 2, 0, -2, 2, 1, -3], ctildes: [0.03249114250317482, -0.04594941003413848, 0.05033505973471568, -0.04594941003413848, 0.03249114250317482, -0.0513730037020551, 0.039793357677435776, -0.014530479754976467, -0.014530479754976467, 0.039793357677435776, -0.0513730037020551, 0.0513730037020551, -0.0, -0.03082380347630816, 0.04109840358918163, -0.03082380347630816, -0.0, 0.0513730037020551, -0.0513730037020551, 0.039793357677435776, -0.014530479754976467, -0.014530479754976467, 0.039793357677435776, -0.0513730037020551, 0.03249114250317482, -0.04594941003413848, 0.05033505973471568, -0.04594941003413848, 0.03249114250317482]}
    - {mu0: 0, rank: 3, ndensity: 1, num_ms_combs: 29, mus: [1, 1, 1], ns: [1, 1, 1], ls: [2, 3, 3], ms_combs: [-2, -1, 3, -2, 0, 2, -2, 1, 1, -2, 2, 0, -2, 3, -1, -1, -2, 3, -1, -1, 2, -1, 0, 1, -1, 1, 0, -1, 2, -1, -1, 3, -2, 0, -3, 3, 0, -2, 2, 0, -1, 1, 0, 0, 0, 0, 1, -1, 0, 2, -2, 0, 3, -3, 1, -3, 2, 1, -2, 1, 1, -1, 0, 1, 0, -1, 1, 1, -2, 1, 2, -3, 2, -3, 1, 2, -2, 0, 2, -1, -1, 2, 0, -2, 2, 1, -3], ctildes: [-0.02347956354796368, 0.03320511406401219, -0.036374382144805234, 0.03320511406401219, -0.02347956354796368, 0.03712444722294123, -0.028756473253684602, 0.010500379380504483, 0.010500379380504483, -0.028756473253684602, 0.03712444722294123, -0.03712444722294123, 0.0, 0.022274669240738555, -0.029699558231839892, 0.022274669240738555, 0.0, -0.03712444722294123, 0.03712444722294123, -0.028756473253684602, 0.010500379380504483, 0.010500379380504483, -0.028756473253684602, 0.03712444722294123, -0.02347956354796368, 0.03320511406401219, -0.036374382144805234, 0.03320511406401219, -0.02347956354796368]}
    - {mu0: 0, rank: 3, ndensity: 1, num_ms_combs: 25, mus: [0, 0, 1], ns: [1, 1, 1], ls: [2, 4, 2], ms_combs: [-2, 0, 2, -2, 1, 1, -2, 2, 0, -2, 3, -1, -2, 4, -2, -1, -1, 2, -1, 0, 1, -1, 1, 0, -1, 2, -1, -1, 3, -2, 0, -2, 2, 0, -1, 1, 0, 0, 0, 0, 1, -1, 0, 2, -2, 1, -3, 2, 1, -2, 1, 1, -1, 0, 1, 0, -1, 1, 1, -2, 2, -4, 2, 2, -3, 1, 2, -2, 0, 2, -1, -1, 2, 0, -2], ctildes: [-0.0005532596849429861, 0.0012371262595349559, -0.002142765555365236, 0.00327312831489513, -0.004628902160081469, 0.0012371262595349559, -0.0022130387397719443, 0.0030303278224483783, -0.0034991212822676762, 0.00327312831489513, -0.002142765555365236, 0.0030303278224483783, -0.0033195580061938846, 0.0030303278224483783, -0.002142765555365236, 0.00327312831489513, -0.0034991212822676762, 0.0030303278224483783, -0.0022130387397719443, 0.0012371262595349559, -0.004628902160081469, 0.00327312831489513, -0.002142765555365236, 0.0012371262595349559, -0.0005532596849429861]}
    - {mu0: 0, rank: 3, ndensity: 1, num_ms_combs: 39, mus: [0, 0, 0], ns: [1, 1, 1], ls: [2, 4, 4], ms_combs: [-2, -2, 4, -2, -1, 3, -2, 0, 2, -2, 1, 1, -2, 2, 0, -2, 3, -1, -2, 4, -2, -1, -3, 4, -1, -2, 3, -1, -1, 2, -1, 0, 1, -1, 1, 0, -1, 2, -1, -1, 3, -2, -1, 4, -3, 0, -4, 4, 0, -3, 3, 0, -2, 2, 0, -1, 1, 0, 0, 0, 0, 1, -1, 0, 2, -2, 0, 3, -3, 0, 4, -4, 1, -4, 3, 1, -3, 2, 1, -2, 1, 1, -1, 0, 1, 0, -1, 1, 1, -2, 1, 2, -3, 1, 3, -4, 2, -4, 2, 2, -3, 1, 2, -2, 0, 2, -1, -1, 2, 0, -2, 2, 1, -3, 2, 2, -4], ctildes: [-0.01013510299051931, 0.015202654828716702, -0.018170647878773743, 0.01915354446902099, -0.018170647878773743, 0.015202654828716702, -0.01013510299051931, 0.018961042543484106, -0.01791650083746436, 0.012189241733079136, -0.004282862971547862, -0.004282862971547862, 0.012189241733079136, -0.01791650083746436, 0.018961042543484106, -0.021894324807597818, 0.0054735812018994546, 0.006255521765528218, -0.0132929840946852, 0.015638804413820546, -0.0132929840946852, 0.006255521765528218, 0.0054735812018994546, -0.021894324807597818, 0.018961042543484106, -0.01791650083746436, 0.012189241733079136, -0.004282862971547862, -0.004282862971547862, 0.012189241733079136, -0.01791650083746436, 0.018961042543484106, -0.01013510299051931, 0.015202654828716702, -0.018170647878773743, 0.01915354446902099, -0.018170647878773743, 0.015202654828716702, -0.01013510299051931]}
    - {mu0: 0, rank: 3, ndensity: 1, num_ms_combs: 39, mus: [0, 0, 1], ns: [1, 1, 1], ls: [2, 4, 4], ms_combs: [-2, -2, 4, -2, -1, 3, -2, 0, 2, -2, 1, 1, -2, 2, 0, -2, 3, -1, -2, 4, -2, -1, -3, 4, -1, -2, 3, -1, -1, 2, -1, 0, 1, -1, 1, 0, -1, 2, -1, -1, 3, -2, -1, 4, -3, 0, -4, 4, 0, -3, 3, 0, -2, 2, 0, -1, 1, 0, 0, 0, 0, 1, -1, 0, 2, -2, 0, 3, -3, 0, 4, -4, 1, -4, 3, 1, -3, 2, 1, -2, 1, 1, -1, 0, 1, 0, -1, 1, 1, -2, 1, 2, -3, 1, 3, -4, 2, -4, 2, 2, -3, 1, 2, -2, 0, 2, -1, -1, 2, 0, -2, 2, 1, -3, 2, 2, -4], ctildes: [0.0172832427333194, -0.0259248646847858, 0.030986139776210647, -0.03266225894015855, 0.030986139776210647, -0.0259248646847858, 0.0172832427333194, -0.032333988225120174, 0.030552746547842482, -0.020786135454664883, 0.007303503516446707, 0.007303503516446707, -0.020786135454664883, 0.030552746547842482, -0.032333988225120174, 0.03733607152150514, -0.009334017880376286, -0.010667449674494843, 0.02266833114310824, -0.026668624186237104, 0.02266833114310824, -0.010667449674494843, -0.009334017880376286, 0.03733607152150514, -0.032333988225120174, 0.030552746547842482, -0.020786135454664883, 0.007303503516446707, 0.007303503516446707, -0.020786135454664883, 0.030552746547842482, -0.032333988225120174, 0.0172832427333194, -0.0259248646847858, 0.030986139776210647, -0.03266225894015855, 0.030986139776210647, -0.0259248646847858, 0.0172832427333194]}
    - {mu0: 0, rank: 3, ndensity: 1, num_ms_combs: 39, mus: [0, 1, 1], ns: [1, 1, 1], ls: [2, 4, 4], ms_combs: [-2, -2, 4, -2, -1, 3, -2, 0, 2, -2, 1, 1, -2, 2, 0, -2, 3, -1, -2, 4, -2, -1, -3, 4, -1, -2, 3, -1, -1, 2, -1, 0, 1, -1, 1, 0, -1, 2, -1, -1, 3, -2, -1, 4, -3, 0, -4, 4, 0, -3, 3, 0, -2, 2, 0, -1, 1, 0, 0, 0, 0, 1, -1, 0, 2, -2, 0, 3, -3, 0, 4, -4, 1, -4, 3, 1, -3, 2, 1, -2, 1, 1, -1, 0, 1, 0, -1, 1, 1, -2, 1, 2, -3, 1, 3, -4, 2, -4, 2, 2, -3, 1, 2, -2, 0, 2, -1, -1, 2, 0, -2, 2, 1, -3, 2, 2, -4], ctildes: [-0.010312796505277893, 0.015469195106867124, -0.01848922444282447, 0.019489353650236893, -0.01848922444282447, 0.015469195106867124, -0.010312796505277893, 0.01929347668807942, -0.018230621572987445, 0.012402949399179708, -0.004357952191199169, -0.004357952191199169, 0.012402949399179708, -0.018230621572987445, 0.01929347668807942, -0.022278186671849946, 0.005569546667962486, 0.006365196590757455, -0.013526043104309878, 0.015912991476893637, -0.013526043104309878, 0.006365196590757455, 0.005569546667962486, -0.022278186671849946, 0.01929347668807942, -0.018230621572987445, 0.012402949399179708, -0.004357952191199169, -0.004357952191199169, 0.012402949399179708, -0.018230621572987445, 0.01929347668807942, -0.010312796505277893, 0.015469195106867124, -0.01848922444282447, 0.019489353650236893, -0.01848922444282447, 0.015469195106867124, -0.010312796505277893]}
    - {mu0: 0, rank: 3, ndensity: 1, num_ms_combs: 39, mus: [1, 1, 1], ns: [1, 1, 1], ls: [2, 4, 4], ms_combs: [-2, -2, 4, -2, -1, 3, -2, 0, 2, -2, 1, 1, -2, 2, 0, -2, 3, -1, -2, 4, -2, -1, -3, 4, -1, -2, 3, -1, -1, 2, -1, 0, 1, -1, 1, 0, -1, 2, -1, -1, 3, -2, -1, 4, -3, 0, -4, 4, 0, -3, 3, 0, -2, 2, 0, -1, 1, 0, 0, 0, 0, 1, -1, 0, 2, -2, 0, 3, -3, 0, 4, -4, 1, -4, 3, 1, -3, 2, 1, -2, 1, 1, -1, 0, 1, 0, -1, 1, 1, -2, 1, 2, -3, 1, 3, -4, 2, -4, 2, 2, -3, 1, 2, -2, 0, 2, -1, -1, 2, 0, -2, 2, 1, -3, 2, 2, -4], ctildes: [0.005086177275632817, -0.007629266085548328, 0.009118717038297133, -0.009611971651130265, 0.009118717038297133, -0.007629266085548328, 0.005086177275632817, -0.00951536691804594, 0.008991176459046358, -0.006117021639343563, 0.0021493023150246076, 0.0021493023150246076, -0.006117021639343563, 0.008991176459046358, -0.00951536691804594, 0.010987398688093845, -0.002746849672023461, -0.0031392569647115008, 0.006670921222111041, -0.007848142411778752, 0.006670921222111041, -0.0031392569647115008, -0.002746849672023461, 0.010987398688093845, -0.00951536691804594, 0.008991176459046358, -0.006117021639343563, 0.0021493023150246076, 0.0021493023150246076, -0.006117021639343563, 0.008991176459046358, -0.00951536691804594, 0.005086177275632817, -0.007629266085548328, 0.009118717038297133, -0.009611971651130265, 0.009118717038297133, -0.007629266085548328, 0.005086177275632817]}
    - {mu0: 0, rank: 3, ndensity: 1, num_ms_combs: 7, mus: [0, 1, 1], ns: [1, 1, 1], ls: [3, 0, 3], ms_combs: [-3, 0, 3, -2, 0, 2, -1, 0, 1, 0, 0, 0, 1, 0, -1, 2, 0, -2, 3, 0, -3], ctildes: [-0.028503057370993783, 0.028503057370993783, -0.028503057370993783, 0.028503057370993783, -0.028503057370993783, 0.028503057370993783, -0.028503057370993783]}
    - {mu0: 0, rank: 3, ndensity: 1, num_ms_combs: 15, mus: [0, 1, 1], ns: [1, 1, 1], ls: [3, 1, 2], ms_combs: [-3, 1, 2, -2, 0, 2, -2, 1, 1, -1, -1, 2, -1, 0, 1, -1, 1, 0, 0, -1, 1, 0, 0, 0, 0, 1, -1, 1, -1, 0, 1, 0, -1, 1, 1, -2, 2, -1, -1, 2, 0, -2, 3, -1, -2], ctildes: [-0.007715372237360897, 0.004454472092732297, 0.006299575443247321, -0.0019921005700382645, -0.005634511825317201, -0.004879629982359315, 0.003450419297485013, 0.0059763018622031715, 0.003450419297485013, -0.004879629982359315, -0.005634511825317201, -0.0019921005700382645, 0.006299575443247321, 0.004454472092732297, -0.007715372237360897]}
    - {mu0: 0, rank: 3, ndensity: 1, num_ms_combs: 21, mus: [0, 1, 1], ns: [1, 1, 1], ls: [3, 1, 4], ms_combs: [-3, -1, 4, -3, 0, 3, -3, 1, 2, -2, -1, 3, -2, 0, 2, -2, 1, 1, -1, -1, 2, -1, 0, 1, -1, 1, 0, 0, -1, 1, 0, 0, 0, 0, 1, -1, 1, -1, 0, 1, 0, -1, 1, 1, -2, 2, -1, -1, 2, 0, -2, 2, 1, -3, 3, -1, -2, 3, 0, -3, 3, 1, -4], ctildes: [0.020301777245875497, -0.010150888622937749, 0.003836675091676832, -0.017581853997357774, 0.013290632855553977, -0.006645316427776988, 0.014859379597290053, -0.014859379597290053, 0.009397896866547052, -0.012132631496529009, 0.015346700366707327, -0.012132631496529009, 0.009397896866547052, -0.014859379597290053, 0.014859379597290053, -0.006645316427776988, 0.013290632855553977, -0.017581853997357774, 0.003836675091676832, -0.010150888622937749, 0.020301777245875497]}
    - {mu0: 0, rank: 3, ndensity: 1, num_ms_combs: 29, mus: [0, 1, 1], ns: [1, 1, 1], ls: [3, 2, 3], ms_combs: [-3, 0, 3, -3, 1, 2, -3, 2, 1, -2, -1, 3, -2, 0, 2, -2, 1, 1, -2, 2, 0, -1, -2, 3, -1, -1, 2, -1, 0, 1, -1, 1, 0, -1, 2, -1, 0, -2, 2, 0, -1, 1, 0, 0, 0, 0, 1, -1, 0, 2, -2, 1, -2, 1, 1, -1, 0, 1, 0, -1, 1, 1, -2, 1, 2, -3, 2, -2, 0, 2, -1, -1, 2, 0, -2, 2, 1, -3, 3, -2, -1, 3, -1, -2, 3, 0, -3], ctildes: [0.09075205411122012, -0.09075205411122012, 0.057396642401610805, -0.09075205411122012, -0.0, 0.07029623905493619, -0.08117110243312405, 0.057396642401610805, 0.07029623905493619, -0.054451234683862364, -0.025668557217978304, 0.08891849289617608, -0.08117110243312405, -0.025668557217978304, 0.07260164439754124, -0.025668557217978304, -0.08117110243312405, 0.08891849289617608, -0.025668557217978304, -0.054451234683862364, 0.07029623905493619, 0.057396642401610805, -0.08117110243312405, 0.07029623905493619, -0.0, -0.09075205411122012, 0.057396642401610805, -0.09075205411122012, 0.09075205411122012]}
    - {mu0: 0, rank: 3, ndensity: 1, num_ms_combs: 7, mus: [0, 0, 1], ns: [1, 1, 1], ls: [3, 3, 0], ms_combs: [-3, 3, 0, -2, 2, 0, -1, 1, 0, 0, 0, 0, 1, -1, 0, 2, -2, 0, 3, -3, 0], ctildes: [0.01760285638258165, -0.01760285638258165, 0.01760285638258165, -0.01760285638258165, 0.01760285638258165, -0.01760285638258165, 0.01760285638258165]}
    - {mu0: 0, rank: 3, ndensity: 1, num_ms_combs: 29, mus: [0, 0, 1], ns: [1, 1, 1], ls: [3, 3, 2], ms_combs: [-3, 1, 2, -3, 2, 1, -3, 3, 0, -2, 0, 2, -2, 1, 1, -2, 2, 0, -2, 3, -1, -1, -1, 2, -1, 0, 1, -1, 1, 0, -1, 2, -1, -1, 3, -2, 0, -2, 2, 0, -1, 1, 0, 0, 0, 0, 1, -1, 0, 2, -2, 1, -3, 2, 1, -2, 1, 1, -1, 0, 1, 0, -1, 1, 1, -2, 2, -3, 1, 2, -2, 0, 2, -1, -1, 2, 0, -2, 3, -3, 0, 3, -2, -1, 3, -1, -2], ctildes: [-0.024983108588185865, 0.039501762926726865, -0.039501762926726865, 0.03533144765019537, -0.03059793221634957, -0.0, 0.039501762926726865, -0.03870366402235153, 0.01117278632833975, 0.023701057273509577, -0.03059793221634957, -0.024983108588185865, 0.03533144765019537, 0.01117278632833975, -0.03160140889380186, 0.01117278632833975, 0.03533144765019537, -0.024983108588185865, -0.03059793221634957, 0.023701057273509577, 0.01117278632833975, -0.03870366402235153, 0.039501762926726865, -0.0, -0.03059793221634957, 0.03533144765019537, -0.039501762926726865, 0.039501762926726865, -0.024983108588185865]}
    - {mu0: 0, rank: 3, ndensity: 1, num_ms_combs: 43, mus: [0, 0, 0], ns: [1, 1, 1], ls: [3, 3, 4], ms_combs: [-3, -1, 4, -3, 0, 3, -3, 1, 2, -3, 2, 1, -3, 3, 0, -2, -2, 4, -2, -1, 3, -2, 0, 2, -2, 1, 1, -2, 2, 0, -2, 3, -1, -1, -3, 4, -1, -2, 3, -1, -1, 2, -1, 0, 1, -1, 1, 0, -1, 2, -1, -1, 3, -2, 0, -3, 3, 0, -2, 2, 0, -1, 1, 0, 0, 0, 0, 1, -1, 0, 2, -2, 0, 3, -3, 1, -3, 2, 1, -2, 1, 1, -1, 0, 1, 0, -1, 1, 1, -2, 1, 2, -3, 1, 3, -4, 2, -3, 1, 2, -2, 0, 2, -1, -1, 2, 0, -2, 2, 1, -3, 2, 2, -4, 3, -3, 0, 3, -2, -1, 3, -1, -2, 3, 0, -3, 3, 1, -4], ctildes: [-0.012823590501000069, 0.015705626727947078, -0.014540585528578141, 0.010837912827666689, -0.005936169436647201, 0.016555185607098333, -0.007403703779803894, -0.003427249031539469, 0.011193348418781, -0.013851061469989568, 0.010837912827666689, -0.012823590501000069, -0.007403703779803894, 0.012514544041629903, -0.007663561403679005, -0.001978723145549067, 0.011193348418781, -0.014540585528578141, 0.015705626727947078, -0.003427249031539469, -0.007663561403679005, 0.011872338873294402, -0.007663561403679005, -0.003427249031539469, 0.015705626727947078, -0.014540585528578141, 0.011193348418781, -0.001978723145549067, -0.007663561403679005, 0.012514544041629903, -0.007403703779803894, -0.012823590501000069, 0.010837912827666689, -0.013851061469989568, 0.011193348418781, -0.003427249031539469, -0.007403703779803894, 0.016555185607098333, -0.005936169436647201, 0.010837912827666689, -0.014540585528578141, 0.015705626727947078, -0.012823590501000069]}
    - {mu0: 0, rank: 3, ndensity: 1, num_ms_combs: 43, mus: [0, 0, 1], ns: [1, 1, 1], ls: [3, 3, 4], ms_combs: [-3, -1, 4, -3, 0, 3, -3, 1, 2, -3, 2, 1, -3, 3, 0, -2, -2, 4, -2, -1, 3, -2, 0, 2, -2, 1, 1, -2, 2, 0, -2, 3, -1, -1, -3, 4, -1, -2, 3, -1, -1, 2, -1, 0, 1, -1, 1, 0, -1, 2, -1, -1, 3, -2, 0, -3, 3, 0, -2, 2, 0, -1, 1, 0, 0, 0, 0, 1, -1, 0, 2, -2, 0, 3, -3, 1, -3, 2, 1, -2, 1, 1, -1, 0, 1, 0, -1, 1, 1, -2, 1, 2, -3, 1, 3, -4, 2, -3, 1, 2, -2, 0, 2, -1, -1, 2, 0, -2, 2, 1, -3, 2, 2, -4, 3, -3, 0, 3, -2, -1, 3, -1, -2, 3, 0, -3, 3, 1, -4], ctildes: [0.012733568341161055, -0.01559537254916892, 0.014438509989398655, -0.010761830210959814, 0.005894497270508111, -0.016438967488251625, 0.007351729459116234, 0.0034031895951358118, -0.011114770628854638, 0.013753826419518004, -0.010761830210959814, 0.012733568341161055, 0.007351729459116234, -0.012426691401299558, 0.007609762871234891, 0.001964832423502704, -0.011114770628854638, 0.014438509989398655, -0.01559537254916892, 0.0034031895951358118, 0.007609762871234891, -0.011788994541016222, 0.007609762871234891, 0.0034031895951358118, -0.01559537254916892, 0.014438509989398655, -0.011114770628854638, 0.001964832423502704, 0.007609762871234891, -0.012426691401299558, 0.007351729459116234, 0.012733568341161055, -0.010761830210959814, 0.013753826419518004, -0.011114770628854638, 0.0034031895951358118, 0.007351729459116234, -0.016438967488251625, 0.005894497270508111, -0.010761830210959814, 0.014438509989398655, -0.01559537254916892, 0.012733568341161055]}
    - {mu0: 0, rank: 3, ndensity: 1, num_ms_combs: 43, mus: [0, 1, 1], ns: [1, 1, 1], ls: [3, 3, 4], ms_combs: [-3, -1, 4, -3, 0, 3, -3, 1, 2, -3, 2, 1, -3, 3, 0, -2, -2, 4, -2, -1, 3, -2, 0, 2, -2, 1, 1, -2, 2, 0, -2, 3, -1, -1, -3, 4, -1, -2, 3, -1, -1, 2, -1, 0, 1, -1, 1, 0, -1, 2, -1, -1, 3, -2, 0, -3, 3, 0, -2, 2, 0, -1, 1, 0, 0, 0, 0, 1, -1, 0, 2, -2, 0, 3, -3, 1, -3, 2, 1, -2, 1, 1, -1, 0, 1, 0, -1, 1, 1, -2, 1, 2, -3, 1, 3, -4, 2, -3, 1, 2, -2, 0, 2, -1, -1, 2, 0, -2, 2, 1, -3, 2, 2, -4, 3, -3, 0, 3, -2, -1, 3, -1, -2, 3, 0, -3, 3, 1, -4], ctildes: [-0.03511548724364407, 0.04300751298754046, -0.03981722167470034, 0.029678005517875514, -0.01625531337049777, 0.04533390308719577, -0.02027393697694477, -0.00938500957578379, 0.03065131279595323, -0.037929063028207026, 0.029678005517875514, -0.03511548724364407, -0.02027393697694477, 0.03426920967412404, -0.02098551826735158, -0.005418437790165922, 0.03065131279595323, -0.03981722167470034, 0.04300751298754046, -0.00938500957578379, -0.02098551826735158, 0.03251062674099554, -0.02098551826735158, -0.00938500957578379, 0.04300751298754046, -0.03981722167470034, 0.03065131279595323, -0.005418437790165922, -0.02098551826735158, 0.03426920967412404, -0.02027393697694477, -0.03511548724364407, 0.029678005517875514, -0.037929063028207026, 0.03065131279595323, -0.00938500957578379, -0.02027393697694477, 0.04533390308719577, -0.01625531337049777, 0.029678005517875514, -0.03981722167470034, 0.04300751298754046, -0.03511548724364407]}
    - {mu0: 0, rank: 3, ndensity: 1, num_ms_combs: 43, mus: [1, 1, 1], ns: [1, 1, 1], ls: [3, 3, 4], ms_combs: [-3, -1, 4, -3, 0, 3, -3, 1, 2, -3, 2, 1, -3, 3, 0, -2, -2, 4, -2, -1, 3, -2, 0, 2, -2, 1, 1, -2, 2, 0, -2, 3, -1, -1, -3, 4, -1, -2, 3, -1, -1, 2, -1, 0, 1, -1, 1, 0, -1, 2, -1, -1, 3, -2, 0, -3, 3, 0, -2, 2, 0, -1, 1, 0, 0, 0, 0, 1, -1, 0, 2, -2, 0, 3, -3, 1, -3, 2, 1, -2, 1, 1, -1, 0, 1, 0, -1, 1, 1, -2, 1, 2, -3, 1, 3, -4, 2, -3, 1, 2, -2, 0, 2, -1, -1, 2, 0, -2, 2, 1, -3, 2, 2, -4, 3, -3, 0, 3, -2, -1, 3, -1, -2, 3, 0, -3, 3, 1, -4], ctildes: [0.015786583426342395, -0.019334537123935267, 0.017900303857711634, -0.013342099079664434, 0.007307768759243108, -0.020380393362113284, 0.009114388624206746, 0.004219142271817676, -0.013779660900698864, 0.017051459762562945, -0.013342099079664434, 0.015786583426342395, 0.009114388624206746, -0.015406129316155207, 0.00943428842590079, 0.0024359229197477026, -0.013779660900698864, 0.017900303857711634, -0.019334537123935267, 0.004219142271817676, 0.00943428842590079, -0.014615537518486215, 0.00943428842590079, 0.004219142271817676, -0.019334537123935267, 0.017900303857711634, -0.013779660900698864, 0.0024359229197477026, 0.00943428842590079, -0.015406129316155207, 0.009114388624206746, 0.015786583426342395, -0.013342099079664434, 0.017051459762562945, -0.013779660900698864, 0.004219142271817676, 0.009114388624206746, -0.020380393362113284, 0.007307768759243108, -0.013342099079664434, 0.017900303857711634, -0.019334537123935267, 0.015786583426342395]}
    - {mu0: 0, rank: 3, ndensity: 1, num_ms_combs: 21, mus: [0, 0, 1], ns: [1, 1, 1], ls: [3, 4, 1], ms_combs: [-3, 2, 1, -3, 3, 0, -3, 4, -1, -2, 1, 1, -2, 2, 0, -2, 3, -1, -1, 0, 1, -1, 1, 0, -1, 2, -1, 0, -1, 1, 0, 0, 0, 0, 1, -1, 1, -2, 1, 1, -1, 0, 1, 0, -1, 2, -3, 1, 2, -2, 0, 2, -1, -1, 3, -4, 1, 3, -3, 0, 3, -2, -1], ctildes: [-0.002735673608921898, 0.007237911724745831, -0.014475823449491661, 0.004738325528906101, -0.009476651057812202, 0.012536431370181036, -0.006701004213301208, 0.01059521829582504, -0.01059521829582504, 0.008650959875810363, -0.010942694435687591, 0.008650959875810363, -0.01059521829582504, 0.01059521829582504, -0.006701004213301208, 0.012536431370181036, -0.009476651057812202, 0.004738325528906101, -0.014475823449491661, 0.007237911724745831, -0.002735673608921898]}
    - {mu0: 0, rank: 3, ndensity: 1, num_ms_combs: 43, mus: [0, 0, 1], ns: [1, 1, 1], ls: [3, 4, 3], ms_combs: [-3, 0, 3, -3, 1, 2, -3, 2, 1, -3, 3, 0, -3, 4, -1, -2, -1, 3, -2, 0, 2, -2, 1, 1, -2, 2, 0, -2, 3, -1, -2, 4, -2, -1, -2, 3, -1, -1, 2, -1, 0, 1, -1, 1, 0, -1, 2, -1, -1, 3, -2, -1, 4, -3, 0, -3, 3, 0, -2, 2, 0, -1, 1, 0, 0, 0, 0, 1, -1, 0, 2, -2, 0, 3, -3, 1, -4, 3, 1, -3, 2, 1, -2, 1, 1, -1, 0, 1, 0, -1, 1, 1, -2, 1, 2, -3, 2, -4, 2, 2, -3, 1, 2, -2, 0, 2, -1, -1, 2, 0, -2, 2, 1, -3, 3, -4, 1, 3, -3, 0, 3, -2, -1, 3, -1, -2, 3, 0, -3], ctildes: [0.008770123100937895, -0.016011980565965065, 0.02148232566578698, -0.02320356433193486, 0.018945631204951234, -0.016011980565965065, 0.02046362137973428, -0.016537102687527647, 0.005063432541506068, 0.010938264859978987, -0.024458704772944075, 0.02148232566578698, -0.016537102687527647, 0.002923374366979298, 0.01132217966807603, -0.018489042970982503, 0.010938264859978987, 0.018945631204951234, -0.02320356433193486, 0.005063432541506068, 0.01132217966807603, -0.01754024620187579, 0.01132217966807603, 0.005063432541506068, -0.02320356433193486, 0.018945631204951234, 0.010938264859978987, -0.018489042970982503, 0.01132217966807603, 0.002923374366979298, -0.016537102687527647, 0.02148232566578698, -0.024458704772944075, 0.010938264859978987, 0.005063432541506068, -0.016537102687527647, 0.02046362137973428, -0.016011980565965065, 0.018945631204951234, -0.02320356433193486, 0.02148232566578698, -0.016011980565965065, 0.008770123100937895]}
    - {mu0: 0, rank: 3, ndensity: 1, num_ms_combs: 9, mus: [0, 1, 1], ns: [1, 1, 1], ls: [4, 0, 4], ms_combs: [-4, 0, 4, -3, 0, 3, -2, 0, 2, -1, 0, 1, 0, 0, 0, 1, 0, -1, 2, 0, -2, 3, 0, -3, 4, 0, -4], ctildes: [-0.010938746862336519, 0.010938746862336519, -0.010938746862336519, 0.010938746862336519, -0.010938746862336519, 0.010938746862336519, -0.010938746862336519, 0.010938746862336519, -0.010938746862336519]}
    - {mu0: 0, rank: 3, ndensity: 1, num_ms_combs: 21, mus: [0, 1, 1], ns: [1, 1, 1], ls: [4, 1, 3], ms_combs: [-4, 1, 3, -3, 0, 3, -3, 1, 2, -2, -1, 3, -2, 0, 2, -2, 1, 1, -1, -1, 2, -1, 0, 1, -1, 1, 0, 0, -1, 1, 0, 0, 0, 0, 1, -1, 1, -1, 0, 1, 0, -1, 1, 1, -2, 2, -1, -1, 2, 0, -2, 2, 1, -3, 3, -1, -2, 3, 0, -3, 4, -1, -3], ctildes: [0.04354140553779387, -0.021770702768896935, -0.03770796151163385, 0.008228551818900096, 0.028504538715630235, 0.031869044061185646, -0.014252269357815118, -0.031869044061185646, -0.026020964659057327, 0.020155754528920367, 0.032914207275600384, 0.020155754528920367, -0.026020964659057327, -0.031869044061185646, -0.014252269357815118, 0.031869044061185646, 0.028504538715630235, 0.008228551818900096, -0.03770796151163385, -0.021770702768896935, 0.04354140553779387]}
    - {mu0: 0, rank: 3, ndensity: 1, num_ms_combs: 25, mus: [0, 1, 1], ns: [1, 1, 1], ls: [4, 2, 2], ms_combs: [-4, 2, 2, -3, 1, 2, -3, 2, 1, -2, 0, 2, -2, 1, 1, -2, 2, 0, -1, -1, 2, -1, 0, 1, -1, 1, 0, -1, 2, -1, 0, -2, 2, 0, -1, 1, 0, 0, 0, 0, 1, -1, 0, 2, -2, 1, -2, 1, 1, -1, 0, 1, 0, -1, 1, 1, -2, 2, -2, 0, 2, -1, -1, 2, 0, -2, 3, -2, -1, 3, -1, -2, 4, -2, -2], ctildes: [0.010598058444286115, -0.007493959469710588, -0.007493959469710588, 0.004905948279486704, 0.008011379495751867, 0.004905948279486704, -0.0028324505353731176, -0.006938057936201649, -0.006938057936201649, -0.0028324505353731176, 0.0012667103933322048, 0.005066841573328819, 0.007600262123108149, 0.005066841573328819, 0.0012667103933322048, -0.0028324505353731176, -0.006938057936201649, -0.006938057936201649, -0.0028324505353731176, 0.004905948279486704, 0.008011379495751867, 0.004905948279486704, -0.007493959469710588, -0.007493959469710588, 0.010598058444286115]}
    - {mu0: 0, rank: 3, ndensity: 1, num_ms_combs: 39, mus: [0, 1, 1], ns: [1, 1, 1], ls: [4, 2, 4], ms_combs: [-4, 0, 4, -4, 1, 3, -4, 2, 2, -3, -1, 4, -3, 0, 3, -3, 1, 2, -3, 2, 1, -2, -2, 4, -2, -1, 3, -2, 0, 2, -2, 1, 1, -2, 2, 0, -1, -2, 3, -1, -1, 2, -1, 0, 1, -1, 1, 0, -1, 2, -1, 0, -2, 2, 0, -1, 1, 0, 0, 0, 0, 1, -1, 0, 2, -2, 1, -2, 1, 1, -1, 0, 1, 0, -1, 1, 1, -2, 1, 2, -3, 2, -2, 0, 2, -1, -1, 2, 0, -2, 2, 1, -3, 2, 2, -4, 3, -2, -1, 3, -1, -2, 3, 0, -3, 3, 1, -4, 4, -2, -2, 4, -1, -3, 4, 0, -4], ctildes: [-0.03786733391401027, 0.03279407497885954, -0.017529169433975665, 0.03279407497885954, 0.009466833478502568, -0.030987487659243567, 0.02629375474409153, -0.017529169433975665, -0.030987487659243567, 0.0108192389390064, 0.021081905513017713, -0.03142704772611443, 0.02629375474409153, 0.021081905513017713, -0.02299088333851663, -0.007407426521564752, 0.0331270167232364, -0.03142704772611443, -0.007407426521564752, 0.027048097347516, -0.007407426521564752, -0.03142704772611443, 0.0331270167232364, -0.007407426521564752, -0.02299088333851663, 0.021081905513017713, 0.02629375474409153, -0.03142704772611443, 0.021081905513017713, 0.0108192389390064, -0.030987487659243567, -0.017529169433975665, 0.02629375474409153, -0.030987487659243567, 0.009466833478502568, 0.03279407497885954, -0.017529169433975665, 0.03279407497885954, -0.03786733391401027]}
    - {mu0: 0, rank: 3, ndensity: 1, num_ms_combs: 43, mus: [0, 1, 1], ns: [1, 1, 1], ls: [4, 3, 3], ms_combs: [-4, 1, 3, -4, 2, 2, -4, 3, 1, -3, 0, 3, -3, 1, 2, -3, 2, 1, -3, 3, 0, -2, -1, 3, -2, 0, 2, -2, 1, 1, -2, 2, 0, -2, 3, -1, -1, -2, 3, -1, -1, 2, -1, 0, 1, -1, 1, 0, -1, 2, -1, -1, 3, -2, 0, -3, 3, 0, -2, 2, 0, -1, 1, 0, 0, 0, 0, 1, -1, 0, 2, -2, 0, 3, -3, 1, -3, 2, 1, -2, 1, 1, -1, 0, 1, 0, -1, 1, 1, -2, 1, 2, -3, 2, -3, 1, 2, -2, 0, 2, -1, -1, 2, 0, -2, 2, 1, -3, 3, -3, 0, 3, -2, -1, 3, -1, -2, 3, 0, -3, 4, -3, -1, 4, -2, -2, 4, -1, -3], ctildes: [-0.015856913679736732, 0.020471187584469676, -0.015856913679736732, 0.01942067343618263, -0.00915499303319363, -0.00915499303319363, 0.01942067343618263, -0.017980049333661347, -0.004237938122264761, 0.01547476329715494, -0.004237938122264761, -0.017980049333661347, 0.013401537849516249, 0.013841048999229855, -0.009476317981753619, -0.009476317981753619, 0.013841048999229855, 0.013401537849516249, -0.007340324714855293, -0.017127425013343425, -0.002446774904951764, 0.014680649429710585, -0.002446774904951764, -0.017127425013343425, -0.007340324714855293, 0.013401537849516249, 0.013841048999229855, -0.009476317981753619, -0.009476317981753619, 0.013841048999229855, 0.013401537849516249, -0.017980049333661347, -0.004237938122264761, 0.01547476329715494, -0.004237938122264761, -0.017980049333661347, 0.01942067343618263, -0.00915499303319363, -0.00915499303319363, 0.01942067343618263, -0.015856913679736732, 0.020471187584469676, -0.015856913679736732]}
    - {mu0: 0, rank: 3, ndensity: 1, num_ms_combs: 9, mus: [0, 0, 1], ns: [1, 1, 1], ls: [4, 4, 0], ms_combs: [-4, 4, 0, -3, 3, 0, -2, 2, 0, -1, 1, 0, 0, 0, 0, 1, -1, 0, 2, -2, 0, 3, -3, 0, 4, -4, 0], ctildes: [-4.92068927806741e-05, 4.92068927806741e-05, -4.92068927806741e-05, 4.92068927806741e-05, -4.92068927806741e-05, 4.92068927806741e-05, -4.92068927806741e-05, 4.92068927806741e-05, -4.92068927806741e-05]}
    - {mu0: 0, rank: 3, ndensity: 1, num_ms_combs: 39, mus: [0, 0, 1], ns: [1, 1, 1], ls: [4, 4, 2], ms_combs: [-4, 2, 2, -4, 3, 1, -4, 4, 0, -3, 1, 2, -3, 2, 1, -3, 3, 0, -3, 4, -1, -2, 0, 2, -2, 1, 1, -2, 2, 0, -2, 3, -1, -2, 4, -2, -1, -1, 2, -1, 0, 1, -1, 1, 0, -1, 2, -1, -1, 3, -2, 0, -2, 2, 0, -1, 1, 0, 0, 0, 0, 1, -1, 0, 2, -2, 1, -3, 2, 1, -2, 1, 1, -1, 0, 1, 0, -1, 1, 1, -2, 2, -4, 2, 2, -3, 1, 2, -2, 0, 2, -1, -1, 2, 0, -2, 3, -4, 1, 3, -3, 0, 3, -2, -1, 3, -1, -2, 4, -4, 0, 4, -3, -1, 4, -2, -2], ctildes: [0.0058887825381687435, -0.011016903956475994, 0.012721224217709751, -0.008833174006509676, 0.010409995574336023, -0.0031803060544274377, -0.011016903956475994, 0.010557662219696205, -0.007082295457522156, -0.0036346357184959973, 0.010409995574336023, 0.0058887825381687435, -0.011128753836706012, 0.0024884647629458876, 0.007723601101060554, -0.007082295457522156, -0.008833174006509676, 0.010557662219696205, 0.0024884647629458876, -0.009086589296239993, 0.0024884647629458876, 0.010557662219696205, -0.008833174006509676, -0.007082295457522156, 0.007723601101060554, 0.0024884647629458876, -0.011128753836706012, 0.0058887825381687435, 0.010409995574336023, -0.0036346357184959973, -0.007082295457522156, 0.010557662219696205, -0.011016903956475994, -0.0031803060544274377, 0.010409995574336023, -0.008833174006509676, 0.012721224217709751, -0.011016903956475994, 0.0058887825381687435]}
    - {mu0: 0, rank: 3, ndensity: 1, num_ms_combs: 61, mus: [0, 0, 0], ns: [1, 1, 1], ls: [4, 4, 4], ms_combs: [-4, 0, 4, -4, 1, 3, -4, 2, 2, -4, 3, 1, -4, 4, 0, -3, -1, 4, -3, 0, 3, -3, 1, 2, -3, 2, 1, -3, 3, 0, -3, 4, -1, -2, -2, 4, -2, -1, 3, -2, 0, 2, -2, 1, 1, -2, 2, 0, -2, 3, -1, -2, 4, -2, -1, -3, 4, -1, -2, 3, -1, -1, 2, -1, 0, 1, -1, 1, 0, -1, 2, -1, -1, 3, -2, -1, 4, -3, 0, -4, 4, 0, -3, 3, 0, -2, 2, 0, -1, 1, 0, 0, 0, 0, 1, -1, 0, 2, -2, 0, 3, -3, 0, 4, -4, 1, -4, 3, 1, -3, 2, 1, -2, 1, 1, -1, 0, 1, 0, -1, 1, 1, -2, 1, 2, -3, 1, 3, -4, 2, -4, 2, 2, -3, 1, 2, -2, 0, 2, -1, -1, 2, 0, -2, 2, 1, -3, 2, 2, -4, 3, -4, 1, 3, -3, 0, 3, -2, -1, 3, -1, -2, 3, 0, -3, 3, 1, -4, 4, -4, 0, 4, -3, -1, 4, -2, -2, 4, -1, -3, 4, 0, -4], ctildes: [0.0025744989512875966, -0.004070639964170906, 0.004615672457780352, -0.004070639964170906, 0.0025744989512875966, -0.004070639964170906, 0.003861748518886975, -0.0015385573633193439, -0.0015385573633193439, 0.003861748518886975, -0.004070639964170906, 0.004615672457780352, -0.0015385573633193439, -0.002022820643992646, 0.0034891202320195772, -0.002022820643992646, -0.0015385573633193439, 0.004615672457780352, -0.004070639964170906, -0.0015385573633193439, 0.0034891202320195772, -0.0016550351057960122, -0.0016550351057960122, 0.0034891202320195772, -0.0015385573633193439, -0.004070639964170906, 0.0025744989512875966, 0.003861748518886975, -0.002022820643992646, -0.0016550351057960122, 0.0033100702115920243, -0.0016550351057960122, -0.002022820643992646, 0.003861748518886975, 0.0025744989512875966, -0.004070639964170906, -0.0015385573633193439, 0.0034891202320195772, -0.0016550351057960122, -0.0016550351057960122, 0.0034891202320195772, -0.0015385573633193439, -0.004070639964170906, 0.004615672457780352, -0.0015385573633193439, -0.002022820643992646, 0.0034891202320195772, -0.002022820643992646, -0.0015385573633193439, 0.004615672457780352, -0.004070639964170906, 0.003861748518886975, -0.0015385573633193439, -0.0015385573633193439, 0.003861748518886975, -0.004070639964170906, 0.0025744989512875966, -0.004070639964170906, 0.004615672457780352, -0.004070639964170906, 0.0025744989512875966]}
