elements: [In, P] 
E0: [-2.005334, -1.110782] 
deltaSplineBins: 0.001000 
embeddings:
  0: {ndensity: 1, FS_parameters: [1.0, 1.0], npoti: FinnisSinclair, rho_core_cutoff: 100000, drho_core_cutoff: 250}
  1: {ndensity: 1, FS_parameters: [1.0, 1.0], npoti: FinnisSinclair, rho_core_cutoff: 100000, drho_core_cutoff: 250}
bonds:
  [0, 0]: {nradmax: 8, lmax: 6, nradbasemax: 8, radbasename: ChebExpCos, radparameters: [1.737], radcoefficients: [[[1, 0, 0, 0, 0, 0, 0, 0], [1, 0, 0, 0, 0, 0, 0, 0], [1, 0, 0, 0, 0, 0, 0, 0], [1, 0, 0, 0, 0, 0, 0, 0], [1, 0, 0, 0, 0, 0, 0, 0], [1, 0, 0, 0, 0, 0, 0, 0], [1, 0, 0, 0, 0, 0, 0, 0]], [[0, 1, 0, 0, 0, 0, 0, 0], [0, 1, 0, 0, 0, 0, 0, 0], [0, 1, 0, 0, 0, 0, 0, 0], [0, 1, 0, 0, 0, 0, 0, 0], [0, 1, 0, 0, 0, 0, 0, 0], [0, 1, 0, 0, 0, 0, 0, 0], [0, 1, 0, 0, 0, 0, 0, 0]], [[0, 0, 1, 0, 0, 0, 0, 0], [0, 0, 1, 0, 0, 0, 0, 0], [0, 0, 1, 0, 0, 0, 0, 0], [0, 0, 1, 0, 0, 0, 0, 0], [0, 0, 1, 0, 0, 0, 0, 0], [0, 0, 1, 0, 0, 0, 0, 0], [0, 0, 1, 0, 0, 0, 0, 0]], [[0, 0, 0, 1, 0, 0, 0, 0], [0, 0, 0, 1, 0, 0, 0, 0], [0, 0, 0, 1, 0, 0, 0, 0], [0, 0, 0, 1, 0, 0, 0, 0], [0, 0, 0, 1, 0, 0, 0, 0], [0, 0, 0, 1, 0, 0, 0, 0], [0, 0, 0, 1, 0, 0, 0, 0]], [[0, 0, 0, 0, 1, 0, 0, 0], [0, 0, 0, 0, 1, 0, 0, 0], [0, 0, 0, 0, 1, 0, 0, 0], [0, 0, 0, 0, 1, 0, 0, 0], [0, 0, 0, 0, 1, 0, 0, 0], [0, 0, 0, 0, 1, 0, 0, 0], [0, 0, 0, 0, 1, 0, 0, 0]], [[0, 0, 0, 0, 0, 1, 0, 0], [0, 0, 0, 0, 0, 1, 0, 0], [0, 0, 0, 0, 0, 1, 0, 0], [0, 0, 0, 0, 0, 1, 0, 0], [0, 0, 0, 0, 0, 1, 0, 0], [0, 0, 0, 0, 0, 1, 0, 0], [0, 0, 0, 0, 0, 1, 0, 0]], [[0, 0, 0, 0, 0, 0, 1, 0], [0, 0, 0, 0, 0, 0, 1, 0], [0, 0, 0, 0, 0, 0, 1, 0], [0, 0, 0, 0, 0, 0, 1, 0], [0, 0, 0, 0, 0, 0, 1, 0], [0, 0, 0, 0, 0, 0, 1, 0], [0, 0, 0, 0, 0, 0, 1, 0]], [[0, 0, 0, 0, 0, 0, 0, 1], [0, 0, 0, 0, 0, 0, 0, 1], [0, 0, 0, 0, 0, 0, 0, 1], [0, 0, 0, 0, 0, 0, 0, 1], [0, 0, 0, 0, 0, 0, 0, 1], [0, 0, 0, 0, 0, 0, 0, 1], [0, 0, 0, 0, 0, 0, 0, 1]]], prehc: 0, lambdahc: 1.737, rcut: 5.790, dcut: 0.01, rcut_in: 1.705, dcut_in: 0.01, inner_cutoff_type: distance}
  [0, 1]: {nradmax: 8, lmax: 6, nradbasemax: 8, radbasename: ChebExpCos, radparameters: [1.502], radcoefficients: [[[1, 0, 0, 0, 0, 0, 0, 0], [1, 0, 0, 0, 0, 0, 0, 0], [1, 0, 0, 0, 0, 0, 0, 0], [1, 0, 0, 0, 0, 0, 0, 0], [1, 0, 0, 0, 0, 0, 0, 0], [1, 0, 0, 0, 0, 0, 0, 0], [1, 0, 0, 0, 0, 0, 0, 0]], [[0, 1, 0, 0, 0, 0, 0, 0], [0, 1, 0, 0, 0, 0, 0, 0], [0, 1, 0, 0, 0, 0, 0, 0], [0, 1, 0, 0, 0, 0, 0, 0], [0, 1, 0, 0, 0, 0, 0, 0], [0, 1, 0, 0, 0, 0, 0, 0], [0, 1, 0, 0, 0, 0, 0, 0]], [[0, 0, 1, 0, 0, 0, 0, 0], [0, 0, 1, 0, 0, 0, 0, 0], [0, 0, 1, 0, 0, 0, 0, 0], [0, 0, 1, 0, 0, 0, 0, 0], [0, 0, 1, 0, 0, 0, 0, 0], [0, 0, 1, 0, 0, 0, 0, 0], [0, 0, 1, 0, 0, 0, 0, 0]], [[0, 0, 0, 1, 0, 0, 0, 0], [0, 0, 0, 1, 0, 0, 0, 0], [0, 0, 0, 1, 0, 0, 0, 0], [0, 0, 0, 1, 0, 0, 0, 0], [0, 0, 0, 1, 0, 0, 0, 0], [0, 0, 0, 1, 0, 0, 0, 0], [0, 0, 0, 1, 0, 0, 0, 0]], [[0, 0, 0, 0, 1, 0, 0, 0], [0, 0, 0, 0, 1, 0, 0, 0], [0, 0, 0, 0, 1, 0, 0, 0], [0, 0, 0, 0, 1, 0, 0, 0], [0, 0, 0, 0, 1, 0, 0, 0], [0, 0, 0, 0, 1, 0, 0, 0], [0, 0, 0, 0, 1, 0, 0, 0]], [[0, 0, 0, 0, 0, 1, 0, 0], [0, 0, 0, 0, 0, 1, 0, 0], [0, 0, 0, 0, 0, 1, 0, 0], [0, 0, 0, 0, 0, 1, 0, 0], [0, 0, 0, 0, 0, 1, 0, 0], [0, 0, 0, 0, 0, 1, 0, 0], [0, 0, 0, 0, 0, 1, 0, 0]], [[0, 0, 0, 0, 0, 0, 1, 0], [0, 0, 0, 0, 0, 0, 1, 0], [0, 0, 0, 0, 0, 0, 1, 0], [0, 0, 0, 0, 0, 0, 1, 0], [0, 0, 0, 0, 0, 0, 1, 0], [0, 0, 0, 0, 0, 0, 1, 0], [0, 0, 0, 0, 0, 0, 1, 0]], [[0, 0, 0, 0, 0, 0, 0, 1], [0, 0, 0, 0, 0, 0, 0, 1], [0, 0, 0, 0, 0, 0, 0, 1], [0, 0, 0, 0, 0, 0, 0, 1], [0, 0, 0, 0, 0, 0, 0, 1], [0, 0, 0, 0, 0, 0, 0, 1], [0, 0, 0, 0, 0, 0, 0, 1]]], prehc: 0, lambdahc: 1.502, rcut: 5.007, dcut: 0.01, rcut_in: 1.403, dcut_in: 0.01, inner_cutoff_type: distance}
  [1, 0]: {nradmax: 8, lmax: 6, nradbasemax: 8, radbasename: ChebExpCos, radparameters: [1.502], radcoefficients: [[[1, 0, 0, 0, 0, 0, 0, 0], [1, 0, 0, 0, 0, 0, 0, 0], [1, 0, 0, 0, 0, 0, 0, 0], [1, 0, 0, 0, 0, 0, 0, 0], [1, 0, 0, 0, 0, 0, 0, 0], [1, 0, 0, 0, 0, 0, 0, 0], [1, 0, 0, 0, 0, 0, 0, 0]], [[0, 1, 0, 0, 0, 0, 0, 0], [0, 1, 0, 0, 0, 0, 0, 0], [0, 1, 0, 0, 0, 0, 0, 0], [0, 1, 0, 0, 0, 0, 0, 0], [0, 1, 0, 0, 0, 0, 0, 0], [0, 1, 0, 0, 0, 0, 0, 0], [0, 1, 0, 0, 0, 0, 0, 0]], [[0, 0, 1, 0, 0, 0, 0, 0], [0, 0, 1, 0, 0, 0, 0, 0], [0, 0, 1, 0, 0, 0, 0, 0], [0, 0, 1, 0, 0, 0, 0, 0], [0, 0, 1, 0, 0, 0, 0, 0], [0, 0, 1, 0, 0, 0, 0, 0], [0, 0, 1, 0, 0, 0, 0, 0]], [[0, 0, 0, 1, 0, 0, 0, 0], [0, 0, 0, 1, 0, 0, 0, 0], [0, 0, 0, 1, 0, 0, 0, 0], [0, 0, 0, 1, 0, 0, 0, 0], [0, 0, 0, 1, 0, 0, 0, 0], [0, 0, 0, 1, 0, 0, 0, 0], [0, 0, 0, 1, 0, 0, 0, 0]], [[0, 0, 0, 0, 1, 0, 0, 0], [0, 0, 0, 0, 1, 0, 0, 0], [0, 0, 0, 0, 1, 0, 0, 0], [0, 0, 0, 0, 1, 0, 0, 0], [0, 0, 0, 0, 1, 0, 0, 0], [0, 0, 0, 0, 1, 0, 0, 0], [0, 0, 0, 0, 1, 0, 0, 0]], [[0, 0, 0, 0, 0, 1, 0, 0], [0, 0, 0, 0, 0, 1, 0, 0], [0, 0, 0, 0, 0, 1, 0, 0], [0, 0, 0, 0, 0, 1, 0, 0], [0, 0, 0, 0, 0, 1, 0, 0], [0, 0, 0, 0, 0, 1, 0, 0], [0, 0, 0, 0, 0, 1, 0, 0]], [[0, 0, 0, 0, 0, 0, 1, 0], [0, 0, 0, 0, 0, 0, 1, 0], [0, 0, 0, 0, 0, 0, 1, 0], [0, 0, 0, 0, 0, 0, 1, 0], [0, 0, 0, 0, 0, 0, 1, 0], [0, 0, 0, 0, 0, 0, 1, 0], [0, 0, 0, 0, 0, 0, 1, 0]], [[0, 0, 0, 0, 0, 0, 0, 1], [0, 0, 0, 0, 0, 0, 0, 1], [0, 0, 0, 0, 0, 0, 0, 1], [0, 0, 0, 0, 0, 0, 0, 1], [0, 0, 0, 0, 0, 0, 0, 1], [0, 0, 0, 0, 0, 0, 0, 1], [0, 0, 0, 0, 0, 0, 0, 1]]], prehc: 0, lambdahc: 1.502, rcut: 5.007, dcut: 0.01, rcut_in: 1.403, dcut_in: 0.01, inner_cutoff_type: distance}
  [1, 1]: {nradmax: 8, lmax: 6, nradbasemax: 8, radbasename: ChebExpCos, radparameters: [1.267], radcoefficients: [[[1, 0, 0, 0, 0, 0, 0, 0], [1, 0, 0, 0, 0, 0, 0, 0], [1, 0, 0, 0, 0, 0, 0, 0], [1, 0, 0, 0, 0, 0, 0, 0], [1, 0, 0, 0, 0, 0, 0, 0], [1, 0, 0, 0, 0, 0, 0, 0], [1, 0, 0, 0, 0, 0, 0, 0]], [[0, 1, 0, 0, 0, 0, 0, 0], [0, 1, 0, 0, 0, 0, 0, 0], [0, 1, 0, 0, 0, 0, 0, 0], [0, 1, 0, 0, 0, 0, 0, 0], [0, 1, 0, 0, 0, 0, 0, 0], [0, 1, 0, 0, 0, 0, 0, 0], [0, 1, 0, 0, 0, 0, 0, 0]], [[0, 0, 1, 0, 0, 0, 0, 0], [0, 0, 1, 0, 0, 0, 0, 0], [0, 0, 1, 0, 0, 0, 0, 0], [0, 0, 1, 0, 0, 0, 0, 0], [0, 0, 1, 0, 0, 0, 0, 0], [0, 0, 1, 0, 0, 0, 0, 0], [0, 0, 1, 0, 0, 0, 0, 0]], [[0, 0, 0, 1, 0, 0, 0, 0], [0, 0, 0, 1, 0, 0, 0, 0], [0, 0, 0, 1, 0, 0, 0, 0], [0, 0, 0, 1, 0, 0, 0, 0], [0, 0, 0, 1, 0, 0, 0, 0], [0, 0, 0, 1, 0, 0, 0, 0], [0, 0, 0, 1, 0, 0, 0, 0]], [[0, 0, 0, 0, 1, 0, 0, 0], [0, 0, 0, 0, 1, 0, 0, 0], [0, 0, 0, 0, 1, 0, 0, 0], [0, 0, 0, 0, 1, 0, 0, 0], [0, 0, 0, 0, 1, 0, 0, 0], [0, 0, 0, 0, 1, 0, 0, 0], [0, 0, 0, 0, 1, 0, 0, 0]], [[0, 0, 0, 0, 0, 1, 0, 0], [0, 0, 0, 0, 0, 1, 0, 0], [0, 0, 0, 0, 0, 1, 0, 0], [0, 0, 0, 0, 0, 1, 0, 0], [0, 0, 0, 0, 0, 1, 0, 0], [0, 0, 0, 0, 0, 1, 0, 0], [0, 0, 0, 0, 0, 1, 0, 0]], [[0, 0, 0, 0, 0, 0, 1, 0], [0, 0, 0, 0, 0, 0, 1, 0], [0, 0, 0, 0, 0, 0, 1, 0], [0, 0, 0, 0, 0, 0, 1, 0], [0, 0, 0, 0, 0, 0, 1, 0], [0, 0, 0, 0, 0, 0, 1, 0], [0, 0, 0, 0, 0, 0, 1, 0]], [[0, 0, 0, 0, 0, 0, 0, 1], [0, 0, 0, 0, 0, 0, 0, 1], [0, 0, 0, 0, 0, 0, 0, 1], [0, 0, 0, 0, 0, 0, 0, 1], [0, 0, 0, 0, 0, 0, 0, 1], [0, 0, 0, 0, 0, 0, 0, 1], [0, 0, 0, 0, 0, 0, 0, 1]]], prehc: 0, lambdahc: 1.267, rcut: 4.224, dcut: 0.01, rcut_in: 1.100, dcut_in: 0.01, inner_cutoff_type: distance}
functions:
  0:
    - {mu0: 0, rank: 1, ndensity: 1, num_ms_combs: 1, mus: [0], ns: [1], ls: [0], ms_combs: [0], ctildes: [0.1633641187036119]}
    - {mu0: 0, rank: 1, ndensity: 1, num_ms_combs: 1, mus: [1], ns: [1], ls: [0], ms_combs: [0], ctildes: [-0.5363876616784182]}
    - {mu0: 0, rank: 1, ndensity: 1, num_ms_combs: 1, mus: [0], ns: [2], ls: [0], ms_combs: [0], ctildes: [-0.4363374559387694]}
    - {mu0: 0, rank: 1, ndensity: 1, num_ms_combs: 1, mus: [1], ns: [2], ls: [0], ms_combs: [0], ctildes: [-1.778486176766819]}
    - {mu0: 0, rank: 1, ndensity: 1, num_ms_combs: 1, mus: [0], ns: [3], ls: [0], ms_combs: [0], ctildes: [-0.016045480469983886]}
    - {mu0: 0, rank: 1, ndensity: 1, num_ms_combs: 1, mus: [1], ns: [3], ls: [0], ms_combs: [0], ctildes: [0.4973339278913045]}
    - {mu0: 0, rank: 1, ndensity: 1, num_ms_combs: 1, mus: [0], ns: [4], ls: [0], ms_combs: [0], ctildes: [0.34155370110420336]}
    - {mu0: 0, rank: 1, ndensity: 1, num_ms_combs: 1, mus: [1], ns: [4], ls: [0], ms_combs: [0], ctildes: [0.020148007515217614]}
    - {mu0: 0, rank: 1, ndensity: 1, num_ms_combs: 1, mus: [0], ns: [5], ls: [0], ms_combs: [0], ctildes: [-0.5889839274427118]}
    - {mu0: 0, rank: 1, ndensity: 1, num_ms_combs: 1, mus: [1], ns: [5], ls: [0], ms_combs: [0], ctildes: [-0.26516673149853887]}
    - {mu0: 0, rank: 1, ndensity: 1, num_ms_combs: 1, mus: [0], ns: [6], ls: [0], ms_combs: [0], ctildes: [-1.1192369225391303]}
    - {mu0: 0, rank: 1, ndensity: 1, num_ms_combs: 1, mus: [1], ns: [6], ls: [0], ms_combs: [0], ctildes: [0.22348080659367042]}
    - {mu0: 0, rank: 1, ndensity: 1, num_ms_combs: 1, mus: [0], ns: [7], ls: [0], ms_combs: [0], ctildes: [-0.926023878387241]}
    - {mu0: 0, rank: 1, ndensity: 1, num_ms_combs: 1, mus: [1], ns: [7], ls: [0], ms_combs: [0], ctildes: [0.18103970519223367]}
    - {mu0: 0, rank: 1, ndensity: 1, num_ms_combs: 1, mus: [0], ns: [8], ls: [0], ms_combs: [0], ctildes: [-0.45172355663180497]}
    - {mu0: 0, rank: 1, ndensity: 1, num_ms_combs: 1, mus: [1], ns: [8], ls: [0], ms_combs: [0], ctildes: [-0.21766037410088757]}
    - {mu0: 0, rank: 2, ndensity: 1, num_ms_combs: 1, mus: [0, 0], ns: [1, 1], ls: [0, 0], ms_combs: [0, 0], ctildes: [0.35115399596543284]}
    - {mu0: 0, rank: 2, ndensity: 1, num_ms_combs: 1, mus: [0, 1], ns: [1, 1], ls: [0, 0], ms_combs: [0, 0], ctildes: [0.08576726128555379]}
    - {mu0: 0, rank: 2, ndensity: 1, num_ms_combs: 1, mus: [1, 1], ns: [1, 1], ls: [0, 0], ms_combs: [0, 0], ctildes: [-0.8809001686090596]}
    - {mu0: 0, rank: 2, ndensity: 1, num_ms_combs: 1, mus: [0, 0], ns: [1, 2], ls: [0, 0], ms_combs: [0, 0], ctildes: [-0.22735983078405297]}
    - {mu0: 0, rank: 2, ndensity: 1, num_ms_combs: 1, mus: [0, 1], ns: [1, 2], ls: [0, 0], ms_combs: [0, 0], ctildes: [-0.4362793752794687]}
    - {mu0: 0, rank: 2, ndensity: 1, num_ms_combs: 1, mus: [1, 1], ns: [1, 2], ls: [0, 0], ms_combs: [0, 0], ctildes: [0.5257656543991516]}
    - {mu0: 0, rank: 2, ndensity: 1, num_ms_combs: 1, mus: [0, 0], ns: [1, 3], ls: [0, 0], ms_combs: [0, 0], ctildes: [-0.4090754450676286]}
    - {mu0: 0, rank: 2, ndensity: 1, num_ms_combs: 1, mus: [0, 1], ns: [1, 3], ls: [0, 0], ms_combs: [0, 0], ctildes: [-0.1795483626863188]}
    - {mu0: 0, rank: 2, ndensity: 1, num_ms_combs: 1, mus: [1, 1], ns: [1, 3], ls: [0, 0], ms_combs: [0, 0], ctildes: [0.5433020468253744]}
    - {mu0: 0, rank: 2, ndensity: 1, num_ms_combs: 1, mus: [0, 0], ns: [1, 4], ls: [0, 0], ms_combs: [0, 0], ctildes: [-0.19639853825174214]}
    - {mu0: 0, rank: 2, ndensity: 1, num_ms_combs: 1, mus: [0, 1], ns: [1, 4], ls: [0, 0], ms_combs: [0, 0], ctildes: [0.7623611010731111]}
    - {mu0: 0, rank: 2, ndensity: 1, num_ms_combs: 1, mus: [1, 1], ns: [1, 4], ls: [0, 0], ms_combs: [0, 0], ctildes: [0.627185452739468]}
    - {mu0: 0, rank: 2, ndensity: 1, num_ms_combs: 1, mus: [0, 0], ns: [1, 5], ls: [0, 0], ms_combs: [0, 0], ctildes: [-0.6924798305672084]}
    - {mu0: 0, rank: 2, ndensity: 1, num_ms_combs: 1, mus: [0, 1], ns: [1, 5], ls: [0, 0], ms_combs: [0, 0], ctildes: [1.1279356109425862]}
    - {mu0: 0, rank: 2, ndensity: 1, num_ms_combs: 1, mus: [1, 1], ns: [1, 5], ls: [0, 0], ms_combs: [0, 0], ctildes: [1.2900256213697503]}
    - {mu0: 0, rank: 2, ndensity: 1, num_ms_combs: 1, mus: [0, 0], ns: [1, 6], ls: [0, 0], ms_combs: [0, 0], ctildes: [0.15548669233885448]}
    - {mu0: 0, rank: 2, ndensity: 1, num_ms_combs: 1, mus: [0, 1], ns: [1, 6], ls: [0, 0], ms_combs: [0, 0], ctildes: [-1.2588435539059901]}
    - {mu0: 0, rank: 2, ndensity: 1, num_ms_combs: 1, mus: [1, 1], ns: [1, 6], ls: [0, 0], ms_combs: [0, 0], ctildes: [-2.9201011429086066]}
    - {mu0: 0, rank: 2, ndensity: 1, num_ms_combs: 1, mus: [0, 1], ns: [2, 1], ls: [0, 0], ms_combs: [0, 0], ctildes: [0.3120167152283102]}
    - {mu0: 0, rank: 2, ndensity: 1, num_ms_combs: 1, mus: [0, 0], ns: [2, 2], ls: [0, 0], ms_combs: [0, 0], ctildes: [-0.2763762847845328]}
    - {mu0: 0, rank: 2, ndensity: 1, num_ms_combs: 1, mus: [0, 1], ns: [2, 2], ls: [0, 0], ms_combs: [0, 0], ctildes: [0.2036215970971611]}
    - {mu0: 0, rank: 2, ndensity: 1, num_ms_combs: 1, mus: [1, 1], ns: [2, 2], ls: [0, 0], ms_combs: [0, 0], ctildes: [0.8284658264967675]}
    - {mu0: 0, rank: 2, ndensity: 1, num_ms_combs: 1, mus: [0, 0], ns: [2, 3], ls: [0, 0], ms_combs: [0, 0], ctildes: [-0.2060029464719264]}
    - {mu0: 0, rank: 2, ndensity: 1, num_ms_combs: 1, mus: [0, 1], ns: [2, 3], ls: [0, 0], ms_combs: [0, 0], ctildes: [0.5854161551217203]}
    - {mu0: 0, rank: 2, ndensity: 1, num_ms_combs: 1, mus: [1, 1], ns: [2, 3], ls: [0, 0], ms_combs: [0, 0], ctildes: [1.1707730578609699]}
    - {mu0: 0, rank: 2, ndensity: 1, num_ms_combs: 1, mus: [0, 0], ns: [2, 4], ls: [0, 0], ms_combs: [0, 0], ctildes: [0.38112423884581403]}
    - {mu0: 0, rank: 2, ndensity: 1, num_ms_combs: 1, mus: [0, 1], ns: [2, 4], ls: [0, 0], ms_combs: [0, 0], ctildes: [0.3699777465471925]}
    - {mu0: 0, rank: 2, ndensity: 1, num_ms_combs: 1, mus: [1, 1], ns: [2, 4], ls: [0, 0], ms_combs: [0, 0], ctildes: [0.19162592632551423]}
    - {mu0: 0, rank: 2, ndensity: 1, num_ms_combs: 1, mus: [0, 0], ns: [2, 5], ls: [0, 0], ms_combs: [0, 0], ctildes: [0.4327171088398245]}
    - {mu0: 0, rank: 2, ndensity: 1, num_ms_combs: 1, mus: [0, 1], ns: [2, 5], ls: [0, 0], ms_combs: [0, 0], ctildes: [-0.17969391327619633]}
    - {mu0: 0, rank: 2, ndensity: 1, num_ms_combs: 1, mus: [1, 1], ns: [2, 5], ls: [0, 0], ms_combs: [0, 0], ctildes: [-0.18199472615731338]}
    - {mu0: 0, rank: 2, ndensity: 1, num_ms_combs: 1, mus: [0, 0], ns: [2, 6], ls: [0, 0], ms_combs: [0, 0], ctildes: [0.12793304936400318]}
    - {mu0: 0, rank: 2, ndensity: 1, num_ms_combs: 1, mus: [0, 1], ns: [2, 6], ls: [0, 0], ms_combs: [0, 0], ctildes: [0.43177958921131676]}
    - {mu0: 0, rank: 2, ndensity: 1, num_ms_combs: 1, mus: [1, 1], ns: [2, 6], ls: [0, 0], ms_combs: [0, 0], ctildes: [1.1500555295451704]}
    - {mu0: 0, rank: 2, ndensity: 1, num_ms_combs: 1, mus: [0, 1], ns: [3, 1], ls: [0, 0], ms_combs: [0, 0], ctildes: [0.05194448809379537]}
    - {mu0: 0, rank: 2, ndensity: 1, num_ms_combs: 1, mus: [0, 1], ns: [3, 2], ls: [0, 0], ms_combs: [0, 0], ctildes: [0.35180869211887966]}
    - {mu0: 0, rank: 2, ndensity: 1, num_ms_combs: 1, mus: [0, 0], ns: [3, 3], ls: [0, 0], ms_combs: [0, 0], ctildes: [0.2268183862074693]}
    - {mu0: 0, rank: 2, ndensity: 1, num_ms_combs: 1, mus: [0, 1], ns: [3, 3], ls: [0, 0], ms_combs: [0, 0], ctildes: [0.5347588175600322]}
    - {mu0: 0, rank: 2, ndensity: 1, num_ms_combs: 1, mus: [1, 1], ns: [3, 3], ls: [0, 0], ms_combs: [0, 0], ctildes: [1.5672295305312218]}
    - {mu0: 0, rank: 2, ndensity: 1, num_ms_combs: 1, mus: [0, 0], ns: [3, 4], ls: [0, 0], ms_combs: [0, 0], ctildes: [0.723081141597504]}
    - {mu0: 0, rank: 2, ndensity: 1, num_ms_combs: 1, mus: [0, 1], ns: [3, 4], ls: [0, 0], ms_combs: [0, 0], ctildes: [-0.07740764889240381]}
    - {mu0: 0, rank: 2, ndensity: 1, num_ms_combs: 1, mus: [1, 1], ns: [3, 4], ls: [0, 0], ms_combs: [0, 0], ctildes: [-0.6408373221433976]}
    - {mu0: 0, rank: 2, ndensity: 1, num_ms_combs: 1, mus: [0, 0], ns: [3, 5], ls: [0, 0], ms_combs: [0, 0], ctildes: [0.18849308483368077]}
    - {mu0: 0, rank: 2, ndensity: 1, num_ms_combs: 1, mus: [0, 1], ns: [3, 5], ls: [0, 0], ms_combs: [0, 0], ctildes: [-0.8753565836609596]}
    - {mu0: 0, rank: 2, ndensity: 1, num_ms_combs: 1, mus: [1, 1], ns: [3, 5], ls: [0, 0], ms_combs: [0, 0], ctildes: [-0.44445517022711556]}
    - {mu0: 0, rank: 2, ndensity: 1, num_ms_combs: 1, mus: [0, 0], ns: [3, 6], ls: [0, 0], ms_combs: [0, 0], ctildes: [-0.2081415730071967]}
    - {mu0: 0, rank: 2, ndensity: 1, num_ms_combs: 1, mus: [0, 1], ns: [3, 6], ls: [0, 0], ms_combs: [0, 0], ctildes: [0.9240661021749474]}
    - {mu0: 0, rank: 2, ndensity: 1, num_ms_combs: 1, mus: [1, 1], ns: [3, 6], ls: [0, 0], ms_combs: [0, 0], ctildes: [1.9451780199624409]}
    - {mu0: 0, rank: 2, ndensity: 1, num_ms_combs: 1, mus: [0, 1], ns: [4, 1], ls: [0, 0], ms_combs: [0, 0], ctildes: [-0.2199254300985558]}
    - {mu0: 0, rank: 2, ndensity: 1, num_ms_combs: 1, mus: [0, 1], ns: [4, 2], ls: [0, 0], ms_combs: [0, 0], ctildes: [0.014919018298897413]}
    - {mu0: 0, rank: 2, ndensity: 1, num_ms_combs: 1, mus: [0, 1], ns: [4, 3], ls: [0, 0], ms_combs: [0, 0], ctildes: [-0.2768346240059145]}
    - {mu0: 0, rank: 2, ndensity: 1, num_ms_combs: 1, mus: [0, 0], ns: [4, 4], ls: [0, 0], ms_combs: [0, 0], ctildes: [-0.017732600896124495]}
    - {mu0: 0, rank: 2, ndensity: 1, num_ms_combs: 1, mus: [0, 1], ns: [4, 4], ls: [0, 0], ms_combs: [0, 0], ctildes: [-1.098551497067092]}
    - {mu0: 0, rank: 2, ndensity: 1, num_ms_combs: 1, mus: [1, 1], ns: [4, 4], ls: [0, 0], ms_combs: [0, 0], ctildes: [-1.5170748009368253]}
    - {mu0: 0, rank: 2, ndensity: 1, num_ms_combs: 1, mus: [0, 0], ns: [4, 5], ls: [0, 0], ms_combs: [0, 0], ctildes: [-0.7983728690371663]}
    - {mu0: 0, rank: 2, ndensity: 1, num_ms_combs: 1, mus: [0, 1], ns: [4, 5], ls: [0, 0], ms_combs: [0, 0], ctildes: [-0.5355239653795252]}
    - {mu0: 0, rank: 2, ndensity: 1, num_ms_combs: 1, mus: [1, 1], ns: [4, 5], ls: [0, 0], ms_combs: [0, 0], ctildes: [-0.08167380000054436]}
    - {mu0: 0, rank: 2, ndensity: 1, num_ms_combs: 1, mus: [0, 0], ns: [4, 6], ls: [0, 0], ms_combs: [0, 0], ctildes: [-0.8511930412885249]}
    - {mu0: 0, rank: 2, ndensity: 1, num_ms_combs: 1, mus: [0, 1], ns: [4, 6], ls: [0, 0], ms_combs: [0, 0], ctildes: [0.48255108952457704]}
    - {mu0: 0, rank: 2, ndensity: 1, num_ms_combs: 1, mus: [1, 1], ns: [4, 6], ls: [0, 0], ms_combs: [0, 0], ctildes: [-0.11427662435107777]}
    - {mu0: 0, rank: 2, ndensity: 1, num_ms_combs: 1, mus: [0, 1], ns: [5, 1], ls: [0, 0], ms_combs: [0, 0], ctildes: [0.7129810704655029]}
    - {mu0: 0, rank: 2, ndensity: 1, num_ms_combs: 1, mus: [0, 1], ns: [5, 2], ls: [0, 0], ms_combs: [0, 0], ctildes: [0.467780926115438]}
    - {mu0: 0, rank: 2, ndensity: 1, num_ms_combs: 1, mus: [0, 1], ns: [5, 3], ls: [0, 0], ms_combs: [0, 0], ctildes: [0.46452445378236007]}
    - {mu0: 0, rank: 2, ndensity: 1, num_ms_combs: 1, mus: [0, 1], ns: [5, 4], ls: [0, 0], ms_combs: [0, 0], ctildes: [-0.23827748819257977]}
    - {mu0: 0, rank: 2, ndensity: 1, num_ms_combs: 1, mus: [0, 0], ns: [5, 5], ls: [0, 0], ms_combs: [0, 0], ctildes: [0.7363337606800542]}
    - {mu0: 0, rank: 2, ndensity: 1, num_ms_combs: 1, mus: [0, 1], ns: [5, 5], ls: [0, 0], ms_combs: [0, 0], ctildes: [0.9382398506741083]}
    - {mu0: 0, rank: 2, ndensity: 1, num_ms_combs: 1, mus: [1, 1], ns: [5, 5], ls: [0, 0], ms_combs: [0, 0], ctildes: [0.8653031397871587]}
    - {mu0: 0, rank: 2, ndensity: 1, num_ms_combs: 1, mus: [0, 0], ns: [5, 6], ls: [0, 0], ms_combs: [0, 0], ctildes: [0.5668374702427172]}
    - {mu0: 0, rank: 2, ndensity: 1, num_ms_combs: 1, mus: [0, 1], ns: [5, 6], ls: [0, 0], ms_combs: [0, 0], ctildes: [-0.14799122473323223]}
    - {mu0: 0, rank: 2, ndensity: 1, num_ms_combs: 1, mus: [1, 1], ns: [5, 6], ls: [0, 0], ms_combs: [0, 0], ctildes: [-1.4532268512563178]}
    - {mu0: 0, rank: 2, ndensity: 1, num_ms_combs: 1, mus: [0, 1], ns: [6, 1], ls: [0, 0], ms_combs: [0, 0], ctildes: [-0.3194302970014178]}
    - {mu0: 0, rank: 2, ndensity: 1, num_ms_combs: 1, mus: [0, 1], ns: [6, 2], ls: [0, 0], ms_combs: [0, 0], ctildes: [0.9872929626990299]}
    - {mu0: 0, rank: 2, ndensity: 1, num_ms_combs: 1, mus: [0, 1], ns: [6, 3], ls: [0, 0], ms_combs: [0, 0], ctildes: [1.1430778803451176]}
    - {mu0: 0, rank: 2, ndensity: 1, num_ms_combs: 1, mus: [0, 1], ns: [6, 4], ls: [0, 0], ms_combs: [0, 0], ctildes: [-0.892811224812931]}
    - {mu0: 0, rank: 2, ndensity: 1, num_ms_combs: 1, mus: [0, 1], ns: [6, 5], ls: [0, 0], ms_combs: [0, 0], ctildes: [-0.2022757995732718]}
    - {mu0: 0, rank: 2, ndensity: 1, num_ms_combs: 1, mus: [0, 0], ns: [6, 6], ls: [0, 0], ms_combs: [0, 0], ctildes: [-0.019549840561921883]}
    - {mu0: 0, rank: 2, ndensity: 1, num_ms_combs: 1, mus: [0, 1], ns: [6, 6], ls: [0, 0], ms_combs: [0, 0], ctildes: [0.9866807503576638]}
    - {mu0: 0, rank: 2, ndensity: 1, num_ms_combs: 1, mus: [1, 1], ns: [6, 6], ls: [0, 0], ms_combs: [0, 0], ctildes: [1.8781995863146221]}
    - {mu0: 0, rank: 2, ndensity: 1, num_ms_combs: 3, mus: [0, 0], ns: [1, 1], ls: [1, 1], ms_combs: [-1, 1, 0, 0, 1, -1], ctildes: [0.2560008610323211, -0.2560008610323211, 0.2560008610323211]}
    - {mu0: 0, rank: 2, ndensity: 1, num_ms_combs: 3, mus: [0, 1], ns: [1, 1], ls: [1, 1], ms_combs: [-1, 1, 0, 0, 1, -1], ctildes: [0.5046552550406458, -0.5046552550406458, 0.5046552550406458]}
    - {mu0: 0, rank: 2, ndensity: 1, num_ms_combs: 3, mus: [1, 1], ns: [1, 1], ls: [1, 1], ms_combs: [-1, 1, 0, 0, 1, -1], ctildes: [0.5037615367431516, -0.5037615367431516, 0.5037615367431516]}
    - {mu0: 0, rank: 2, ndensity: 1, num_ms_combs: 3, mus: [0, 0], ns: [1, 2], ls: [1, 1], ms_combs: [-1, 1, 0, 0, 1, -1], ctildes: [0.18185463129189125, -0.18185463129189125, 0.18185463129189125]}
    - {mu0: 0, rank: 2, ndensity: 1, num_ms_combs: 3, mus: [0, 1], ns: [1, 2], ls: [1, 1], ms_combs: [-1, 1, 0, 0, 1, -1], ctildes: [-0.24620613145277706, 0.24620613145277706, -0.24620613145277706]}
    - {mu0: 0, rank: 2, ndensity: 1, num_ms_combs: 3, mus: [1, 1], ns: [1, 2], ls: [1, 1], ms_combs: [-1, 1, 0, 0, 1, -1], ctildes: [-1.0259245157332253, 1.0259245157332253, -1.0259245157332253]}
    - {mu0: 0, rank: 2, ndensity: 1, num_ms_combs: 3, mus: [0, 0], ns: [1, 3], ls: [1, 1], ms_combs: [-1, 1, 0, 0, 1, -1], ctildes: [0.4261102725286283, -0.4261102725286283, 0.4261102725286283]}
    - {mu0: 0, rank: 2, ndensity: 1, num_ms_combs: 3, mus: [0, 1], ns: [1, 3], ls: [1, 1], ms_combs: [-1, 1, 0, 0, 1, -1], ctildes: [-0.3431134715283254, 0.3431134715283254, -0.3431134715283254]}
    - {mu0: 0, rank: 2, ndensity: 1, num_ms_combs: 3, mus: [1, 1], ns: [1, 3], ls: [1, 1], ms_combs: [-1, 1, 0, 0, 1, -1], ctildes: [-1.5427592216857007, 1.5427592216857007, -1.5427592216857007]}
    - {mu0: 0, rank: 2, ndensity: 1, num_ms_combs: 3, mus: [0, 0], ns: [1, 4], ls: [1, 1], ms_combs: [-1, 1, 0, 0, 1, -1], ctildes: [-0.10922491280324627, 0.10922491280324627, -0.10922491280324627]}
    - {mu0: 0, rank: 2, ndensity: 1, num_ms_combs: 3, mus: [0, 1], ns: [1, 4], ls: [1, 1], ms_combs: [-1, 1, 0, 0, 1, -1], ctildes: [0.015977333088365096, -0.015977333088365096, 0.015977333088365096]}
    - {mu0: 0, rank: 2, ndensity: 1, num_ms_combs: 3, mus: [1, 1], ns: [1, 4], ls: [1, 1], ms_combs: [-1, 1, 0, 0, 1, -1], ctildes: [0.1875075835174266, -0.1875075835174266, 0.1875075835174266]}
    - {mu0: 0, rank: 2, ndensity: 1, num_ms_combs: 3, mus: [0, 0], ns: [1, 5], ls: [1, 1], ms_combs: [-1, 1, 0, 0, 1, -1], ctildes: [-1.0741978677798387, 1.0741978677798387, -1.0741978677798387]}
    - {mu0: 0, rank: 2, ndensity: 1, num_ms_combs: 3, mus: [0, 1], ns: [1, 5], ls: [1, 1], ms_combs: [-1, 1, 0, 0, 1, -1], ctildes: [0.03544927663886485, -0.03544927663886485, 0.03544927663886485]}
    - {mu0: 0, rank: 2, ndensity: 1, num_ms_combs: 3, mus: [1, 1], ns: [1, 5], ls: [1, 1], ms_combs: [-1, 1, 0, 0, 1, -1], ctildes: [0.4143230293292367, -0.4143230293292367, 0.4143230293292367]}
    - {mu0: 0, rank: 2, ndensity: 1, num_ms_combs: 3, mus: [0, 0], ns: [1, 6], ls: [1, 1], ms_combs: [-1, 1, 0, 0, 1, -1], ctildes: [-0.13089032855968544, 0.13089032855968544, -0.13089032855968544]}
    - {mu0: 0, rank: 2, ndensity: 1, num_ms_combs: 3, mus: [0, 1], ns: [1, 6], ls: [1, 1], ms_combs: [-1, 1, 0, 0, 1, -1], ctildes: [-0.5202666615704126, 0.5202666615704126, -0.5202666615704126]}
    - {mu0: 0, rank: 2, ndensity: 1, num_ms_combs: 3, mus: [1, 1], ns: [1, 6], ls: [1, 1], ms_combs: [-1, 1, 0, 0, 1, -1], ctildes: [-0.11499765650629569, 0.11499765650629569, -0.11499765650629569]}
    - {mu0: 0, rank: 2, ndensity: 1, num_ms_combs: 3, mus: [0, 1], ns: [2, 1], ls: [1, 1], ms_combs: [-1, 1, 0, 0, 1, -1], ctildes: [-0.5295105898802094, 0.5295105898802094, -0.5295105898802094]}
    - {mu0: 0, rank: 2, ndensity: 1, num_ms_combs: 3, mus: [0, 0], ns: [2, 2], ls: [1, 1], ms_combs: [-1, 1, 0, 0, 1, -1], ctildes: [-0.17099793846443542, 0.17099793846443542, -0.17099793846443542]}
    - {mu0: 0, rank: 2, ndensity: 1, num_ms_combs: 3, mus: [0, 1], ns: [2, 2], ls: [1, 1], ms_combs: [-1, 1, 0, 0, 1, -1], ctildes: [-0.05021758070944281, 0.05021758070944281, -0.05021758070944281]}
    - {mu0: 0, rank: 2, ndensity: 1, num_ms_combs: 3, mus: [1, 1], ns: [2, 2], ls: [1, 1], ms_combs: [-1, 1, 0, 0, 1, -1], ctildes: [-0.015423661382012724, 0.015423661382012724, -0.015423661382012724]}
    - {mu0: 0, rank: 2, ndensity: 1, num_ms_combs: 3, mus: [0, 0], ns: [2, 3], ls: [1, 1], ms_combs: [-1, 1, 0, 0, 1, -1], ctildes: [-0.33778743214031115, 0.33778743214031115, -0.33778743214031115]}
    - {mu0: 0, rank: 2, ndensity: 1, num_ms_combs: 3, mus: [0, 1], ns: [2, 3], ls: [1, 1], ms_combs: [-1, 1, 0, 0, 1, -1], ctildes: [-0.14971800496384532, 0.14971800496384532, -0.14971800496384532]}
    - {mu0: 0, rank: 2, ndensity: 1, num_ms_combs: 3, mus: [1, 1], ns: [2, 3], ls: [1, 1], ms_combs: [-1, 1, 0, 0, 1, -1], ctildes: [0.025488858837315418, -0.025488858837315418, 0.025488858837315418]}
    - {mu0: 0, rank: 2, ndensity: 1, num_ms_combs: 3, mus: [0, 0], ns: [2, 4], ls: [1, 1], ms_combs: [-1, 1, 0, 0, 1, -1], ctildes: [-0.2391272818220141, 0.2391272818220141, -0.2391272818220141]}
    - {mu0: 0, rank: 2, ndensity: 1, num_ms_combs: 3, mus: [0, 1], ns: [2, 4], ls: [1, 1], ms_combs: [-1, 1, 0, 0, 1, -1], ctildes: [-0.349357312749146, 0.349357312749146, -0.349357312749146]}
    - {mu0: 0, rank: 2, ndensity: 1, num_ms_combs: 3, mus: [1, 1], ns: [2, 4], ls: [1, 1], ms_combs: [-1, 1, 0, 0, 1, -1], ctildes: [-0.10682478879305198, 0.10682478879305198, -0.10682478879305198]}
    - {mu0: 0, rank: 2, ndensity: 1, num_ms_combs: 3, mus: [0, 0], ns: [2, 5], ls: [1, 1], ms_combs: [-1, 1, 0, 0, 1, -1], ctildes: [-0.0533079241545071, 0.0533079241545071, -0.0533079241545071]}
    - {mu0: 0, rank: 2, ndensity: 1, num_ms_combs: 3, mus: [0, 1], ns: [2, 5], ls: [1, 1], ms_combs: [-1, 1, 0, 0, 1, -1], ctildes: [-0.5631433372676076, 0.5631433372676076, -0.5631433372676076]}
    - {mu0: 0, rank: 2, ndensity: 1, num_ms_combs: 3, mus: [1, 1], ns: [2, 5], ls: [1, 1], ms_combs: [-1, 1, 0, 0, 1, -1], ctildes: [-0.5678981876982202, 0.5678981876982202, -0.5678981876982202]}
    - {mu0: 0, rank: 2, ndensity: 1, num_ms_combs: 3, mus: [0, 0], ns: [2, 6], ls: [1, 1], ms_combs: [-1, 1, 0, 0, 1, -1], ctildes: [-0.27133849717040753, 0.27133849717040753, -0.27133849717040753]}
    - {mu0: 0, rank: 2, ndensity: 1, num_ms_combs: 3, mus: [0, 1], ns: [2, 6], ls: [1, 1], ms_combs: [-1, 1, 0, 0, 1, -1], ctildes: [-0.20605030309122965, 0.20605030309122965, -0.20605030309122965]}
    - {mu0: 0, rank: 2, ndensity: 1, num_ms_combs: 3, mus: [1, 1], ns: [2, 6], ls: [1, 1], ms_combs: [-1, 1, 0, 0, 1, -1], ctildes: [0.050535859976104484, -0.050535859976104484, 0.050535859976104484]}
    - {mu0: 0, rank: 2, ndensity: 1, num_ms_combs: 3, mus: [0, 1], ns: [3, 1], ls: [1, 1], ms_combs: [-1, 1, 0, 0, 1, -1], ctildes: [-0.5578439579338955, 0.5578439579338955, -0.5578439579338955]}
    - {mu0: 0, rank: 2, ndensity: 1, num_ms_combs: 3, mus: [0, 1], ns: [3, 2], ls: [1, 1], ms_combs: [-1, 1, 0, 0, 1, -1], ctildes: [-0.04275385173336612, 0.04275385173336612, -0.04275385173336612]}
    - {mu0: 0, rank: 2, ndensity: 1, num_ms_combs: 3, mus: [0, 0], ns: [3, 3], ls: [1, 1], ms_combs: [-1, 1, 0, 0, 1, -1], ctildes: [-0.5975146927610179, 0.5975146927610179, -0.5975146927610179]}
    - {mu0: 0, rank: 2, ndensity: 1, num_ms_combs: 3, mus: [0, 1], ns: [3, 3], ls: [1, 1], ms_combs: [-1, 1, 0, 0, 1, -1], ctildes: [-0.0019830439136657727, 0.0019830439136657727, -0.0019830439136657727]}
    - {mu0: 0, rank: 2, ndensity: 1, num_ms_combs: 3, mus: [1, 1], ns: [3, 3], ls: [1, 1], ms_combs: [-1, 1, 0, 0, 1, -1], ctildes: [0.34188207838481294, -0.34188207838481294, 0.34188207838481294]}
    - {mu0: 0, rank: 2, ndensity: 1, num_ms_combs: 3, mus: [0, 0], ns: [3, 4], ls: [1, 1], ms_combs: [-1, 1, 0, 0, 1, -1], ctildes: [-0.09085379940848637, 0.09085379940848637, -0.09085379940848637]}
    - {mu0: 0, rank: 2, ndensity: 1, num_ms_combs: 3, mus: [0, 1], ns: [3, 4], ls: [1, 1], ms_combs: [-1, 1, 0, 0, 1, -1], ctildes: [-0.12246547306046678, 0.12246547306046678, -0.12246547306046678]}
    - {mu0: 0, rank: 2, ndensity: 1, num_ms_combs: 3, mus: [1, 1], ns: [3, 4], ls: [1, 1], ms_combs: [-1, 1, 0, 0, 1, -1], ctildes: [0.29674192798351123, -0.29674192798351123, 0.29674192798351123]}
    - {mu0: 0, rank: 2, ndensity: 1, num_ms_combs: 3, mus: [0, 0], ns: [3, 5], ls: [1, 1], ms_combs: [-1, 1, 0, 0, 1, -1], ctildes: [0.20095795863770788, -0.20095795863770788, 0.20095795863770788]}
    - {mu0: 0, rank: 2, ndensity: 1, num_ms_combs: 3, mus: [0, 1], ns: [3, 5], ls: [1, 1], ms_combs: [-1, 1, 0, 0, 1, -1], ctildes: [-0.499823299941581, 0.499823299941581, -0.499823299941581]}
    - {mu0: 0, rank: 2, ndensity: 1, num_ms_combs: 3, mus: [1, 1], ns: [3, 5], ls: [1, 1], ms_combs: [-1, 1, 0, 0, 1, -1], ctildes: [-0.787016713061334, 0.787016713061334, -0.787016713061334]}
    - {mu0: 0, rank: 2, ndensity: 1, num_ms_combs: 3, mus: [0, 0], ns: [3, 6], ls: [1, 1], ms_combs: [-1, 1, 0, 0, 1, -1], ctildes: [-0.2877538737796225, 0.2877538737796225, -0.2877538737796225]}
    - {mu0: 0, rank: 2, ndensity: 1, num_ms_combs: 3, mus: [0, 1], ns: [3, 6], ls: [1, 1], ms_combs: [-1, 1, 0, 0, 1, -1], ctildes: [0.16799584827315941, -0.16799584827315941, 0.16799584827315941]}
    - {mu0: 0, rank: 2, ndensity: 1, num_ms_combs: 3, mus: [1, 1], ns: [3, 6], ls: [1, 1], ms_combs: [-1, 1, 0, 0, 1, -1], ctildes: [0.3913836434592264, -0.3913836434592264, 0.3913836434592264]}
    - {mu0: 0, rank: 2, ndensity: 1, num_ms_combs: 3, mus: [0, 1], ns: [4, 1], ls: [1, 1], ms_combs: [-1, 1, 0, 0, 1, -1], ctildes: [0.23235884096444823, -0.23235884096444823, 0.23235884096444823]}
    - {mu0: 0, rank: 2, ndensity: 1, num_ms_combs: 3, mus: [0, 1], ns: [4, 2], ls: [1, 1], ms_combs: [-1, 1, 0, 0, 1, -1], ctildes: [0.06572036446792835, -0.06572036446792835, 0.06572036446792835]}
    - {mu0: 0, rank: 2, ndensity: 1, num_ms_combs: 3, mus: [0, 1], ns: [4, 3], ls: [1, 1], ms_combs: [-1, 1, 0, 0, 1, -1], ctildes: [0.4097576897374733, -0.4097576897374733, 0.4097576897374733]}
    - {mu0: 0, rank: 2, ndensity: 1, num_ms_combs: 3, mus: [0, 0], ns: [4, 4], ls: [1, 1], ms_combs: [-1, 1, 0, 0, 1, -1], ctildes: [0.5702991103084576, -0.5702991103084576, 0.5702991103084576]}
    - {mu0: 0, rank: 2, ndensity: 1, num_ms_combs: 3, mus: [0, 1], ns: [4, 4], ls: [1, 1], ms_combs: [-1, 1, 0, 0, 1, -1], ctildes: [0.7548314314631127, -0.7548314314631127, 0.7548314314631127]}
    - {mu0: 0, rank: 2, ndensity: 1, num_ms_combs: 3, mus: [1, 1], ns: [4, 4], ls: [1, 1], ms_combs: [-1, 1, 0, 0, 1, -1], ctildes: [0.8137793654742805, -0.8137793654742805, 0.8137793654742805]}
    - {mu0: 0, rank: 2, ndensity: 1, num_ms_combs: 3, mus: [0, 0], ns: [4, 5], ls: [1, 1], ms_combs: [-1, 1, 0, 0, 1, -1], ctildes: [0.3584125880115976, -0.3584125880115976, 0.3584125880115976]}
    - {mu0: 0, rank: 2, ndensity: 1, num_ms_combs: 3, mus: [0, 1], ns: [4, 5], ls: [1, 1], ms_combs: [-1, 1, 0, 0, 1, -1], ctildes: [0.49795911765676715, -0.49795911765676715, 0.49795911765676715]}
    - {mu0: 0, rank: 2, ndensity: 1, num_ms_combs: 3, mus: [1, 1], ns: [4, 5], ls: [1, 1], ms_combs: [-1, 1, 0, 0, 1, -1], ctildes: [-0.10926901449471144, 0.10926901449471144, -0.10926901449471144]}
    - {mu0: 0, rank: 2, ndensity: 1, num_ms_combs: 3, mus: [0, 0], ns: [4, 6], ls: [1, 1], ms_combs: [-1, 1, 0, 0, 1, -1], ctildes: [0.38833849352101735, -0.38833849352101735, 0.38833849352101735]}
    - {mu0: 0, rank: 2, ndensity: 1, num_ms_combs: 3, mus: [0, 1], ns: [4, 6], ls: [1, 1], ms_combs: [-1, 1, 0, 0, 1, -1], ctildes: [0.9131479165513627, -0.9131479165513627, 0.9131479165513627]}
    - {mu0: 0, rank: 2, ndensity: 1, num_ms_combs: 3, mus: [1, 1], ns: [4, 6], ls: [1, 1], ms_combs: [-1, 1, 0, 0, 1, -1], ctildes: [0.36164376910571133, -0.36164376910571133, 0.36164376910571133]}
    - {mu0: 0, rank: 2, ndensity: 1, num_ms_combs: 3, mus: [0, 1], ns: [5, 1], ls: [1, 1], ms_combs: [-1, 1, 0, 0, 1, -1], ctildes: [-0.6402054849160018, 0.6402054849160018, -0.6402054849160018]}
    - {mu0: 0, rank: 2, ndensity: 1, num_ms_combs: 3, mus: [0, 1], ns: [5, 2], ls: [1, 1], ms_combs: [-1, 1, 0, 0, 1, -1], ctildes: [-0.05910703210505941, 0.05910703210505941, -0.05910703210505941]}
    - {mu0: 0, rank: 2, ndensity: 1, num_ms_combs: 3, mus: [0, 1], ns: [5, 3], ls: [1, 1], ms_combs: [-1, 1, 0, 0, 1, -1], ctildes: [-0.12689165992456067, 0.12689165992456067, -0.12689165992456067]}
    - {mu0: 0, rank: 2, ndensity: 1, num_ms_combs: 3, mus: [0, 1], ns: [5, 4], ls: [1, 1], ms_combs: [-1, 1, 0, 0, 1, -1], ctildes: [-0.2377828655804986, 0.2377828655804986, -0.2377828655804986]}
    - {mu0: 0, rank: 2, ndensity: 1, num_ms_combs: 3, mus: [0, 0], ns: [5, 5], ls: [1, 1], ms_combs: [-1, 1, 0, 0, 1, -1], ctildes: [-0.6173397979975161, 0.6173397979975161, -0.6173397979975161]}
    - {mu0: 0, rank: 2, ndensity: 1, num_ms_combs: 3, mus: [0, 1], ns: [5, 5], ls: [1, 1], ms_combs: [-1, 1, 0, 0, 1, -1], ctildes: [-0.5732966520881091, 0.5732966520881091, -0.5732966520881091]}
    - {mu0: 0, rank: 2, ndensity: 1, num_ms_combs: 3, mus: [1, 1], ns: [5, 5], ls: [1, 1], ms_combs: [-1, 1, 0, 0, 1, -1], ctildes: [-0.7364504755247904, 0.7364504755247904, -0.7364504755247904]}
    - {mu0: 0, rank: 2, ndensity: 1, num_ms_combs: 3, mus: [0, 0], ns: [5, 6], ls: [1, 1], ms_combs: [-1, 1, 0, 0, 1, -1], ctildes: [0.3483259764016872, -0.3483259764016872, 0.3483259764016872]}
    - {mu0: 0, rank: 2, ndensity: 1, num_ms_combs: 3, mus: [0, 1], ns: [5, 6], ls: [1, 1], ms_combs: [-1, 1, 0, 0, 1, -1], ctildes: [-0.08070449998151957, 0.08070449998151957, -0.08070449998151957]}
    - {mu0: 0, rank: 2, ndensity: 1, num_ms_combs: 3, mus: [1, 1], ns: [5, 6], ls: [1, 1], ms_combs: [-1, 1, 0, 0, 1, -1], ctildes: [-0.6921105824033754, 0.6921105824033754, -0.6921105824033754]}
    - {mu0: 0, rank: 2, ndensity: 1, num_ms_combs: 3, mus: [0, 1], ns: [6, 1], ls: [1, 1], ms_combs: [-1, 1, 0, 0, 1, -1], ctildes: [0.421037090804218, -0.421037090804218, 0.421037090804218]}
    - {mu0: 0, rank: 2, ndensity: 1, num_ms_combs: 3, mus: [0, 1], ns: [6, 2], ls: [1, 1], ms_combs: [-1, 1, 0, 0, 1, -1], ctildes: [0.008261795311221972, -0.008261795311221972, 0.008261795311221972]}
    - {mu0: 0, rank: 2, ndensity: 1, num_ms_combs: 3, mus: [0, 1], ns: [6, 3], ls: [1, 1], ms_combs: [-1, 1, 0, 0, 1, -1], ctildes: [0.04793664597579732, -0.04793664597579732, 0.04793664597579732]}
    - {mu0: 0, rank: 2, ndensity: 1, num_ms_combs: 3, mus: [0, 1], ns: [6, 4], ls: [1, 1], ms_combs: [-1, 1, 0, 0, 1, -1], ctildes: [-0.05501838488677996, 0.05501838488677996, -0.05501838488677996]}
    - {mu0: 0, rank: 2, ndensity: 1, num_ms_combs: 3, mus: [0, 1], ns: [6, 5], ls: [1, 1], ms_combs: [-1, 1, 0, 0, 1, -1], ctildes: [0.012796619365449045, -0.012796619365449045, 0.012796619365449045]}
    - {mu0: 0, rank: 2, ndensity: 1, num_ms_combs: 3, mus: [0, 0], ns: [6, 6], ls: [1, 1], ms_combs: [-1, 1, 0, 0, 1, -1], ctildes: [-0.011294287759643914, 0.011294287759643914, -0.011294287759643914]}
    - {mu0: 0, rank: 2, ndensity: 1, num_ms_combs: 3, mus: [0, 1], ns: [6, 6], ls: [1, 1], ms_combs: [-1, 1, 0, 0, 1, -1], ctildes: [0.3559828020515921, -0.3559828020515921, 0.3559828020515921]}
    - {mu0: 0, rank: 2, ndensity: 1, num_ms_combs: 3, mus: [1, 1], ns: [6, 6], ls: [1, 1], ms_combs: [-1, 1, 0, 0, 1, -1], ctildes: [0.45350047786414904, -0.45350047786414904, 0.45350047786414904]}
    - {mu0: 0, rank: 2, ndensity: 1, num_ms_combs: 5, mus: [0, 0], ns: [1, 1], ls: [2, 2], ms_combs: [-2, 2, -1, 1, 0, 0, 1, -1, 2, -2], ctildes: [-0.2322672988755786, 0.2322672988755786, -0.2322672988755786, 0.2322672988755786, -0.2322672988755786]}
    - {mu0: 0, rank: 2, ndensity: 1, num_ms_combs: 5, mus: [0, 1], ns: [1, 1], ls: [2, 2], ms_combs: [-2, 2, -1, 1, 0, 0, 1, -1, 2, -2], ctildes: [-0.1284227882834523, 0.1284227882834523, -0.1284227882834523, 0.1284227882834523, -0.1284227882834523]}
    - {mu0: 0, rank: 2, ndensity: 1, num_ms_combs: 5, mus: [1, 1], ns: [1, 1], ls: [2, 2], ms_combs: [-2, 2, -1, 1, 0, 0, 1, -1, 2, -2], ctildes: [0.3858910288077621, -0.3858910288077621, 0.3858910288077621, -0.3858910288077621, 0.3858910288077621]}
    - {mu0: 0, rank: 2, ndensity: 1, num_ms_combs: 5, mus: [0, 0], ns: [1, 2], ls: [2, 2], ms_combs: [-2, 2, -1, 1, 0, 0, 1, -1, 2, -2], ctildes: [-0.03204800276583116, 0.03204800276583116, -0.03204800276583116, 0.03204800276583116, -0.03204800276583116]}
    - {mu0: 0, rank: 2, ndensity: 1, num_ms_combs: 5, mus: [0, 1], ns: [1, 2], ls: [2, 2], ms_combs: [-2, 2, -1, 1, 0, 0, 1, -1, 2, -2], ctildes: [-0.5002252376311692, 0.5002252376311692, -0.5002252376311692, 0.5002252376311692, -0.5002252376311692]}
    - {mu0: 0, rank: 2, ndensity: 1, num_ms_combs: 5, mus: [1, 1], ns: [1, 2], ls: [2, 2], ms_combs: [-2, 2, -1, 1, 0, 0, 1, -1, 2, -2], ctildes: [-0.18756093551058445, 0.18756093551058445, -0.18756093551058445, 0.18756093551058445, -0.18756093551058445]}
    - {mu0: 0, rank: 2, ndensity: 1, num_ms_combs: 5, mus: [0, 0], ns: [1, 3], ls: [2, 2], ms_combs: [-2, 2, -1, 1, 0, 0, 1, -1, 2, -2], ctildes: [0.16275030775353402, -0.16275030775353402, 0.16275030775353402, -0.16275030775353402, 0.16275030775353402]}
    - {mu0: 0, rank: 2, ndensity: 1, num_ms_combs: 5, mus: [0, 1], ns: [1, 3], ls: [2, 2], ms_combs: [-2, 2, -1, 1, 0, 0, 1, -1, 2, -2], ctildes: [-0.7538716865670102, 0.7538716865670102, -0.7538716865670102, 0.7538716865670102, -0.7538716865670102]}
    - {mu0: 0, rank: 2, ndensity: 1, num_ms_combs: 5, mus: [1, 1], ns: [1, 3], ls: [2, 2], ms_combs: [-2, 2, -1, 1, 0, 0, 1, -1, 2, -2], ctildes: [-0.36692751799433115, 0.36692751799433115, -0.36692751799433115, 0.36692751799433115, -0.36692751799433115]}
    - {mu0: 0, rank: 2, ndensity: 1, num_ms_combs: 5, mus: [0, 0], ns: [1, 4], ls: [2, 2], ms_combs: [-2, 2, -1, 1, 0, 0, 1, -1, 2, -2], ctildes: [0.23121040534348297, -0.23121040534348297, 0.23121040534348297, -0.23121040534348297, 0.23121040534348297]}
    - {mu0: 0, rank: 2, ndensity: 1, num_ms_combs: 5, mus: [0, 1], ns: [1, 4], ls: [2, 2], ms_combs: [-2, 2, -1, 1, 0, 0, 1, -1, 2, -2], ctildes: [0.10711005714656972, -0.10711005714656972, 0.10711005714656972, -0.10711005714656972, 0.10711005714656972]}
    - {mu0: 0, rank: 2, ndensity: 1, num_ms_combs: 5, mus: [1, 1], ns: [1, 4], ls: [2, 2], ms_combs: [-2, 2, -1, 1, 0, 0, 1, -1, 2, -2], ctildes: [-0.0707681626062477, 0.0707681626062477, -0.0707681626062477, 0.0707681626062477, -0.0707681626062477]}
    - {mu0: 0, rank: 2, ndensity: 1, num_ms_combs: 5, mus: [0, 0], ns: [1, 5], ls: [2, 2], ms_combs: [-2, 2, -1, 1, 0, 0, 1, -1, 2, -2], ctildes: [-0.26977831569965044, 0.26977831569965044, -0.26977831569965044, 0.26977831569965044, -0.26977831569965044]}
    - {mu0: 0, rank: 2, ndensity: 1, num_ms_combs: 5, mus: [0, 1], ns: [1, 5], ls: [2, 2], ms_combs: [-2, 2, -1, 1, 0, 0, 1, -1, 2, -2], ctildes: [0.6627942428619259, -0.6627942428619259, 0.6627942428619259, -0.6627942428619259, 0.6627942428619259]}
    - {mu0: 0, rank: 2, ndensity: 1, num_ms_combs: 5, mus: [1, 1], ns: [1, 5], ls: [2, 2], ms_combs: [-2, 2, -1, 1, 0, 0, 1, -1, 2, -2], ctildes: [0.2936391784941679, -0.2936391784941679, 0.2936391784941679, -0.2936391784941679, 0.2936391784941679]}
    - {mu0: 0, rank: 2, ndensity: 1, num_ms_combs: 5, mus: [0, 0], ns: [1, 6], ls: [2, 2], ms_combs: [-2, 2, -1, 1, 0, 0, 1, -1, 2, -2], ctildes: [0.38010436742158277, -0.38010436742158277, 0.38010436742158277, -0.38010436742158277, 0.38010436742158277]}
    - {mu0: 0, rank: 2, ndensity: 1, num_ms_combs: 5, mus: [0, 1], ns: [1, 6], ls: [2, 2], ms_combs: [-2, 2, -1, 1, 0, 0, 1, -1, 2, -2], ctildes: [-0.6008066616505393, 0.6008066616505393, -0.6008066616505393, 0.6008066616505393, -0.6008066616505393]}
    - {mu0: 0, rank: 2, ndensity: 1, num_ms_combs: 5, mus: [1, 1], ns: [1, 6], ls: [2, 2], ms_combs: [-2, 2, -1, 1, 0, 0, 1, -1, 2, -2], ctildes: [-0.21238006120747613, 0.21238006120747613, -0.21238006120747613, 0.21238006120747613, -0.21238006120747613]}
    - {mu0: 0, rank: 2, ndensity: 1, num_ms_combs: 5, mus: [0, 1], ns: [2, 1], ls: [2, 2], ms_combs: [-2, 2, -1, 1, 0, 0, 1, -1, 2, -2], ctildes: [0.13134458059609946, -0.13134458059609946, 0.13134458059609946, -0.13134458059609946, 0.13134458059609946]}
    - {mu0: 0, rank: 2, ndensity: 1, num_ms_combs: 5, mus: [0, 0], ns: [2, 2], ls: [2, 2], ms_combs: [-2, 2, -1, 1, 0, 0, 1, -1, 2, -2], ctildes: [-0.008696483574779956, 0.008696483574779956, -0.008696483574779956, 0.008696483574779956, -0.008696483574779956]}
    - {mu0: 0, rank: 2, ndensity: 1, num_ms_combs: 5, mus: [0, 1], ns: [2, 2], ls: [2, 2], ms_combs: [-2, 2, -1, 1, 0, 0, 1, -1, 2, -2], ctildes: [0.036181227577274176, -0.036181227577274176, 0.036181227577274176, -0.036181227577274176, 0.036181227577274176]}
    - {mu0: 0, rank: 2, ndensity: 1, num_ms_combs: 5, mus: [1, 1], ns: [2, 2], ls: [2, 2], ms_combs: [-2, 2, -1, 1, 0, 0, 1, -1, 2, -2], ctildes: [0.10790367778652073, -0.10790367778652073, 0.10790367778652073, -0.10790367778652073, 0.10790367778652073]}
    - {mu0: 0, rank: 2, ndensity: 1, num_ms_combs: 5, mus: [0, 0], ns: [2, 3], ls: [2, 2], ms_combs: [-2, 2, -1, 1, 0, 0, 1, -1, 2, -2], ctildes: [-0.10875435553550764, 0.10875435553550764, -0.10875435553550764, 0.10875435553550764, -0.10875435553550764]}
    - {mu0: 0, rank: 2, ndensity: 1, num_ms_combs: 5, mus: [0, 1], ns: [2, 3], ls: [2, 2], ms_combs: [-2, 2, -1, 1, 0, 0, 1, -1, 2, -2], ctildes: [-0.1314304199064676, 0.1314304199064676, -0.1314304199064676, 0.1314304199064676, -0.1314304199064676]}
    - {mu0: 0, rank: 2, ndensity: 1, num_ms_combs: 5, mus: [1, 1], ns: [2, 3], ls: [2, 2], ms_combs: [-2, 2, -1, 1, 0, 0, 1, -1, 2, -2], ctildes: [0.09313211478477317, -0.09313211478477317, 0.09313211478477317, -0.09313211478477317, 0.09313211478477317]}
    - {mu0: 0, rank: 2, ndensity: 1, num_ms_combs: 5, mus: [0, 0], ns: [2, 4], ls: [2, 2], ms_combs: [-2, 2, -1, 1, 0, 0, 1, -1, 2, -2], ctildes: [-0.26695561947682983, 0.26695561947682983, -0.26695561947682983, 0.26695561947682983, -0.26695561947682983]}
    - {mu0: 0, rank: 2, ndensity: 1, num_ms_combs: 5, mus: [0, 1], ns: [2, 4], ls: [2, 2], ms_combs: [-2, 2, -1, 1, 0, 0, 1, -1, 2, -2], ctildes: [-0.5095377191785574, 0.5095377191785574, -0.5095377191785574, 0.5095377191785574, -0.5095377191785574]}
    - {mu0: 0, rank: 2, ndensity: 1, num_ms_combs: 5, mus: [1, 1], ns: [2, 4], ls: [2, 2], ms_combs: [-2, 2, -1, 1, 0, 0, 1, -1, 2, -2], ctildes: [-0.1522001045034896, 0.1522001045034896, -0.1522001045034896, 0.1522001045034896, -0.1522001045034896]}
    - {mu0: 0, rank: 2, ndensity: 1, num_ms_combs: 5, mus: [0, 0], ns: [2, 5], ls: [2, 2], ms_combs: [-2, 2, -1, 1, 0, 0, 1, -1, 2, -2], ctildes: [-0.25989221577818444, 0.25989221577818444, -0.25989221577818444, 0.25989221577818444, -0.25989221577818444]}
    - {mu0: 0, rank: 2, ndensity: 1, num_ms_combs: 5, mus: [0, 1], ns: [2, 5], ls: [2, 2], ms_combs: [-2, 2, -1, 1, 0, 0, 1, -1, 2, -2], ctildes: [-0.29595603310497537, 0.29595603310497537, -0.29595603310497537, 0.29595603310497537, -0.29595603310497537]}
    - {mu0: 0, rank: 2, ndensity: 1, num_ms_combs: 5, mus: [1, 1], ns: [2, 5], ls: [2, 2], ms_combs: [-2, 2, -1, 1, 0, 0, 1, -1, 2, -2], ctildes: [-0.060758750863718854, 0.060758750863718854, -0.060758750863718854, 0.060758750863718854, -0.060758750863718854]}
    - {mu0: 0, rank: 2, ndensity: 1, num_ms_combs: 5, mus: [0, 0], ns: [2, 6], ls: [2, 2], ms_combs: [-2, 2, -1, 1, 0, 0, 1, -1, 2, -2], ctildes: [-0.3405373137113545, 0.3405373137113545, -0.3405373137113545, 0.3405373137113545, -0.3405373137113545]}
    - {mu0: 0, rank: 2, ndensity: 1, num_ms_combs: 5, mus: [0, 1], ns: [2, 6], ls: [2, 2], ms_combs: [-2, 2, -1, 1, 0, 0, 1, -1, 2, -2], ctildes: [0.218068511672046, -0.218068511672046, 0.218068511672046, -0.218068511672046, 0.218068511672046]}
    - {mu0: 0, rank: 2, ndensity: 1, num_ms_combs: 5, mus: [1, 1], ns: [2, 6], ls: [2, 2], ms_combs: [-2, 2, -1, 1, 0, 0, 1, -1, 2, -2], ctildes: [0.16229249369402327, -0.16229249369402327, 0.16229249369402327, -0.16229249369402327, 0.16229249369402327]}
    - {mu0: 0, rank: 2, ndensity: 1, num_ms_combs: 5, mus: [0, 1], ns: [3, 1], ls: [2, 2], ms_combs: [-2, 2, -1, 1, 0, 0, 1, -1, 2, -2], ctildes: [0.2691998952831568, -0.2691998952831568, 0.2691998952831568, -0.2691998952831568, 0.2691998952831568]}
    - {mu0: 0, rank: 2, ndensity: 1, num_ms_combs: 5, mus: [0, 1], ns: [3, 2], ls: [2, 2], ms_combs: [-2, 2, -1, 1, 0, 0, 1, -1, 2, -2], ctildes: [0.10785601386724053, -0.10785601386724053, 0.10785601386724053, -0.10785601386724053, 0.10785601386724053]}
    - {mu0: 0, rank: 2, ndensity: 1, num_ms_combs: 5, mus: [0, 0], ns: [3, 3], ls: [2, 2], ms_combs: [-2, 2, -1, 1, 0, 0, 1, -1, 2, -2], ctildes: [-0.2477622888428881, 0.2477622888428881, -0.2477622888428881, 0.2477622888428881, -0.2477622888428881]}
    - {mu0: 0, rank: 2, ndensity: 1, num_ms_combs: 5, mus: [0, 1], ns: [3, 3], ls: [2, 2], ms_combs: [-2, 2, -1, 1, 0, 0, 1, -1, 2, -2], ctildes: [-0.03946420414056463, 0.03946420414056463, -0.03946420414056463, 0.03946420414056463, -0.03946420414056463]}
    - {mu0: 0, rank: 2, ndensity: 1, num_ms_combs: 5, mus: [1, 1], ns: [3, 3], ls: [2, 2], ms_combs: [-2, 2, -1, 1, 0, 0, 1, -1, 2, -2], ctildes: [0.11859551107568435, -0.11859551107568435, 0.11859551107568435, -0.11859551107568435, 0.11859551107568435]}
    - {mu0: 0, rank: 2, ndensity: 1, num_ms_combs: 5, mus: [0, 0], ns: [3, 4], ls: [2, 2], ms_combs: [-2, 2, -1, 1, 0, 0, 1, -1, 2, -2], ctildes: [-0.1946527081132065, 0.1946527081132065, -0.1946527081132065, 0.1946527081132065, -0.1946527081132065]}
    - {mu0: 0, rank: 2, ndensity: 1, num_ms_combs: 5, mus: [0, 1], ns: [3, 4], ls: [2, 2], ms_combs: [-2, 2, -1, 1, 0, 0, 1, -1, 2, -2], ctildes: [-0.54153664331085, 0.54153664331085, -0.54153664331085, 0.54153664331085, -0.54153664331085]}
    - {mu0: 0, rank: 2, ndensity: 1, num_ms_combs: 5, mus: [1, 1], ns: [3, 4], ls: [2, 2], ms_combs: [-2, 2, -1, 1, 0, 0, 1, -1, 2, -2], ctildes: [-0.11033316256276093, 0.11033316256276093, -0.11033316256276093, 0.11033316256276093, -0.11033316256276093]}
    - {mu0: 0, rank: 2, ndensity: 1, num_ms_combs: 5, mus: [0, 0], ns: [3, 5], ls: [2, 2], ms_combs: [-2, 2, -1, 1, 0, 0, 1, -1, 2, -2], ctildes: [-0.005695170197659014, 0.005695170197659014, -0.005695170197659014, 0.005695170197659014, -0.005695170197659014]}
    - {mu0: 0, rank: 2, ndensity: 1, num_ms_combs: 5, mus: [0, 1], ns: [3, 5], ls: [2, 2], ms_combs: [-2, 2, -1, 1, 0, 0, 1, -1, 2, -2], ctildes: [-0.17546354247550563, 0.17546354247550563, -0.17546354247550563, 0.17546354247550563, -0.17546354247550563]}
    - {mu0: 0, rank: 2, ndensity: 1, num_ms_combs: 5, mus: [1, 1], ns: [3, 5], ls: [2, 2], ms_combs: [-2, 2, -1, 1, 0, 0, 1, -1, 2, -2], ctildes: [-0.043470196156832674, 0.043470196156832674, -0.043470196156832674, 0.043470196156832674, -0.043470196156832674]}
    - {mu0: 0, rank: 2, ndensity: 1, num_ms_combs: 5, mus: [0, 0], ns: [3, 6], ls: [2, 2], ms_combs: [-2, 2, -1, 1, 0, 0, 1, -1, 2, -2], ctildes: [-0.1860406835907659, 0.1860406835907659, -0.1860406835907659, 0.1860406835907659, -0.1860406835907659]}
    - {mu0: 0, rank: 2, ndensity: 1, num_ms_combs: 5, mus: [0, 1], ns: [3, 6], ls: [2, 2], ms_combs: [-2, 2, -1, 1, 0, 0, 1, -1, 2, -2], ctildes: [0.09303100161343221, -0.09303100161343221, 0.09303100161343221, -0.09303100161343221, 0.09303100161343221]}
    - {mu0: 0, rank: 2, ndensity: 1, num_ms_combs: 5, mus: [1, 1], ns: [3, 6], ls: [2, 2], ms_combs: [-2, 2, -1, 1, 0, 0, 1, -1, 2, -2], ctildes: [0.0877690476997551, -0.0877690476997551, 0.0877690476997551, -0.0877690476997551, 0.0877690476997551]}
    - {mu0: 0, rank: 2, ndensity: 1, num_ms_combs: 5, mus: [0, 1], ns: [4, 1], ls: [2, 2], ms_combs: [-2, 2, -1, 1, 0, 0, 1, -1, 2, -2], ctildes: [-0.0090738391374707, 0.0090738391374707, -0.0090738391374707, 0.0090738391374707, -0.0090738391374707]}
    - {mu0: 0, rank: 2, ndensity: 1, num_ms_combs: 5, mus: [0, 1], ns: [4, 2], ls: [2, 2], ms_combs: [-2, 2, -1, 1, 0, 0, 1, -1, 2, -2], ctildes: [0.15522918236231079, -0.15522918236231079, 0.15522918236231079, -0.15522918236231079, 0.15522918236231079]}
    - {mu0: 0, rank: 2, ndensity: 1, num_ms_combs: 5, mus: [0, 1], ns: [4, 3], ls: [2, 2], ms_combs: [-2, 2, -1, 1, 0, 0, 1, -1, 2, -2], ctildes: [0.44396755207004807, -0.44396755207004807, 0.44396755207004807, -0.44396755207004807, 0.44396755207004807]}
    - {mu0: 0, rank: 2, ndensity: 1, num_ms_combs: 5, mus: [0, 0], ns: [4, 4], ls: [2, 2], ms_combs: [-2, 2, -1, 1, 0, 0, 1, -1, 2, -2], ctildes: [0.47401891533512275, -0.47401891533512275, 0.47401891533512275, -0.47401891533512275, 0.47401891533512275]}
    - {mu0: 0, rank: 2, ndensity: 1, num_ms_combs: 5, mus: [0, 1], ns: [4, 4], ls: [2, 2], ms_combs: [-2, 2, -1, 1, 0, 0, 1, -1, 2, -2], ctildes: [0.49842457773988386, -0.49842457773988386, 0.49842457773988386, -0.49842457773988386, 0.49842457773988386]}
    - {mu0: 0, rank: 2, ndensity: 1, num_ms_combs: 5, mus: [1, 1], ns: [4, 4], ls: [2, 2], ms_combs: [-2, 2, -1, 1, 0, 0, 1, -1, 2, -2], ctildes: [0.15677932689706006, -0.15677932689706006, 0.15677932689706006, -0.15677932689706006, 0.15677932689706006]}
    - {mu0: 0, rank: 2, ndensity: 1, num_ms_combs: 5, mus: [0, 0], ns: [4, 5], ls: [2, 2], ms_combs: [-2, 2, -1, 1, 0, 0, 1, -1, 2, -2], ctildes: [0.4430178449737061, -0.4430178449737061, 0.4430178449737061, -0.4430178449737061, 0.4430178449737061]}
    - {mu0: 0, rank: 2, ndensity: 1, num_ms_combs: 5, mus: [0, 1], ns: [4, 5], ls: [2, 2], ms_combs: [-2, 2, -1, 1, 0, 0, 1, -1, 2, -2], ctildes: [0.39039004553480583, -0.39039004553480583, 0.39039004553480583, -0.39039004553480583, 0.39039004553480583]}
    - {mu0: 0, rank: 2, ndensity: 1, num_ms_combs: 5, mus: [1, 1], ns: [4, 5], ls: [2, 2], ms_combs: [-2, 2, -1, 1, 0, 0, 1, -1, 2, -2], ctildes: [-0.031620772276875486, 0.031620772276875486, -0.031620772276875486, 0.031620772276875486, -0.031620772276875486]}
    - {mu0: 0, rank: 2, ndensity: 1, num_ms_combs: 5, mus: [0, 0], ns: [4, 6], ls: [2, 2], ms_combs: [-2, 2, -1, 1, 0, 0, 1, -1, 2, -2], ctildes: [0.5535162952331071, -0.5535162952331071, 0.5535162952331071, -0.5535162952331071, 0.5535162952331071]}
    - {mu0: 0, rank: 2, ndensity: 1, num_ms_combs: 5, mus: [0, 1], ns: [4, 6], ls: [2, 2], ms_combs: [-2, 2, -1, 1, 0, 0, 1, -1, 2, -2], ctildes: [-0.18855142897807525, 0.18855142897807525, -0.18855142897807525, 0.18855142897807525, -0.18855142897807525]}
    - {mu0: 0, rank: 2, ndensity: 1, num_ms_combs: 5, mus: [1, 1], ns: [4, 6], ls: [2, 2], ms_combs: [-2, 2, -1, 1, 0, 0, 1, -1, 2, -2], ctildes: [-0.08581971625883464, 0.08581971625883464, -0.08581971625883464, 0.08581971625883464, -0.08581971625883464]}
    - {mu0: 0, rank: 2, ndensity: 1, num_ms_combs: 5, mus: [0, 1], ns: [5, 1], ls: [2, 2], ms_combs: [-2, 2, -1, 1, 0, 0, 1, -1, 2, -2], ctildes: [-0.49065824884435416, 0.49065824884435416, -0.49065824884435416, 0.49065824884435416, -0.49065824884435416]}
    - {mu0: 0, rank: 2, ndensity: 1, num_ms_combs: 5, mus: [0, 1], ns: [5, 2], ls: [2, 2], ms_combs: [-2, 2, -1, 1, 0, 0, 1, -1, 2, -2], ctildes: [0.02988955326414221, -0.02988955326414221, 0.02988955326414221, -0.02988955326414221, 0.02988955326414221]}
    - {mu0: 0, rank: 2, ndensity: 1, num_ms_combs: 5, mus: [0, 1], ns: [5, 3], ls: [2, 2], ms_combs: [-2, 2, -1, 1, 0, 0, 1, -1, 2, -2], ctildes: [0.2834379617691001, -0.2834379617691001, 0.2834379617691001, -0.2834379617691001, 0.2834379617691001]}
    - {mu0: 0, rank: 2, ndensity: 1, num_ms_combs: 5, mus: [0, 1], ns: [5, 4], ls: [2, 2], ms_combs: [-2, 2, -1, 1, 0, 0, 1, -1, 2, -2], ctildes: [0.16642778381130469, -0.16642778381130469, 0.16642778381130469, -0.16642778381130469, 0.16642778381130469]}
    - {mu0: 0, rank: 2, ndensity: 1, num_ms_combs: 5, mus: [0, 0], ns: [5, 5], ls: [2, 2], ms_combs: [-2, 2, -1, 1, 0, 0, 1, -1, 2, -2], ctildes: [-0.831424964629721, 0.831424964629721, -0.831424964629721, 0.831424964629721, -0.831424964629721]}
    - {mu0: 0, rank: 2, ndensity: 1, num_ms_combs: 5, mus: [0, 1], ns: [5, 5], ls: [2, 2], ms_combs: [-2, 2, -1, 1, 0, 0, 1, -1, 2, -2], ctildes: [-0.5144737087954906, 0.5144737087954906, -0.5144737087954906, 0.5144737087954906, -0.5144737087954906]}
    - {mu0: 0, rank: 2, ndensity: 1, num_ms_combs: 5, mus: [1, 1], ns: [5, 5], ls: [2, 2], ms_combs: [-2, 2, -1, 1, 0, 0, 1, -1, 2, -2], ctildes: [-0.25712426459286136, 0.25712426459286136, -0.25712426459286136, 0.25712426459286136, -0.25712426459286136]}
    - {mu0: 0, rank: 2, ndensity: 1, num_ms_combs: 5, mus: [0, 0], ns: [5, 6], ls: [2, 2], ms_combs: [-2, 2, -1, 1, 0, 0, 1, -1, 2, -2], ctildes: [0.037338037757134464, -0.037338037757134464, 0.037338037757134464, -0.037338037757134464, 0.037338037757134464]}
    - {mu0: 0, rank: 2, ndensity: 1, num_ms_combs: 5, mus: [0, 1], ns: [5, 6], ls: [2, 2], ms_combs: [-2, 2, -1, 1, 0, 0, 1, -1, 2, -2], ctildes: [0.6572451855700264, -0.6572451855700264, 0.6572451855700264, -0.6572451855700264, 0.6572451855700264]}
    - {mu0: 0, rank: 2, ndensity: 1, num_ms_combs: 5, mus: [1, 1], ns: [5, 6], ls: [2, 2], ms_combs: [-2, 2, -1, 1, 0, 0, 1, -1, 2, -2], ctildes: [0.4789143256689751, -0.4789143256689751, 0.4789143256689751, -0.4789143256689751, 0.4789143256689751]}
    - {mu0: 0, rank: 2, ndensity: 1, num_ms_combs: 5, mus: [0, 1], ns: [6, 1], ls: [2, 2], ms_combs: [-2, 2, -1, 1, 0, 0, 1, -1, 2, -2], ctildes: [0.6275134489951556, -0.6275134489951556, 0.6275134489951556, -0.6275134489951556, 0.6275134489951556]}
    - {mu0: 0, rank: 2, ndensity: 1, num_ms_combs: 5, mus: [0, 1], ns: [6, 2], ls: [2, 2], ms_combs: [-2, 2, -1, 1, 0, 0, 1, -1, 2, -2], ctildes: [-0.5692952565361304, 0.5692952565361304, -0.5692952565361304, 0.5692952565361304, -0.5692952565361304]}
    - {mu0: 0, rank: 2, ndensity: 1, num_ms_combs: 5, mus: [0, 1], ns: [6, 3], ls: [2, 2], ms_combs: [-2, 2, -1, 1, 0, 0, 1, -1, 2, -2], ctildes: [-0.6353659898248464, 0.6353659898248464, -0.6353659898248464, 0.6353659898248464, -0.6353659898248464]}
    - {mu0: 0, rank: 2, ndensity: 1, num_ms_combs: 5, mus: [0, 1], ns: [6, 4], ls: [2, 2], ms_combs: [-2, 2, -1, 1, 0, 0, 1, -1, 2, -2], ctildes: [0.2935611541557422, -0.2935611541557422, 0.2935611541557422, -0.2935611541557422, 0.2935611541557422]}
    - {mu0: 0, rank: 2, ndensity: 1, num_ms_combs: 5, mus: [0, 1], ns: [6, 5], ls: [2, 2], ms_combs: [-2, 2, -1, 1, 0, 0, 1, -1, 2, -2], ctildes: [-0.16816994042534228, 0.16816994042534228, -0.16816994042534228, 0.16816994042534228, -0.16816994042534228]}
    - {mu0: 0, rank: 2, ndensity: 1, num_ms_combs: 5, mus: [0, 0], ns: [6, 6], ls: [2, 2], ms_combs: [-2, 2, -1, 1, 0, 0, 1, -1, 2, -2], ctildes: [0.13410134448808486, -0.13410134448808486, 0.13410134448808486, -0.13410134448808486, 0.13410134448808486]}
    - {mu0: 0, rank: 2, ndensity: 1, num_ms_combs: 5, mus: [0, 1], ns: [6, 6], ls: [2, 2], ms_combs: [-2, 2, -1, 1, 0, 0, 1, -1, 2, -2], ctildes: [-0.030628355833158642, 0.030628355833158642, -0.030628355833158642, 0.030628355833158642, -0.030628355833158642]}
    - {mu0: 0, rank: 2, ndensity: 1, num_ms_combs: 5, mus: [1, 1], ns: [6, 6], ls: [2, 2], ms_combs: [-2, 2, -1, 1, 0, 0, 1, -1, 2, -2], ctildes: [-0.4176176812825151, 0.4176176812825151, -0.4176176812825151, 0.4176176812825151, -0.4176176812825151]}
    - {mu0: 0, rank: 2, ndensity: 1, num_ms_combs: 7, mus: [0, 0], ns: [1, 1], ls: [3, 3], ms_combs: [-3, 3, -2, 2, -1, 1, 0, 0, 1, -1, 2, -2, 3, -3], ctildes: [0.7898484027149522, -0.7898484027149522, 0.7898484027149522, -0.7898484027149522, 0.7898484027149522, -0.7898484027149522, 0.7898484027149522]}
    - {mu0: 0, rank: 2, ndensity: 1, num_ms_combs: 7, mus: [0, 1], ns: [1, 1], ls: [3, 3], ms_combs: [-3, 3, -2, 2, -1, 1, 0, 0, 1, -1, 2, -2, 3, -3], ctildes: [0.30131694648792656, -0.30131694648792656, 0.30131694648792656, -0.30131694648792656, 0.30131694648792656, -0.30131694648792656, 0.30131694648792656]}
    - {mu0: 0, rank: 2, ndensity: 1, num_ms_combs: 7, mus: [1, 1], ns: [1, 1], ls: [3, 3], ms_combs: [-3, 3, -2, 2, -1, 1, 0, 0, 1, -1, 2, -2, 3, -3], ctildes: [-0.021690671844878433, 0.021690671844878433, -0.021690671844878433, 0.021690671844878433, -0.021690671844878433, 0.021690671844878433, -0.021690671844878433]}
    - {mu0: 0, rank: 2, ndensity: 1, num_ms_combs: 7, mus: [0, 0], ns: [1, 2], ls: [3, 3], ms_combs: [-3, 3, -2, 2, -1, 1, 0, 0, 1, -1, 2, -2, 3, -3], ctildes: [-0.2510851589540027, 0.2510851589540027, -0.2510851589540027, 0.2510851589540027, -0.2510851589540027, 0.2510851589540027, -0.2510851589540027]}
    - {mu0: 0, rank: 2, ndensity: 1, num_ms_combs: 7, mus: [0, 1], ns: [1, 2], ls: [3, 3], ms_combs: [-3, 3, -2, 2, -1, 1, 0, 0, 1, -1, 2, -2, 3, -3], ctildes: [-0.21335116105379698, 0.21335116105379698, -0.21335116105379698, 0.21335116105379698, -0.21335116105379698, 0.21335116105379698, -0.21335116105379698]}
    - {mu0: 0, rank: 2, ndensity: 1, num_ms_combs: 7, mus: [1, 1], ns: [1, 2], ls: [3, 3], ms_combs: [-3, 3, -2, 2, -1, 1, 0, 0, 1, -1, 2, -2, 3, -3], ctildes: [0.020390492231225677, -0.020390492231225677, 0.020390492231225677, -0.020390492231225677, 0.020390492231225677, -0.020390492231225677, 0.020390492231225677]}
    - {mu0: 0, rank: 2, ndensity: 1, num_ms_combs: 7, mus: [0, 0], ns: [1, 3], ls: [3, 3], ms_combs: [-3, 3, -2, 2, -1, 1, 0, 0, 1, -1, 2, -2, 3, -3], ctildes: [-0.5777236812047041, 0.5777236812047041, -0.5777236812047041, 0.5777236812047041, -0.5777236812047041, 0.5777236812047041, -0.5777236812047041]}
    - {mu0: 0, rank: 2, ndensity: 1, num_ms_combs: 7, mus: [0, 1], ns: [1, 3], ls: [3, 3], ms_combs: [-3, 3, -2, 2, -1, 1, 0, 0, 1, -1, 2, -2, 3, -3], ctildes: [-0.3134041794294548, 0.3134041794294548, -0.3134041794294548, 0.3134041794294548, -0.3134041794294548, 0.3134041794294548, -0.3134041794294548]}
    - {mu0: 0, rank: 2, ndensity: 1, num_ms_combs: 7, mus: [1, 1], ns: [1, 3], ls: [3, 3], ms_combs: [-3, 3, -2, 2, -1, 1, 0, 0, 1, -1, 2, -2, 3, -3], ctildes: [0.236988428417961, -0.236988428417961, 0.236988428417961, -0.236988428417961, 0.236988428417961, -0.236988428417961, 0.236988428417961]}
    - {mu0: 0, rank: 2, ndensity: 1, num_ms_combs: 7, mus: [0, 0], ns: [1, 4], ls: [3, 3], ms_combs: [-3, 3, -2, 2, -1, 1, 0, 0, 1, -1, 2, -2, 3, -3], ctildes: [-0.3158187363008174, 0.3158187363008174, -0.3158187363008174, 0.3158187363008174, -0.3158187363008174, 0.3158187363008174, -0.3158187363008174]}
    - {mu0: 0, rank: 2, ndensity: 1, num_ms_combs: 7, mus: [0, 1], ns: [1, 4], ls: [3, 3], ms_combs: [-3, 3, -2, 2, -1, 1, 0, 0, 1, -1, 2, -2, 3, -3], ctildes: [-0.04279306492561127, 0.04279306492561127, -0.04279306492561127, 0.04279306492561127, -0.04279306492561127, 0.04279306492561127, -0.04279306492561127]}
    - {mu0: 0, rank: 2, ndensity: 1, num_ms_combs: 7, mus: [1, 1], ns: [1, 4], ls: [3, 3], ms_combs: [-3, 3, -2, 2, -1, 1, 0, 0, 1, -1, 2, -2, 3, -3], ctildes: [0.07914460677437539, -0.07914460677437539, 0.07914460677437539, -0.07914460677437539, 0.07914460677437539, -0.07914460677437539, 0.07914460677437539]}
    - {mu0: 0, rank: 2, ndensity: 1, num_ms_combs: 7, mus: [0, 0], ns: [1, 5], ls: [3, 3], ms_combs: [-3, 3, -2, 2, -1, 1, 0, 0, 1, -1, 2, -2, 3, -3], ctildes: [-0.20655425990986154, 0.20655425990986154, -0.20655425990986154, 0.20655425990986154, -0.20655425990986154, 0.20655425990986154, -0.20655425990986154]}
    - {mu0: 0, rank: 2, ndensity: 1, num_ms_combs: 7, mus: [0, 1], ns: [1, 5], ls: [3, 3], ms_combs: [-3, 3, -2, 2, -1, 1, 0, 0, 1, -1, 2, -2, 3, -3], ctildes: [-0.25114924337960104, 0.25114924337960104, -0.25114924337960104, 0.25114924337960104, -0.25114924337960104, 0.25114924337960104, -0.25114924337960104]}
    - {mu0: 0, rank: 2, ndensity: 1, num_ms_combs: 7, mus: [1, 1], ns: [1, 5], ls: [3, 3], ms_combs: [-3, 3, -2, 2, -1, 1, 0, 0, 1, -1, 2, -2, 3, -3], ctildes: [-0.6849453088506322, 0.6849453088506322, -0.6849453088506322, 0.6849453088506322, -0.6849453088506322, 0.6849453088506322, -0.6849453088506322]}
    - {mu0: 0, rank: 2, ndensity: 1, num_ms_combs: 7, mus: [0, 0], ns: [1, 6], ls: [3, 3], ms_combs: [-3, 3, -2, 2, -1, 1, 0, 0, 1, -1, 2, -2, 3, -3], ctildes: [-0.46139554926961207, 0.46139554926961207, -0.46139554926961207, 0.46139554926961207, -0.46139554926961207, 0.46139554926961207, -0.46139554926961207]}
    - {mu0: 0, rank: 2, ndensity: 1, num_ms_combs: 7, mus: [0, 1], ns: [1, 6], ls: [3, 3], ms_combs: [-3, 3, -2, 2, -1, 1, 0, 0, 1, -1, 2, -2, 3, -3], ctildes: [0.0896671038050801, -0.0896671038050801, 0.0896671038050801, -0.0896671038050801, 0.0896671038050801, -0.0896671038050801, 0.0896671038050801]}
    - {mu0: 0, rank: 2, ndensity: 1, num_ms_combs: 7, mus: [1, 1], ns: [1, 6], ls: [3, 3], ms_combs: [-3, 3, -2, 2, -1, 1, 0, 0, 1, -1, 2, -2, 3, -3], ctildes: [0.5340582421306238, -0.5340582421306238, 0.5340582421306238, -0.5340582421306238, 0.5340582421306238, -0.5340582421306238, 0.5340582421306238]}
    - {mu0: 0, rank: 2, ndensity: 1, num_ms_combs: 7, mus: [0, 1], ns: [2, 1], ls: [3, 3], ms_combs: [-3, 3, -2, 2, -1, 1, 0, 0, 1, -1, 2, -2, 3, -3], ctildes: [-0.015339029195171891, 0.015339029195171891, -0.015339029195171891, 0.015339029195171891, -0.015339029195171891, 0.015339029195171891, -0.015339029195171891]}
    - {mu0: 0, rank: 2, ndensity: 1, num_ms_combs: 7, mus: [0, 0], ns: [2, 2], ls: [3, 3], ms_combs: [-3, 3, -2, 2, -1, 1, 0, 0, 1, -1, 2, -2, 3, -3], ctildes: [0.11612210536797098, -0.11612210536797098, 0.11612210536797098, -0.11612210536797098, 0.11612210536797098, -0.11612210536797098, 0.11612210536797098]}
    - {mu0: 0, rank: 2, ndensity: 1, num_ms_combs: 7, mus: [0, 1], ns: [2, 2], ls: [3, 3], ms_combs: [-3, 3, -2, 2, -1, 1, 0, 0, 1, -1, 2, -2, 3, -3], ctildes: [-0.04241674959659108, 0.04241674959659108, -0.04241674959659108, 0.04241674959659108, -0.04241674959659108, 0.04241674959659108, -0.04241674959659108]}
    - {mu0: 0, rank: 2, ndensity: 1, num_ms_combs: 7, mus: [1, 1], ns: [2, 2], ls: [3, 3], ms_combs: [-3, 3, -2, 2, -1, 1, 0, 0, 1, -1, 2, -2, 3, -3], ctildes: [-0.25300360173008946, 0.25300360173008946, -0.25300360173008946, 0.25300360173008946, -0.25300360173008946, 0.25300360173008946, -0.25300360173008946]}
    - {mu0: 0, rank: 2, ndensity: 1, num_ms_combs: 7, mus: [0, 0], ns: [2, 3], ls: [3, 3], ms_combs: [-3, 3, -2, 2, -1, 1, 0, 0, 1, -1, 2, -2, 3, -3], ctildes: [0.16171114846693543, -0.16171114846693543, 0.16171114846693543, -0.16171114846693543, 0.16171114846693543, -0.16171114846693543, 0.16171114846693543]}
    - {mu0: 0, rank: 2, ndensity: 1, num_ms_combs: 7, mus: [0, 1], ns: [2, 3], ls: [3, 3], ms_combs: [-3, 3, -2, 2, -1, 1, 0, 0, 1, -1, 2, -2, 3, -3], ctildes: [-0.15338908559969847, 0.15338908559969847, -0.15338908559969847, 0.15338908559969847, -0.15338908559969847, 0.15338908559969847, -0.15338908559969847]}
    - {mu0: 0, rank: 2, ndensity: 1, num_ms_combs: 7, mus: [1, 1], ns: [2, 3], ls: [3, 3], ms_combs: [-3, 3, -2, 2, -1, 1, 0, 0, 1, -1, 2, -2, 3, -3], ctildes: [-0.37564621354449196, 0.37564621354449196, -0.37564621354449196, 0.37564621354449196, -0.37564621354449196, 0.37564621354449196, -0.37564621354449196]}
    - {mu0: 0, rank: 2, ndensity: 1, num_ms_combs: 7, mus: [0, 0], ns: [2, 4], ls: [3, 3], ms_combs: [-3, 3, -2, 2, -1, 1, 0, 0, 1, -1, 2, -2, 3, -3], ctildes: [0.05326261238389355, -0.05326261238389355, 0.05326261238389355, -0.05326261238389355, 0.05326261238389355, -0.05326261238389355, 0.05326261238389355]}
    - {mu0: 0, rank: 2, ndensity: 1, num_ms_combs: 7, mus: [0, 1], ns: [2, 4], ls: [3, 3], ms_combs: [-3, 3, -2, 2, -1, 1, 0, 0, 1, -1, 2, -2, 3, -3], ctildes: [-0.06025122595717849, 0.06025122595717849, -0.06025122595717849, 0.06025122595717849, -0.06025122595717849, 0.06025122595717849, -0.06025122595717849]}
    - {mu0: 0, rank: 2, ndensity: 1, num_ms_combs: 7, mus: [1, 1], ns: [2, 4], ls: [3, 3], ms_combs: [-3, 3, -2, 2, -1, 1, 0, 0, 1, -1, 2, -2, 3, -3], ctildes: [-0.05245173199732851, 0.05245173199732851, -0.05245173199732851, 0.05245173199732851, -0.05245173199732851, 0.05245173199732851, -0.05245173199732851]}
    - {mu0: 0, rank: 2, ndensity: 1, num_ms_combs: 7, mus: [0, 0], ns: [2, 5], ls: [3, 3], ms_combs: [-3, 3, -2, 2, -1, 1, 0, 0, 1, -1, 2, -2, 3, -3], ctildes: [0.11145763802767018, -0.11145763802767018, 0.11145763802767018, -0.11145763802767018, 0.11145763802767018, -0.11145763802767018, 0.11145763802767018]}
    - {mu0: 0, rank: 2, ndensity: 1, num_ms_combs: 7, mus: [0, 1], ns: [2, 5], ls: [3, 3], ms_combs: [-3, 3, -2, 2, -1, 1, 0, 0, 1, -1, 2, -2, 3, -3], ctildes: [0.3572912980201236, -0.3572912980201236, 0.3572912980201236, -0.3572912980201236, 0.3572912980201236, -0.3572912980201236, 0.3572912980201236]}
    - {mu0: 0, rank: 2, ndensity: 1, num_ms_combs: 7, mus: [1, 1], ns: [2, 5], ls: [3, 3], ms_combs: [-3, 3, -2, 2, -1, 1, 0, 0, 1, -1, 2, -2, 3, -3], ctildes: [-0.0821196598978607, 0.0821196598978607, -0.0821196598978607, 0.0821196598978607, -0.0821196598978607, 0.0821196598978607, -0.0821196598978607]}
    - {mu0: 0, rank: 2, ndensity: 1, num_ms_combs: 7, mus: [0, 0], ns: [2, 6], ls: [3, 3], ms_combs: [-3, 3, -2, 2, -1, 1, 0, 0, 1, -1, 2, -2, 3, -3], ctildes: [-0.1804065080167416, 0.1804065080167416, -0.1804065080167416, 0.1804065080167416, -0.1804065080167416, 0.1804065080167416, -0.1804065080167416]}
    - {mu0: 0, rank: 2, ndensity: 1, num_ms_combs: 7, mus: [0, 1], ns: [2, 6], ls: [3, 3], ms_combs: [-3, 3, -2, 2, -1, 1, 0, 0, 1, -1, 2, -2, 3, -3], ctildes: [0.07420254009407101, -0.07420254009407101, 0.07420254009407101, -0.07420254009407101, 0.07420254009407101, -0.07420254009407101, 0.07420254009407101]}
    - {mu0: 0, rank: 2, ndensity: 1, num_ms_combs: 7, mus: [1, 1], ns: [2, 6], ls: [3, 3], ms_combs: [-3, 3, -2, 2, -1, 1, 0, 0, 1, -1, 2, -2, 3, -3], ctildes: [-0.15419701646532413, 0.15419701646532413, -0.15419701646532413, 0.15419701646532413, -0.15419701646532413, 0.15419701646532413, -0.15419701646532413]}
    - {mu0: 0, rank: 2, ndensity: 1, num_ms_combs: 7, mus: [0, 1], ns: [3, 1], ls: [3, 3], ms_combs: [-3, 3, -2, 2, -1, 1, 0, 0, 1, -1, 2, -2, 3, -3], ctildes: [-0.05570914228433787, 0.05570914228433787, -0.05570914228433787, 0.05570914228433787, -0.05570914228433787, 0.05570914228433787, -0.05570914228433787]}
    - {mu0: 0, rank: 2, ndensity: 1, num_ms_combs: 7, mus: [0, 1], ns: [3, 2], ls: [3, 3], ms_combs: [-3, 3, -2, 2, -1, 1, 0, 0, 1, -1, 2, -2, 3, -3], ctildes: [0.03894011278774473, -0.03894011278774473, 0.03894011278774473, -0.03894011278774473, 0.03894011278774473, -0.03894011278774473, 0.03894011278774473]}
    - {mu0: 0, rank: 2, ndensity: 1, num_ms_combs: 7, mus: [0, 0], ns: [3, 3], ls: [3, 3], ms_combs: [-3, 3, -2, 2, -1, 1, 0, 0, 1, -1, 2, -2, 3, -3], ctildes: [0.1667261783090546, -0.1667261783090546, 0.1667261783090546, -0.1667261783090546, 0.1667261783090546, -0.1667261783090546, 0.1667261783090546]}
    - {mu0: 0, rank: 2, ndensity: 1, num_ms_combs: 7, mus: [0, 1], ns: [3, 3], ls: [3, 3], ms_combs: [-3, 3, -2, 2, -1, 1, 0, 0, 1, -1, 2, -2, 3, -3], ctildes: [-0.031926586677575614, 0.031926586677575614, -0.031926586677575614, 0.031926586677575614, -0.031926586677575614, 0.031926586677575614, -0.031926586677575614]}
    - {mu0: 0, rank: 2, ndensity: 1, num_ms_combs: 7, mus: [1, 1], ns: [3, 3], ls: [3, 3], ms_combs: [-3, 3, -2, 2, -1, 1, 0, 0, 1, -1, 2, -2, 3, -3], ctildes: [-0.41819856038826736, 0.41819856038826736, -0.41819856038826736, 0.41819856038826736, -0.41819856038826736, 0.41819856038826736, -0.41819856038826736]}
    - {mu0: 0, rank: 2, ndensity: 1, num_ms_combs: 7, mus: [0, 0], ns: [3, 4], ls: [3, 3], ms_combs: [-3, 3, -2, 2, -1, 1, 0, 0, 1, -1, 2, -2, 3, -3], ctildes: [0.03883978923720027, -0.03883978923720027, 0.03883978923720027, -0.03883978923720027, 0.03883978923720027, -0.03883978923720027, 0.03883978923720027]}
    - {mu0: 0, rank: 2, ndensity: 1, num_ms_combs: 7, mus: [0, 1], ns: [3, 4], ls: [3, 3], ms_combs: [-3, 3, -2, 2, -1, 1, 0, 0, 1, -1, 2, -2, 3, -3], ctildes: [-0.04129926559782714, 0.04129926559782714, -0.04129926559782714, 0.04129926559782714, -0.04129926559782714, 0.04129926559782714, -0.04129926559782714]}
    - {mu0: 0, rank: 2, ndensity: 1, num_ms_combs: 7, mus: [1, 1], ns: [3, 4], ls: [3, 3], ms_combs: [-3, 3, -2, 2, -1, 1, 0, 0, 1, -1, 2, -2, 3, -3], ctildes: [0.16948935328311915, -0.16948935328311915, 0.16948935328311915, -0.16948935328311915, 0.16948935328311915, -0.16948935328311915, 0.16948935328311915]}
    - {mu0: 0, rank: 2, ndensity: 1, num_ms_combs: 7, mus: [0, 0], ns: [3, 5], ls: [3, 3], ms_combs: [-3, 3, -2, 2, -1, 1, 0, 0, 1, -1, 2, -2, 3, -3], ctildes: [0.2758385615694849, -0.2758385615694849, 0.2758385615694849, -0.2758385615694849, 0.2758385615694849, -0.2758385615694849, 0.2758385615694849]}
    - {mu0: 0, rank: 2, ndensity: 1, num_ms_combs: 7, mus: [0, 1], ns: [3, 5], ls: [3, 3], ms_combs: [-3, 3, -2, 2, -1, 1, 0, 0, 1, -1, 2, -2, 3, -3], ctildes: [0.3161416521924261, -0.3161416521924261, 0.3161416521924261, -0.3161416521924261, 0.3161416521924261, -0.3161416521924261, 0.3161416521924261]}
    - {mu0: 0, rank: 2, ndensity: 1, num_ms_combs: 7, mus: [1, 1], ns: [3, 5], ls: [3, 3], ms_combs: [-3, 3, -2, 2, -1, 1, 0, 0, 1, -1, 2, -2, 3, -3], ctildes: [-0.14235385234393927, 0.14235385234393927, -0.14235385234393927, 0.14235385234393927, -0.14235385234393927, 0.14235385234393927, -0.14235385234393927]}
    - {mu0: 0, rank: 2, ndensity: 1, num_ms_combs: 7, mus: [0, 0], ns: [3, 6], ls: [3, 3], ms_combs: [-3, 3, -2, 2, -1, 1, 0, 0, 1, -1, 2, -2, 3, -3], ctildes: [-0.19866341466402884, 0.19866341466402884, -0.19866341466402884, 0.19866341466402884, -0.19866341466402884, 0.19866341466402884, -0.19866341466402884]}
    - {mu0: 0, rank: 2, ndensity: 1, num_ms_combs: 7, mus: [0, 1], ns: [3, 6], ls: [3, 3], ms_combs: [-3, 3, -2, 2, -1, 1, 0, 0, 1, -1, 2, -2, 3, -3], ctildes: [-0.16704426196629624, 0.16704426196629624, -0.16704426196629624, 0.16704426196629624, -0.16704426196629624, 0.16704426196629624, -0.16704426196629624]}
    - {mu0: 0, rank: 2, ndensity: 1, num_ms_combs: 7, mus: [1, 1], ns: [3, 6], ls: [3, 3], ms_combs: [-3, 3, -2, 2, -1, 1, 0, 0, 1, -1, 2, -2, 3, -3], ctildes: [-0.2692615538918722, 0.2692615538918722, -0.2692615538918722, 0.2692615538918722, -0.2692615538918722, 0.2692615538918722, -0.2692615538918722]}
    - {mu0: 0, rank: 2, ndensity: 1, num_ms_combs: 7, mus: [0, 1], ns: [4, 1], ls: [3, 3], ms_combs: [-3, 3, -2, 2, -1, 1, 0, 0, 1, -1, 2, -2, 3, -3], ctildes: [-0.24998914990416019, 0.24998914990416019, -0.24998914990416019, 0.24998914990416019, -0.24998914990416019, 0.24998914990416019, -0.24998914990416019]}
    - {mu0: 0, rank: 2, ndensity: 1, num_ms_combs: 7, mus: [0, 1], ns: [4, 2], ls: [3, 3], ms_combs: [-3, 3, -2, 2, -1, 1, 0, 0, 1, -1, 2, -2, 3, -3], ctildes: [0.10605004127021499, -0.10605004127021499, 0.10605004127021499, -0.10605004127021499, 0.10605004127021499, -0.10605004127021499, 0.10605004127021499]}
    - {mu0: 0, rank: 2, ndensity: 1, num_ms_combs: 7, mus: [0, 1], ns: [4, 3], ls: [3, 3], ms_combs: [-3, 3, -2, 2, -1, 1, 0, 0, 1, -1, 2, -2, 3, -3], ctildes: [0.35261353977467347, -0.35261353977467347, 0.35261353977467347, -0.35261353977467347, 0.35261353977467347, -0.35261353977467347, 0.35261353977467347]}
    - {mu0: 0, rank: 2, ndensity: 1, num_ms_combs: 7, mus: [0, 0], ns: [4, 4], ls: [3, 3], ms_combs: [-3, 3, -2, 2, -1, 1, 0, 0, 1, -1, 2, -2, 3, -3], ctildes: [0.00013530316878289866, -0.00013530316878289866, 0.00013530316878289866, -0.00013530316878289866, 0.00013530316878289866, -0.00013530316878289866, 0.00013530316878289866]}
    - {mu0: 0, rank: 2, ndensity: 1, num_ms_combs: 7, mus: [0, 1], ns: [4, 4], ls: [3, 3], ms_combs: [-3, 3, -2, 2, -1, 1, 0, 0, 1, -1, 2, -2, 3, -3], ctildes: [0.28688750252243417, -0.28688750252243417, 0.28688750252243417, -0.28688750252243417, 0.28688750252243417, -0.28688750252243417, 0.28688750252243417]}
    - {mu0: 0, rank: 2, ndensity: 1, num_ms_combs: 7, mus: [1, 1], ns: [4, 4], ls: [3, 3], ms_combs: [-3, 3, -2, 2, -1, 1, 0, 0, 1, -1, 2, -2, 3, -3], ctildes: [0.47980708288387, -0.47980708288387, 0.47980708288387, -0.47980708288387, 0.47980708288387, -0.47980708288387, 0.47980708288387]}
    - {mu0: 0, rank: 2, ndensity: 1, num_ms_combs: 7, mus: [0, 0], ns: [4, 5], ls: [3, 3], ms_combs: [-3, 3, -2, 2, -1, 1, 0, 0, 1, -1, 2, -2, 3, -3], ctildes: [0.11923391534312837, -0.11923391534312837, 0.11923391534312837, -0.11923391534312837, 0.11923391534312837, -0.11923391534312837, 0.11923391534312837]}
    - {mu0: 0, rank: 2, ndensity: 1, num_ms_combs: 7, mus: [0, 1], ns: [4, 5], ls: [3, 3], ms_combs: [-3, 3, -2, 2, -1, 1, 0, 0, 1, -1, 2, -2, 3, -3], ctildes: [-0.41807022115196674, 0.41807022115196674, -0.41807022115196674, 0.41807022115196674, -0.41807022115196674, 0.41807022115196674, -0.41807022115196674]}
    - {mu0: 0, rank: 2, ndensity: 1, num_ms_combs: 7, mus: [1, 1], ns: [4, 5], ls: [3, 3], ms_combs: [-3, 3, -2, 2, -1, 1, 0, 0, 1, -1, 2, -2, 3, -3], ctildes: [-0.035873877772394626, 0.035873877772394626, -0.035873877772394626, 0.035873877772394626, -0.035873877772394626, 0.035873877772394626, -0.035873877772394626]}
    - {mu0: 0, rank: 2, ndensity: 1, num_ms_combs: 7, mus: [0, 0], ns: [4, 6], ls: [3, 3], ms_combs: [-3, 3, -2, 2, -1, 1, 0, 0, 1, -1, 2, -2, 3, -3], ctildes: [0.3509835704648715, -0.3509835704648715, 0.3509835704648715, -0.3509835704648715, 0.3509835704648715, -0.3509835704648715, 0.3509835704648715]}
    - {mu0: 0, rank: 2, ndensity: 1, num_ms_combs: 7, mus: [0, 1], ns: [4, 6], ls: [3, 3], ms_combs: [-3, 3, -2, 2, -1, 1, 0, 0, 1, -1, 2, -2, 3, -3], ctildes: [-0.266879397062313, 0.266879397062313, -0.266879397062313, 0.266879397062313, -0.266879397062313, 0.266879397062313, -0.266879397062313]}
    - {mu0: 0, rank: 2, ndensity: 1, num_ms_combs: 7, mus: [1, 1], ns: [4, 6], ls: [3, 3], ms_combs: [-3, 3, -2, 2, -1, 1, 0, 0, 1, -1, 2, -2, 3, -3], ctildes: [-0.04800063228071921, 0.04800063228071921, -0.04800063228071921, 0.04800063228071921, -0.04800063228071921, 0.04800063228071921, -0.04800063228071921]}
    - {mu0: 0, rank: 2, ndensity: 1, num_ms_combs: 7, mus: [0, 1], ns: [5, 1], ls: [3, 3], ms_combs: [-3, 3, -2, 2, -1, 1, 0, 0, 1, -1, 2, -2, 3, -3], ctildes: [-0.5608825688159991, 0.5608825688159991, -0.5608825688159991, 0.5608825688159991, -0.5608825688159991, 0.5608825688159991, -0.5608825688159991]}
    - {mu0: 0, rank: 2, ndensity: 1, num_ms_combs: 7, mus: [0, 1], ns: [5, 2], ls: [3, 3], ms_combs: [-3, 3, -2, 2, -1, 1, 0, 0, 1, -1, 2, -2, 3, -3], ctildes: [-0.3093704067055889, 0.3093704067055889, -0.3093704067055889, 0.3093704067055889, -0.3093704067055889, 0.3093704067055889, -0.3093704067055889]}
    - {mu0: 0, rank: 2, ndensity: 1, num_ms_combs: 7, mus: [0, 1], ns: [5, 3], ls: [3, 3], ms_combs: [-3, 3, -2, 2, -1, 1, 0, 0, 1, -1, 2, -2, 3, -3], ctildes: [-0.11988746554688222, 0.11988746554688222, -0.11988746554688222, 0.11988746554688222, -0.11988746554688222, 0.11988746554688222, -0.11988746554688222]}
    - {mu0: 0, rank: 2, ndensity: 1, num_ms_combs: 7, mus: [0, 1], ns: [5, 4], ls: [3, 3], ms_combs: [-3, 3, -2, 2, -1, 1, 0, 0, 1, -1, 2, -2, 3, -3], ctildes: [0.5967428890213905, -0.5967428890213905, 0.5967428890213905, -0.5967428890213905, 0.5967428890213905, -0.5967428890213905, 0.5967428890213905]}
    - {mu0: 0, rank: 2, ndensity: 1, num_ms_combs: 7, mus: [0, 0], ns: [5, 5], ls: [3, 3], ms_combs: [-3, 3, -2, 2, -1, 1, 0, 0, 1, -1, 2, -2, 3, -3], ctildes: [-0.3148329181792673, 0.3148329181792673, -0.3148329181792673, 0.3148329181792673, -0.3148329181792673, 0.3148329181792673, -0.3148329181792673]}
    - {mu0: 0, rank: 2, ndensity: 1, num_ms_combs: 7, mus: [0, 1], ns: [5, 5], ls: [3, 3], ms_combs: [-3, 3, -2, 2, -1, 1, 0, 0, 1, -1, 2, -2, 3, -3], ctildes: [-0.15448267750482977, 0.15448267750482977, -0.15448267750482977, 0.15448267750482977, -0.15448267750482977, 0.15448267750482977, -0.15448267750482977]}
    - {mu0: 0, rank: 2, ndensity: 1, num_ms_combs: 7, mus: [1, 1], ns: [5, 5], ls: [3, 3], ms_combs: [-3, 3, -2, 2, -1, 1, 0, 0, 1, -1, 2, -2, 3, -3], ctildes: [-0.04715523168104425, 0.04715523168104425, -0.04715523168104425, 0.04715523168104425, -0.04715523168104425, 0.04715523168104425, -0.04715523168104425]}
    - {mu0: 0, rank: 2, ndensity: 1, num_ms_combs: 7, mus: [0, 0], ns: [5, 6], ls: [3, 3], ms_combs: [-3, 3, -2, 2, -1, 1, 0, 0, 1, -1, 2, -2, 3, -3], ctildes: [0.4429703925871485, -0.4429703925871485, 0.4429703925871485, -0.4429703925871485, 0.4429703925871485, -0.4429703925871485, 0.4429703925871485]}
    - {mu0: 0, rank: 2, ndensity: 1, num_ms_combs: 7, mus: [0, 1], ns: [5, 6], ls: [3, 3], ms_combs: [-3, 3, -2, 2, -1, 1, 0, 0, 1, -1, 2, -2, 3, -3], ctildes: [0.776571293651328, -0.776571293651328, 0.776571293651328, -0.776571293651328, 0.776571293651328, -0.776571293651328, 0.776571293651328]}
    - {mu0: 0, rank: 2, ndensity: 1, num_ms_combs: 7, mus: [1, 1], ns: [5, 6], ls: [3, 3], ms_combs: [-3, 3, -2, 2, -1, 1, 0, 0, 1, -1, 2, -2, 3, -3], ctildes: [0.08649566082054293, -0.08649566082054293, 0.08649566082054293, -0.08649566082054293, 0.08649566082054293, -0.08649566082054293, 0.08649566082054293]}
    - {mu0: 0, rank: 2, ndensity: 1, num_ms_combs: 7, mus: [0, 1], ns: [6, 1], ls: [3, 3], ms_combs: [-3, 3, -2, 2, -1, 1, 0, 0, 1, -1, 2, -2, 3, -3], ctildes: [0.07735152137740434, -0.07735152137740434, 0.07735152137740434, -0.07735152137740434, 0.07735152137740434, -0.07735152137740434, 0.07735152137740434]}
    - {mu0: 0, rank: 2, ndensity: 1, num_ms_combs: 7, mus: [0, 1], ns: [6, 2], ls: [3, 3], ms_combs: [-3, 3, -2, 2, -1, 1, 0, 0, 1, -1, 2, -2, 3, -3], ctildes: [-0.34771720262247685, 0.34771720262247685, -0.34771720262247685, 0.34771720262247685, -0.34771720262247685, 0.34771720262247685, -0.34771720262247685]}
    - {mu0: 0, rank: 2, ndensity: 1, num_ms_combs: 7, mus: [0, 1], ns: [6, 3], ls: [3, 3], ms_combs: [-3, 3, -2, 2, -1, 1, 0, 0, 1, -1, 2, -2, 3, -3], ctildes: [-0.19626843971305058, 0.19626843971305058, -0.19626843971305058, 0.19626843971305058, -0.19626843971305058, 0.19626843971305058, -0.19626843971305058]}
    - {mu0: 0, rank: 2, ndensity: 1, num_ms_combs: 7, mus: [0, 1], ns: [6, 4], ls: [3, 3], ms_combs: [-3, 3, -2, 2, -1, 1, 0, 0, 1, -1, 2, -2, 3, -3], ctildes: [0.5405661972254914, -0.5405661972254914, 0.5405661972254914, -0.5405661972254914, 0.5405661972254914, -0.5405661972254914, 0.5405661972254914]}
    - {mu0: 0, rank: 2, ndensity: 1, num_ms_combs: 7, mus: [0, 1], ns: [6, 5], ls: [3, 3], ms_combs: [-3, 3, -2, 2, -1, 1, 0, 0, 1, -1, 2, -2, 3, -3], ctildes: [-0.42530106531643164, 0.42530106531643164, -0.42530106531643164, 0.42530106531643164, -0.42530106531643164, 0.42530106531643164, -0.42530106531643164]}
    - {mu0: 0, rank: 2, ndensity: 1, num_ms_combs: 7, mus: [0, 0], ns: [6, 6], ls: [3, 3], ms_combs: [-3, 3, -2, 2, -1, 1, 0, 0, 1, -1, 2, -2, 3, -3], ctildes: [-0.2254540175867262, 0.2254540175867262, -0.2254540175867262, 0.2254540175867262, -0.2254540175867262, 0.2254540175867262, -0.2254540175867262]}
    - {mu0: 0, rank: 2, ndensity: 1, num_ms_combs: 7, mus: [0, 1], ns: [6, 6], ls: [3, 3], ms_combs: [-3, 3, -2, 2, -1, 1, 0, 0, 1, -1, 2, -2, 3, -3], ctildes: [-0.2317975801976837, 0.2317975801976837, -0.2317975801976837, 0.2317975801976837, -0.2317975801976837, 0.2317975801976837, -0.2317975801976837]}
    - {mu0: 0, rank: 2, ndensity: 1, num_ms_combs: 7, mus: [1, 1], ns: [6, 6], ls: [3, 3], ms_combs: [-3, 3, -2, 2, -1, 1, 0, 0, 1, -1, 2, -2, 3, -3], ctildes: [-0.1307457066133886, 0.1307457066133886, -0.1307457066133886, 0.1307457066133886, -0.1307457066133886, 0.1307457066133886, -0.1307457066133886]}
    - {mu0: 0, rank: 2, ndensity: 1, num_ms_combs: 9, mus: [0, 0], ns: [1, 1], ls: [4, 4], ms_combs: [-4, 4, -3, 3, -2, 2, -1, 1, 0, 0, 1, -1, 2, -2, 3, -3, 4, -4], ctildes: [0.7217512677286124, -0.7217512677286124, 0.7217512677286124, -0.7217512677286124, 0.7217512677286124, -0.7217512677286124, 0.7217512677286124, -0.7217512677286124, 0.7217512677286124]}
    - {mu0: 0, rank: 2, ndensity: 1, num_ms_combs: 9, mus: [0, 1], ns: [1, 1], ls: [4, 4], ms_combs: [-4, 4, -3, 3, -2, 2, -1, 1, 0, 0, 1, -1, 2, -2, 3, -3, 4, -4], ctildes: [0.44077266459960046, -0.44077266459960046, 0.44077266459960046, -0.44077266459960046, 0.44077266459960046, -0.44077266459960046, 0.44077266459960046, -0.44077266459960046, 0.44077266459960046]}
    - {mu0: 0, rank: 2, ndensity: 1, num_ms_combs: 9, mus: [1, 1], ns: [1, 1], ls: [4, 4], ms_combs: [-4, 4, -3, 3, -2, 2, -1, 1, 0, 0, 1, -1, 2, -2, 3, -3, 4, -4], ctildes: [0.09954499432423315, -0.09954499432423315, 0.09954499432423315, -0.09954499432423315, 0.09954499432423315, -0.09954499432423315, 0.09954499432423315, -0.09954499432423315, 0.09954499432423315]}
    - {mu0: 0, rank: 2, ndensity: 1, num_ms_combs: 9, mus: [0, 0], ns: [1, 2], ls: [4, 4], ms_combs: [-4, 4, -3, 3, -2, 2, -1, 1, 0, 0, 1, -1, 2, -2, 3, -3, 4, -4], ctildes: [-0.2613239842213313, 0.2613239842213313, -0.2613239842213313, 0.2613239842213313, -0.2613239842213313, 0.2613239842213313, -0.2613239842213313, 0.2613239842213313, -0.2613239842213313]}
    - {mu0: 0, rank: 2, ndensity: 1, num_ms_combs: 9, mus: [0, 1], ns: [1, 2], ls: [4, 4], ms_combs: [-4, 4, -3, 3, -2, 2, -1, 1, 0, 0, 1, -1, 2, -2, 3, -3, 4, -4], ctildes: [-0.009690349094315343, 0.009690349094315343, -0.009690349094315343, 0.009690349094315343, -0.009690349094315343, 0.009690349094315343, -0.009690349094315343, 0.009690349094315343, -0.009690349094315343]}
    - {mu0: 0, rank: 2, ndensity: 1, num_ms_combs: 9, mus: [1, 1], ns: [1, 2], ls: [4, 4], ms_combs: [-4, 4, -3, 3, -2, 2, -1, 1, 0, 0, 1, -1, 2, -2, 3, -3, 4, -4], ctildes: [0.142079732939921, -0.142079732939921, 0.142079732939921, -0.142079732939921, 0.142079732939921, -0.142079732939921, 0.142079732939921, -0.142079732939921, 0.142079732939921]}
    - {mu0: 0, rank: 2, ndensity: 1, num_ms_combs: 9, mus: [0, 0], ns: [1, 3], ls: [4, 4], ms_combs: [-4, 4, -3, 3, -2, 2, -1, 1, 0, 0, 1, -1, 2, -2, 3, -3, 4, -4], ctildes: [-0.7281670307774311, 0.7281670307774311, -0.7281670307774311, 0.7281670307774311, -0.7281670307774311, 0.7281670307774311, -0.7281670307774311, 0.7281670307774311, -0.7281670307774311]}
    - {mu0: 0, rank: 2, ndensity: 1, num_ms_combs: 9, mus: [0, 1], ns: [1, 3], ls: [4, 4], ms_combs: [-4, 4, -3, 3, -2, 2, -1, 1, 0, 0, 1, -1, 2, -2, 3, -3, 4, -4], ctildes: [-0.24685829023372713, 0.24685829023372713, -0.24685829023372713, 0.24685829023372713, -0.24685829023372713, 0.24685829023372713, -0.24685829023372713, 0.24685829023372713, -0.24685829023372713]}
    - {mu0: 0, rank: 2, ndensity: 1, num_ms_combs: 9, mus: [1, 1], ns: [1, 3], ls: [4, 4], ms_combs: [-4, 4, -3, 3, -2, 2, -1, 1, 0, 0, 1, -1, 2, -2, 3, -3, 4, -4], ctildes: [0.20271697373183353, -0.20271697373183353, 0.20271697373183353, -0.20271697373183353, 0.20271697373183353, -0.20271697373183353, 0.20271697373183353, -0.20271697373183353, 0.20271697373183353]}
    - {mu0: 0, rank: 2, ndensity: 1, num_ms_combs: 9, mus: [0, 0], ns: [1, 4], ls: [4, 4], ms_combs: [-4, 4, -3, 3, -2, 2, -1, 1, 0, 0, 1, -1, 2, -2, 3, -3, 4, -4], ctildes: [-0.6152375627038392, 0.6152375627038392, -0.6152375627038392, 0.6152375627038392, -0.6152375627038392, 0.6152375627038392, -0.6152375627038392, 0.6152375627038392, -0.6152375627038392]}
    - {mu0: 0, rank: 2, ndensity: 1, num_ms_combs: 9, mus: [0, 1], ns: [1, 4], ls: [4, 4], ms_combs: [-4, 4, -3, 3, -2, 2, -1, 1, 0, 0, 1, -1, 2, -2, 3, -3, 4, -4], ctildes: [-0.37530895399485426, 0.37530895399485426, -0.37530895399485426, 0.37530895399485426, -0.37530895399485426, 0.37530895399485426, -0.37530895399485426, 0.37530895399485426, -0.37530895399485426]}
    - {mu0: 0, rank: 2, ndensity: 1, num_ms_combs: 9, mus: [1, 1], ns: [1, 4], ls: [4, 4], ms_combs: [-4, 4, -3, 3, -2, 2, -1, 1, 0, 0, 1, -1, 2, -2, 3, -3, 4, -4], ctildes: [0.01318535837531982, -0.01318535837531982, 0.01318535837531982, -0.01318535837531982, 0.01318535837531982, -0.01318535837531982, 0.01318535837531982, -0.01318535837531982, 0.01318535837531982]}
    - {mu0: 0, rank: 2, ndensity: 1, num_ms_combs: 9, mus: [0, 0], ns: [1, 5], ls: [4, 4], ms_combs: [-4, 4, -3, 3, -2, 2, -1, 1, 0, 0, 1, -1, 2, -2, 3, -3, 4, -4], ctildes: [-0.10421763058033007, 0.10421763058033007, -0.10421763058033007, 0.10421763058033007, -0.10421763058033007, 0.10421763058033007, -0.10421763058033007, 0.10421763058033007, -0.10421763058033007]}
    - {mu0: 0, rank: 2, ndensity: 1, num_ms_combs: 9, mus: [0, 1], ns: [1, 5], ls: [4, 4], ms_combs: [-4, 4, -3, 3, -2, 2, -1, 1, 0, 0, 1, -1, 2, -2, 3, -3, 4, -4], ctildes: [-0.06482553906686905, 0.06482553906686905, -0.06482553906686905, 0.06482553906686905, -0.06482553906686905, 0.06482553906686905, -0.06482553906686905, 0.06482553906686905, -0.06482553906686905]}
    - {mu0: 0, rank: 2, ndensity: 1, num_ms_combs: 9, mus: [1, 1], ns: [1, 5], ls: [4, 4], ms_combs: [-4, 4, -3, 3, -2, 2, -1, 1, 0, 0, 1, -1, 2, -2, 3, -3, 4, -4], ctildes: [-0.26850803531591527, 0.26850803531591527, -0.26850803531591527, 0.26850803531591527, -0.26850803531591527, 0.26850803531591527, -0.26850803531591527, 0.26850803531591527, -0.26850803531591527]}
    - {mu0: 0, rank: 2, ndensity: 1, num_ms_combs: 9, mus: [0, 0], ns: [1, 6], ls: [4, 4], ms_combs: [-4, 4, -3, 3, -2, 2, -1, 1, 0, 0, 1, -1, 2, -2, 3, -3, 4, -4], ctildes: [0.1337030379744171, -0.1337030379744171, 0.1337030379744171, -0.1337030379744171, 0.1337030379744171, -0.1337030379744171, 0.1337030379744171, -0.1337030379744171, 0.1337030379744171]}
    - {mu0: 0, rank: 2, ndensity: 1, num_ms_combs: 9, mus: [0, 1], ns: [1, 6], ls: [4, 4], ms_combs: [-4, 4, -3, 3, -2, 2, -1, 1, 0, 0, 1, -1, 2, -2, 3, -3, 4, -4], ctildes: [0.32937900870701486, -0.32937900870701486, 0.32937900870701486, -0.32937900870701486, 0.32937900870701486, -0.32937900870701486, 0.32937900870701486, -0.32937900870701486, 0.32937900870701486]}
    - {mu0: 0, rank: 2, ndensity: 1, num_ms_combs: 9, mus: [1, 1], ns: [1, 6], ls: [4, 4], ms_combs: [-4, 4, -3, 3, -2, 2, -1, 1, 0, 0, 1, -1, 2, -2, 3, -3, 4, -4], ctildes: [-0.07185499636032723, 0.07185499636032723, -0.07185499636032723, 0.07185499636032723, -0.07185499636032723, 0.07185499636032723, -0.07185499636032723, 0.07185499636032723, -0.07185499636032723]}
    - {mu0: 0, rank: 2, ndensity: 1, num_ms_combs: 9, mus: [0, 1], ns: [2, 1], ls: [4, 4], ms_combs: [-4, 4, -3, 3, -2, 2, -1, 1, 0, 0, 1, -1, 2, -2, 3, -3, 4, -4], ctildes: [-0.15915449199641526, 0.15915449199641526, -0.15915449199641526, 0.15915449199641526, -0.15915449199641526, 0.15915449199641526, -0.15915449199641526, 0.15915449199641526, -0.15915449199641526]}
    - {mu0: 0, rank: 2, ndensity: 1, num_ms_combs: 9, mus: [0, 0], ns: [2, 2], ls: [4, 4], ms_combs: [-4, 4, -3, 3, -2, 2, -1, 1, 0, 0, 1, -1, 2, -2, 3, -3, 4, -4], ctildes: [0.10926794690051367, -0.10926794690051367, 0.10926794690051367, -0.10926794690051367, 0.10926794690051367, -0.10926794690051367, 0.10926794690051367, -0.10926794690051367, 0.10926794690051367]}
    - {mu0: 0, rank: 2, ndensity: 1, num_ms_combs: 9, mus: [0, 1], ns: [2, 2], ls: [4, 4], ms_combs: [-4, 4, -3, 3, -2, 2, -1, 1, 0, 0, 1, -1, 2, -2, 3, -3, 4, -4], ctildes: [0.049289144941840266, -0.049289144941840266, 0.049289144941840266, -0.049289144941840266, 0.049289144941840266, -0.049289144941840266, 0.049289144941840266, -0.049289144941840266, 0.049289144941840266]}
    - {mu0: 0, rank: 2, ndensity: 1, num_ms_combs: 9, mus: [1, 1], ns: [2, 2], ls: [4, 4], ms_combs: [-4, 4, -3, 3, -2, 2, -1, 1, 0, 0, 1, -1, 2, -2, 3, -3, 4, -4], ctildes: [0.062221069821196844, -0.062221069821196844, 0.062221069821196844, -0.062221069821196844, 0.062221069821196844, -0.062221069821196844, 0.062221069821196844, -0.062221069821196844, 0.062221069821196844]}
    - {mu0: 0, rank: 2, ndensity: 1, num_ms_combs: 9, mus: [0, 0], ns: [2, 3], ls: [4, 4], ms_combs: [-4, 4, -3, 3, -2, 2, -1, 1, 0, 0, 1, -1, 2, -2, 3, -3, 4, -4], ctildes: [0.23806870015599538, -0.23806870015599538, 0.23806870015599538, -0.23806870015599538, 0.23806870015599538, -0.23806870015599538, 0.23806870015599538, -0.23806870015599538, 0.23806870015599538]}
    - {mu0: 0, rank: 2, ndensity: 1, num_ms_combs: 9, mus: [0, 1], ns: [2, 3], ls: [4, 4], ms_combs: [-4, 4, -3, 3, -2, 2, -1, 1, 0, 0, 1, -1, 2, -2, 3, -3, 4, -4], ctildes: [0.04201541979160651, -0.04201541979160651, 0.04201541979160651, -0.04201541979160651, 0.04201541979160651, -0.04201541979160651, 0.04201541979160651, -0.04201541979160651, 0.04201541979160651]}
    - {mu0: 0, rank: 2, ndensity: 1, num_ms_combs: 9, mus: [1, 1], ns: [2, 3], ls: [4, 4], ms_combs: [-4, 4, -3, 3, -2, 2, -1, 1, 0, 0, 1, -1, 2, -2, 3, -3, 4, -4], ctildes: [0.04398677884080786, -0.04398677884080786, 0.04398677884080786, -0.04398677884080786, 0.04398677884080786, -0.04398677884080786, 0.04398677884080786, -0.04398677884080786, 0.04398677884080786]}
    - {mu0: 0, rank: 2, ndensity: 1, num_ms_combs: 9, mus: [0, 0], ns: [2, 4], ls: [4, 4], ms_combs: [-4, 4, -3, 3, -2, 2, -1, 1, 0, 0, 1, -1, 2, -2, 3, -3, 4, -4], ctildes: [0.22312527586506697, -0.22312527586506697, 0.22312527586506697, -0.22312527586506697, 0.22312527586506697, -0.22312527586506697, 0.22312527586506697, -0.22312527586506697, 0.22312527586506697]}
    - {mu0: 0, rank: 2, ndensity: 1, num_ms_combs: 9, mus: [0, 1], ns: [2, 4], ls: [4, 4], ms_combs: [-4, 4, -3, 3, -2, 2, -1, 1, 0, 0, 1, -1, 2, -2, 3, -3, 4, -4], ctildes: [0.011894941568643935, -0.011894941568643935, 0.011894941568643935, -0.011894941568643935, 0.011894941568643935, -0.011894941568643935, 0.011894941568643935, -0.011894941568643935, 0.011894941568643935]}
    - {mu0: 0, rank: 2, ndensity: 1, num_ms_combs: 9, mus: [1, 1], ns: [2, 4], ls: [4, 4], ms_combs: [-4, 4, -3, 3, -2, 2, -1, 1, 0, 0, 1, -1, 2, -2, 3, -3, 4, -4], ctildes: [-0.07586529969273281, 0.07586529969273281, -0.07586529969273281, 0.07586529969273281, -0.07586529969273281, 0.07586529969273281, -0.07586529969273281, 0.07586529969273281, -0.07586529969273281]}
    - {mu0: 0, rank: 2, ndensity: 1, num_ms_combs: 9, mus: [0, 0], ns: [2, 5], ls: [4, 4], ms_combs: [-4, 4, -3, 3, -2, 2, -1, 1, 0, 0, 1, -1, 2, -2, 3, -3, 4, -4], ctildes: [0.16584073231656116, -0.16584073231656116, 0.16584073231656116, -0.16584073231656116, 0.16584073231656116, -0.16584073231656116, 0.16584073231656116, -0.16584073231656116, 0.16584073231656116]}
    - {mu0: 0, rank: 2, ndensity: 1, num_ms_combs: 9, mus: [0, 1], ns: [2, 5], ls: [4, 4], ms_combs: [-4, 4, -3, 3, -2, 2, -1, 1, 0, 0, 1, -1, 2, -2, 3, -3, 4, -4], ctildes: [0.13083447604363282, -0.13083447604363282, 0.13083447604363282, -0.13083447604363282, 0.13083447604363282, -0.13083447604363282, 0.13083447604363282, -0.13083447604363282, 0.13083447604363282]}
    - {mu0: 0, rank: 2, ndensity: 1, num_ms_combs: 9, mus: [1, 1], ns: [2, 5], ls: [4, 4], ms_combs: [-4, 4, -3, 3, -2, 2, -1, 1, 0, 0, 1, -1, 2, -2, 3, -3, 4, -4], ctildes: [-0.03483016027074093, 0.03483016027074093, -0.03483016027074093, 0.03483016027074093, -0.03483016027074093, 0.03483016027074093, -0.03483016027074093, 0.03483016027074093, -0.03483016027074093]}
    - {mu0: 0, rank: 2, ndensity: 1, num_ms_combs: 9, mus: [0, 0], ns: [2, 6], ls: [4, 4], ms_combs: [-4, 4, -3, 3, -2, 2, -1, 1, 0, 0, 1, -1, 2, -2, 3, -3, 4, -4], ctildes: [-0.1205726833125108, 0.1205726833125108, -0.1205726833125108, 0.1205726833125108, -0.1205726833125108, 0.1205726833125108, -0.1205726833125108, 0.1205726833125108, -0.1205726833125108]}
    - {mu0: 0, rank: 2, ndensity: 1, num_ms_combs: 9, mus: [0, 1], ns: [2, 6], ls: [4, 4], ms_combs: [-4, 4, -3, 3, -2, 2, -1, 1, 0, 0, 1, -1, 2, -2, 3, -3, 4, -4], ctildes: [-0.10449205665432808, 0.10449205665432808, -0.10449205665432808, 0.10449205665432808, -0.10449205665432808, 0.10449205665432808, -0.10449205665432808, 0.10449205665432808, -0.10449205665432808]}
    - {mu0: 0, rank: 2, ndensity: 1, num_ms_combs: 9, mus: [1, 1], ns: [2, 6], ls: [4, 4], ms_combs: [-4, 4, -3, 3, -2, 2, -1, 1, 0, 0, 1, -1, 2, -2, 3, -3, 4, -4], ctildes: [0.22822034849710462, -0.22822034849710462, 0.22822034849710462, -0.22822034849710462, 0.22822034849710462, -0.22822034849710462, 0.22822034849710462, -0.22822034849710462, 0.22822034849710462]}
    - {mu0: 0, rank: 2, ndensity: 1, num_ms_combs: 9, mus: [0, 1], ns: [3, 1], ls: [4, 4], ms_combs: [-4, 4, -3, 3, -2, 2, -1, 1, 0, 0, 1, -1, 2, -2, 3, -3, 4, -4], ctildes: [-0.2932508382657426, 0.2932508382657426, -0.2932508382657426, 0.2932508382657426, -0.2932508382657426, 0.2932508382657426, -0.2932508382657426, 0.2932508382657426, -0.2932508382657426]}
    - {mu0: 0, rank: 2, ndensity: 1, num_ms_combs: 9, mus: [0, 1], ns: [3, 2], ls: [4, 4], ms_combs: [-4, 4, -3, 3, -2, 2, -1, 1, 0, 0, 1, -1, 2, -2, 3, -3, 4, -4], ctildes: [0.1127200117172008, -0.1127200117172008, 0.1127200117172008, -0.1127200117172008, 0.1127200117172008, -0.1127200117172008, 0.1127200117172008, -0.1127200117172008, 0.1127200117172008]}
    - {mu0: 0, rank: 2, ndensity: 1, num_ms_combs: 9, mus: [0, 0], ns: [3, 3], ls: [4, 4], ms_combs: [-4, 4, -3, 3, -2, 2, -1, 1, 0, 0, 1, -1, 2, -2, 3, -3, 4, -4], ctildes: [0.38636578941207866, -0.38636578941207866, 0.38636578941207866, -0.38636578941207866, 0.38636578941207866, -0.38636578941207866, 0.38636578941207866, -0.38636578941207866, 0.38636578941207866]}
    - {mu0: 0, rank: 2, ndensity: 1, num_ms_combs: 9, mus: [0, 1], ns: [3, 3], ls: [4, 4], ms_combs: [-4, 4, -3, 3, -2, 2, -1, 1, 0, 0, 1, -1, 2, -2, 3, -3, 4, -4], ctildes: [0.07338195707408271, -0.07338195707408271, 0.07338195707408271, -0.07338195707408271, 0.07338195707408271, -0.07338195707408271, 0.07338195707408271, -0.07338195707408271, 0.07338195707408271]}
    - {mu0: 0, rank: 2, ndensity: 1, num_ms_combs: 9, mus: [1, 1], ns: [3, 3], ls: [4, 4], ms_combs: [-4, 4, -3, 3, -2, 2, -1, 1, 0, 0, 1, -1, 2, -2, 3, -3, 4, -4], ctildes: [-0.028761155518421993, 0.028761155518421993, -0.028761155518421993, 0.028761155518421993, -0.028761155518421993, 0.028761155518421993, -0.028761155518421993, 0.028761155518421993, -0.028761155518421993]}
    - {mu0: 0, rank: 2, ndensity: 1, num_ms_combs: 9, mus: [0, 0], ns: [3, 4], ls: [4, 4], ms_combs: [-4, 4, -3, 3, -2, 2, -1, 1, 0, 0, 1, -1, 2, -2, 3, -3, 4, -4], ctildes: [0.20163870094950662, -0.20163870094950662, 0.20163870094950662, -0.20163870094950662, 0.20163870094950662, -0.20163870094950662, 0.20163870094950662, -0.20163870094950662, 0.20163870094950662]}
    - {mu0: 0, rank: 2, ndensity: 1, num_ms_combs: 9, mus: [0, 1], ns: [3, 4], ls: [4, 4], ms_combs: [-4, 4, -3, 3, -2, 2, -1, 1, 0, 0, 1, -1, 2, -2, 3, -3, 4, -4], ctildes: [-0.03068581293838423, 0.03068581293838423, -0.03068581293838423, 0.03068581293838423, -0.03068581293838423, 0.03068581293838423, -0.03068581293838423, 0.03068581293838423, -0.03068581293838423]}
    - {mu0: 0, rank: 2, ndensity: 1, num_ms_combs: 9, mus: [1, 1], ns: [3, 4], ls: [4, 4], ms_combs: [-4, 4, -3, 3, -2, 2, -1, 1, 0, 0, 1, -1, 2, -2, 3, -3, 4, -4], ctildes: [-0.15062069672713324, 0.15062069672713324, -0.15062069672713324, 0.15062069672713324, -0.15062069672713324, 0.15062069672713324, -0.15062069672713324, 0.15062069672713324, -0.15062069672713324]}
    - {mu0: 0, rank: 2, ndensity: 1, num_ms_combs: 9, mus: [0, 0], ns: [3, 5], ls: [4, 4], ms_combs: [-4, 4, -3, 3, -2, 2, -1, 1, 0, 0, 1, -1, 2, -2, 3, -3, 4, -4], ctildes: [0.21148975333078793, -0.21148975333078793, 0.21148975333078793, -0.21148975333078793, 0.21148975333078793, -0.21148975333078793, 0.21148975333078793, -0.21148975333078793, 0.21148975333078793]}
    - {mu0: 0, rank: 2, ndensity: 1, num_ms_combs: 9, mus: [0, 1], ns: [3, 5], ls: [4, 4], ms_combs: [-4, 4, -3, 3, -2, 2, -1, 1, 0, 0, 1, -1, 2, -2, 3, -3, 4, -4], ctildes: [0.22694630339802604, -0.22694630339802604, 0.22694630339802604, -0.22694630339802604, 0.22694630339802604, -0.22694630339802604, 0.22694630339802604, -0.22694630339802604, 0.22694630339802604]}
    - {mu0: 0, rank: 2, ndensity: 1, num_ms_combs: 9, mus: [1, 1], ns: [3, 5], ls: [4, 4], ms_combs: [-4, 4, -3, 3, -2, 2, -1, 1, 0, 0, 1, -1, 2, -2, 3, -3, 4, -4], ctildes: [-0.10355017957481218, 0.10355017957481218, -0.10355017957481218, 0.10355017957481218, -0.10355017957481218, 0.10355017957481218, -0.10355017957481218, 0.10355017957481218, -0.10355017957481218]}
    - {mu0: 0, rank: 2, ndensity: 1, num_ms_combs: 9, mus: [0, 0], ns: [3, 6], ls: [4, 4], ms_combs: [-4, 4, -3, 3, -2, 2, -1, 1, 0, 0, 1, -1, 2, -2, 3, -3, 4, -4], ctildes: [-0.20770251295682926, 0.20770251295682926, -0.20770251295682926, 0.20770251295682926, -0.20770251295682926, 0.20770251295682926, -0.20770251295682926, 0.20770251295682926, -0.20770251295682926]}
    - {mu0: 0, rank: 2, ndensity: 1, num_ms_combs: 9, mus: [0, 1], ns: [3, 6], ls: [4, 4], ms_combs: [-4, 4, -3, 3, -2, 2, -1, 1, 0, 0, 1, -1, 2, -2, 3, -3, 4, -4], ctildes: [-0.2170551521932154, 0.2170551521932154, -0.2170551521932154, 0.2170551521932154, -0.2170551521932154, 0.2170551521932154, -0.2170551521932154, 0.2170551521932154, -0.2170551521932154]}
    - {mu0: 0, rank: 2, ndensity: 1, num_ms_combs: 9, mus: [1, 1], ns: [3, 6], ls: [4, 4], ms_combs: [-4, 4, -3, 3, -2, 2, -1, 1, 0, 0, 1, -1, 2, -2, 3, -3, 4, -4], ctildes: [0.27871112963488426, -0.27871112963488426, 0.27871112963488426, -0.27871112963488426, 0.27871112963488426, -0.27871112963488426, 0.27871112963488426, -0.27871112963488426, 0.27871112963488426]}
    - {mu0: 0, rank: 2, ndensity: 1, num_ms_combs: 9, mus: [0, 1], ns: [4, 1], ls: [4, 4], ms_combs: [-4, 4, -3, 3, -2, 2, -1, 1, 0, 0, 1, -1, 2, -2, 3, -3, 4, -4], ctildes: [-0.05702326914740457, 0.05702326914740457, -0.05702326914740457, 0.05702326914740457, -0.05702326914740457, 0.05702326914740457, -0.05702326914740457, 0.05702326914740457, -0.05702326914740457]}
    - {mu0: 0, rank: 2, ndensity: 1, num_ms_combs: 9, mus: [0, 1], ns: [4, 2], ls: [4, 4], ms_combs: [-4, 4, -3, 3, -2, 2, -1, 1, 0, 0, 1, -1, 2, -2, 3, -3, 4, -4], ctildes: [0.13851067818121413, -0.13851067818121413, 0.13851067818121413, -0.13851067818121413, 0.13851067818121413, -0.13851067818121413, 0.13851067818121413, -0.13851067818121413, 0.13851067818121413]}
    - {mu0: 0, rank: 2, ndensity: 1, num_ms_combs: 9, mus: [0, 1], ns: [4, 3], ls: [4, 4], ms_combs: [-4, 4, -3, 3, -2, 2, -1, 1, 0, 0, 1, -1, 2, -2, 3, -3, 4, -4], ctildes: [0.12334921381010668, -0.12334921381010668, 0.12334921381010668, -0.12334921381010668, 0.12334921381010668, -0.12334921381010668, 0.12334921381010668, -0.12334921381010668, 0.12334921381010668]}
    - {mu0: 0, rank: 2, ndensity: 1, num_ms_combs: 9, mus: [0, 0], ns: [4, 4], ls: [4, 4], ms_combs: [-4, 4, -3, 3, -2, 2, -1, 1, 0, 0, 1, -1, 2, -2, 3, -3, 4, -4], ctildes: [-0.1271173407896071, 0.1271173407896071, -0.1271173407896071, 0.1271173407896071, -0.1271173407896071, 0.1271173407896071, -0.1271173407896071, 0.1271173407896071, -0.1271173407896071]}
    - {mu0: 0, rank: 2, ndensity: 1, num_ms_combs: 9, mus: [0, 1], ns: [4, 4], ls: [4, 4], ms_combs: [-4, 4, -3, 3, -2, 2, -1, 1, 0, 0, 1, -1, 2, -2, 3, -3, 4, -4], ctildes: [-0.0019692349963963567, 0.0019692349963963567, -0.0019692349963963567, 0.0019692349963963567, -0.0019692349963963567, 0.0019692349963963567, -0.0019692349963963567, 0.0019692349963963567, -0.0019692349963963567]}
    - {mu0: 0, rank: 2, ndensity: 1, num_ms_combs: 9, mus: [1, 1], ns: [4, 4], ls: [4, 4], ms_combs: [-4, 4, -3, 3, -2, 2, -1, 1, 0, 0, 1, -1, 2, -2, 3, -3, 4, -4], ctildes: [0.018986447622241543, -0.018986447622241543, 0.018986447622241543, -0.018986447622241543, 0.018986447622241543, -0.018986447622241543, 0.018986447622241543, -0.018986447622241543, 0.018986447622241543]}
    - {mu0: 0, rank: 2, ndensity: 1, num_ms_combs: 9, mus: [0, 0], ns: [4, 5], ls: [4, 4], ms_combs: [-4, 4, -3, 3, -2, 2, -1, 1, 0, 0, 1, -1, 2, -2, 3, -3, 4, -4], ctildes: [0.09822314609171004, -0.09822314609171004, 0.09822314609171004, -0.09822314609171004, 0.09822314609171004, -0.09822314609171004, 0.09822314609171004, -0.09822314609171004, 0.09822314609171004]}
