elements: [In, P] 
E0: [0.000000, 0.000000] 
deltaSplineBins: 0.001000 
embeddings:
  0: {ndensity: 1, FS_parameters: [1.0, 1.0], npoti: FinnisSinclair, rho_core_cutoff: 100000, drho_core_cutoff: 250}
  1: {ndensity: 1, FS_parameters: [1.0, 1.0], npoti: FinnisSinclair, rho_core_cutoff: 100000, drho_core_cutoff: 250}
bonds:
  [0, 0]: {nradmax: 8, lmax: 6, nradbasemax: 8, radbasename: ChebExpCos, radparameters: [1.737], radcoefficients: [[[1, 0, 0, 0, 0, 0, 0, 0], [1, 0, 0, 0, 0, 0, 0, 0], [1, 0, 0, 0, 0, 0, 0, 0], [1, 0, 0, 0, 0, 0, 0, 0], [1, 0, 0, 0, 0, 0, 0, 0], [1, 0, 0, 0, 0, 0, 0, 0], [1, 0, 0, 0, 0, 0, 0, 0]], [[0, 1, 0, 0, 0, 0, 0, 0], [0, 1, 0, 0, 0, 0, 0, 0], [0, 1, 0, 0, 0, 0, 0, 0], [0, 1, 0, 0, 0, 0, 0, 0], [0, 1, 0, 0, 0, 0, 0, 0], [0, 1, 0, 0, 0, 0, 0, 0], [0, 1, 0, 0, 0, 0, 0, 0]], [[0, 0, 1, 0, 0, 0, 0, 0], [0, 0, 1, 0, 0, 0, 0, 0], [0, 0, 1, 0, 0, 0, 0, 0], [0, 0, 1, 0, 0, 0, 0, 0], [0, 0, 1, 0, 0, 0, 0, 0], [0, 0, 1, 0, 0, 0, 0, 0], [0, 0, 1, 0, 0, 0, 0, 0]], [[0, 0, 0, 1, 0, 0, 0, 0], [0, 0, 0, 1, 0, 0, 0, 0], [0, 0, 0, 1, 0, 0, 0, 0], [0, 0, 0, 1, 0, 0, 0, 0], [0, 0, 0, 1, 0, 0, 0, 0], [0, 0, 0, 1, 0, 0, 0, 0], [0, 0, 0, 1, 0, 0, 0, 0]], [[0, 0, 0, 0, 1, 0, 0, 0], [0, 0, 0, 0, 1, 0, 0, 0], [0, 0, 0, 0, 1, 0, 0, 0], [0, 0, 0, 0, 1, 0, 0, 0], [0, 0, 0, 0, 1, 0, 0, 0], [0, 0, 0, 0, 1, 0, 0, 0], [0, 0, 0, 0, 1, 0, 0, 0]], [[0, 0, 0, 0, 0, 1, 0, 0], [0, 0, 0, 0, 0, 1, 0, 0], [0, 0, 0, 0, 0, 1, 0, 0], [0, 0, 0, 0, 0, 1, 0, 0], [0, 0, 0, 0, 0, 1, 0, 0], [0, 0, 0, 0, 0, 1, 0, 0], [0, 0, 0, 0, 0, 1, 0, 0]], [[0, 0, 0, 0, 0, 0, 1, 0], [0, 0, 0, 0, 0, 0, 1, 0], [0, 0, 0, 0, 0, 0, 1, 0], [0, 0, 0, 0, 0, 0, 1, 0], [0, 0, 0, 0, 0, 0, 1, 0], [0, 0, 0, 0, 0, 0, 1, 0], [0, 0, 0, 0, 0, 0, 1, 0]], [[0, 0, 0, 0, 0, 0, 0, 1], [0, 0, 0, 0, 0, 0, 0, 1], [0, 0, 0, 0, 0, 0, 0, 1], [0, 0, 0, 0, 0, 0, 0, 1], [0, 0, 0, 0, 0, 0, 0, 1], [0, 0, 0, 0, 0, 0, 0, 1], [0, 0, 0, 0, 0, 0, 0, 1]]], prehc: 0, lambdahc: 1.737, rcut: 5.790, dcut: 0.01, rcut_in: 1.705, dcut_in: 0.01, inner_cutoff_type: distance}
  [0, 1]: {nradmax: 8, lmax: 6, nradbasemax: 8, radbasename: ChebExpCos, radparameters: [1.502], radcoefficients: [[[1, 0, 0, 0, 0, 0, 0, 0], [1, 0, 0, 0, 0, 0, 0, 0], [1, 0, 0, 0, 0, 0, 0, 0], [1, 0, 0, 0, 0, 0, 0, 0], [1, 0, 0, 0, 0, 0, 0, 0], [1, 0, 0, 0, 0, 0, 0, 0], [1, 0, 0, 0, 0, 0, 0, 0]], [[0, 1, 0, 0, 0, 0, 0, 0], [0, 1, 0, 0, 0, 0, 0, 0], [0, 1, 0, 0, 0, 0, 0, 0], [0, 1, 0, 0, 0, 0, 0, 0], [0, 1, 0, 0, 0, 0, 0, 0], [0, 1, 0, 0, 0, 0, 0, 0], [0, 1, 0, 0, 0, 0, 0, 0]], [[0, 0, 1, 0, 0, 0, 0, 0], [0, 0, 1, 0, 0, 0, 0, 0], [0, 0, 1, 0, 0, 0, 0, 0], [0, 0, 1, 0, 0, 0, 0, 0], [0, 0, 1, 0, 0, 0, 0, 0], [0, 0, 1, 0, 0, 0, 0, 0], [0, 0, 1, 0, 0, 0, 0, 0]], [[0, 0, 0, 1, 0, 0, 0, 0], [0, 0, 0, 1, 0, 0, 0, 0], [0, 0, 0, 1, 0, 0, 0, 0], [0, 0, 0, 1, 0, 0, 0, 0], [0, 0, 0, 1, 0, 0, 0, 0], [0, 0, 0, 1, 0, 0, 0, 0], [0, 0, 0, 1, 0, 0, 0, 0]], [[0, 0, 0, 0, 1, 0, 0, 0], [0, 0, 0, 0, 1, 0, 0, 0], [0, 0, 0, 0, 1, 0, 0, 0], [0, 0, 0, 0, 1, 0, 0, 0], [0, 0, 0, 0, 1, 0, 0, 0], [0, 0, 0, 0, 1, 0, 0, 0], [0, 0, 0, 0, 1, 0, 0, 0]], [[0, 0, 0, 0, 0, 1, 0, 0], [0, 0, 0, 0, 0, 1, 0, 0], [0, 0, 0, 0, 0, 1, 0, 0], [0, 0, 0, 0, 0, 1, 0, 0], [0, 0, 0, 0, 0, 1, 0, 0], [0, 0, 0, 0, 0, 1, 0, 0], [0, 0, 0, 0, 0, 1, 0, 0]], [[0, 0, 0, 0, 0, 0, 1, 0], [0, 0, 0, 0, 0, 0, 1, 0], [0, 0, 0, 0, 0, 0, 1, 0], [0, 0, 0, 0, 0, 0, 1, 0], [0, 0, 0, 0, 0, 0, 1, 0], [0, 0, 0, 0, 0, 0, 1, 0], [0, 0, 0, 0, 0, 0, 1, 0]], [[0, 0, 0, 0, 0, 0, 0, 1], [0, 0, 0, 0, 0, 0, 0, 1], [0, 0, 0, 0, 0, 0, 0, 1], [0, 0, 0, 0, 0, 0, 0, 1], [0, 0, 0, 0, 0, 0, 0, 1], [0, 0, 0, 0, 0, 0, 0, 1], [0, 0, 0, 0, 0, 0, 0, 1]]], prehc: 0, lambdahc: 1.502, rcut: 5.007, dcut: 0.01, rcut_in: 1.403, dcut_in: 0.01, inner_cutoff_type: distance}
  [1, 0]: {nradmax: 8, lmax: 6, nradbasemax: 8, radbasename: ChebExpCos, radparameters: [1.502], radcoefficients: [[[1, 0, 0, 0, 0, 0, 0, 0], [1, 0, 0, 0, 0, 0, 0, 0], [1, 0, 0, 0, 0, 0, 0, 0], [1, 0, 0, 0, 0, 0, 0, 0], [1, 0, 0, 0, 0, 0, 0, 0], [1, 0, 0, 0, 0, 0, 0, 0], [1, 0, 0, 0, 0, 0, 0, 0]], [[0, 1, 0, 0, 0, 0, 0, 0], [0, 1, 0, 0, 0, 0, 0, 0], [0, 1, 0, 0, 0, 0, 0, 0], [0, 1, 0, 0, 0, 0, 0, 0], [0, 1, 0, 0, 0, 0, 0, 0], [0, 1, 0, 0, 0, 0, 0, 0], [0, 1, 0, 0, 0, 0, 0, 0]], [[0, 0, 1, 0, 0, 0, 0, 0], [0, 0, 1, 0, 0, 0, 0, 0], [0, 0, 1, 0, 0, 0, 0, 0], [0, 0, 1, 0, 0, 0, 0, 0], [0, 0, 1, 0, 0, 0, 0, 0], [0, 0, 1, 0, 0, 0, 0, 0], [0, 0, 1, 0, 0, 0, 0, 0]], [[0, 0, 0, 1, 0, 0, 0, 0], [0, 0, 0, 1, 0, 0, 0, 0], [0, 0, 0, 1, 0, 0, 0, 0], [0, 0, 0, 1, 0, 0, 0, 0], [0, 0, 0, 1, 0, 0, 0, 0], [0, 0, 0, 1, 0, 0, 0, 0], [0, 0, 0, 1, 0, 0, 0, 0]], [[0, 0, 0, 0, 1, 0, 0, 0], [0, 0, 0, 0, 1, 0, 0, 0], [0, 0, 0, 0, 1, 0, 0, 0], [0, 0, 0, 0, 1, 0, 0, 0], [0, 0, 0, 0, 1, 0, 0, 0], [0, 0, 0, 0, 1, 0, 0, 0], [0, 0, 0, 0, 1, 0, 0, 0]], [[0, 0, 0, 0, 0, 1, 0, 0], [0, 0, 0, 0, 0, 1, 0, 0], [0, 0, 0, 0, 0, 1, 0, 0], [0, 0, 0, 0, 0, 1, 0, 0], [0, 0, 0, 0, 0, 1, 0, 0], [0, 0, 0, 0, 0, 1, 0, 0], [0, 0, 0, 0, 0, 1, 0, 0]], [[0, 0, 0, 0, 0, 0, 1, 0], [0, 0, 0, 0, 0, 0, 1, 0], [0, 0, 0, 0, 0, 0, 1, 0], [0, 0, 0, 0, 0, 0, 1, 0], [0, 0, 0, 0, 0, 0, 1, 0], [0, 0, 0, 0, 0, 0, 1, 0], [0, 0, 0, 0, 0, 0, 1, 0]], [[0, 0, 0, 0, 0, 0, 0, 1], [0, 0, 0, 0, 0, 0, 0, 1], [0, 0, 0, 0, 0, 0, 0, 1], [0, 0, 0, 0, 0, 0, 0, 1], [0, 0, 0, 0, 0, 0, 0, 1], [0, 0, 0, 0, 0, 0, 0, 1], [0, 0, 0, 0, 0, 0, 0, 1]]], prehc: 0, lambdahc: 1.502, rcut: 5.007, dcut: 0.01, rcut_in: 1.403, dcut_in: 0.01, inner_cutoff_type: distance}
  [1, 1]: {nradmax: 8, lmax: 6, nradbasemax: 8, radbasename: ChebExpCos, radparameters: [1.267], radcoefficients: [[[1, 0, 0, 0, 0, 0, 0, 0], [1, 0, 0, 0, 0, 0, 0, 0], [1, 0, 0, 0, 0, 0, 0, 0], [1, 0, 0, 0, 0, 0, 0, 0], [1, 0, 0, 0, 0, 0, 0, 0], [1, 0, 0, 0, 0, 0, 0, 0], [1, 0, 0, 0, 0, 0, 0, 0]], [[0, 1, 0, 0, 0, 0, 0, 0], [0, 1, 0, 0, 0, 0, 0, 0], [0, 1, 0, 0, 0, 0, 0, 0], [0, 1, 0, 0, 0, 0, 0, 0], [0, 1, 0, 0, 0, 0, 0, 0], [0, 1, 0, 0, 0, 0, 0, 0], [0, 1, 0, 0, 0, 0, 0, 0]], [[0, 0, 1, 0, 0, 0, 0, 0], [0, 0, 1, 0, 0, 0, 0, 0], [0, 0, 1, 0, 0, 0, 0, 0], [0, 0, 1, 0, 0, 0, 0, 0], [0, 0, 1, 0, 0, 0, 0, 0], [0, 0, 1, 0, 0, 0, 0, 0], [0, 0, 1, 0, 0, 0, 0, 0]], [[0, 0, 0, 1, 0, 0, 0, 0], [0, 0, 0, 1, 0, 0, 0, 0], [0, 0, 0, 1, 0, 0, 0, 0], [0, 0, 0, 1, 0, 0, 0, 0], [0, 0, 0, 1, 0, 0, 0, 0], [0, 0, 0, 1, 0, 0, 0, 0], [0, 0, 0, 1, 0, 0, 0, 0]], [[0, 0, 0, 0, 1, 0, 0, 0], [0, 0, 0, 0, 1, 0, 0, 0], [0, 0, 0, 0, 1, 0, 0, 0], [0, 0, 0, 0, 1, 0, 0, 0], [0, 0, 0, 0, 1, 0, 0, 0], [0, 0, 0, 0, 1, 0, 0, 0], [0, 0, 0, 0, 1, 0, 0, 0]], [[0, 0, 0, 0, 0, 1, 0, 0], [0, 0, 0, 0, 0, 1, 0, 0], [0, 0, 0, 0, 0, 1, 0, 0], [0, 0, 0, 0, 0, 1, 0, 0], [0, 0, 0, 0, 0, 1, 0, 0], [0, 0, 0, 0, 0, 1, 0, 0], [0, 0, 0, 0, 0, 1, 0, 0]], [[0, 0, 0, 0, 0, 0, 1, 0], [0, 0, 0, 0, 0, 0, 1, 0], [0, 0, 0, 0, 0, 0, 1, 0], [0, 0, 0, 0, 0, 0, 1, 0], [0, 0, 0, 0, 0, 0, 1, 0], [0, 0, 0, 0, 0, 0, 1, 0], [0, 0, 0, 0, 0, 0, 1, 0]], [[0, 0, 0, 0, 0, 0, 0, 1], [0, 0, 0, 0, 0, 0, 0, 1], [0, 0, 0, 0, 0, 0, 0, 1], [0, 0, 0, 0, 0, 0, 0, 1], [0, 0, 0, 0, 0, 0, 0, 1], [0, 0, 0, 0, 0, 0, 0, 1], [0, 0, 0, 0, 0, 0, 0, 1]]], prehc: 0, lambdahc: 1.267, rcut: 4.224, dcut: 0.01, rcut_in: 1.100, dcut_in: 0.01, inner_cutoff_type: distance}
functions:
  0:
    - {mu0: 0, rank: 1, ndensity: 1, num_ms_combs: 1, mus: [0], ns: [1], ls: [0], ms_combs: [0], ctildes: [1.0]}
    - {mu0: 0, rank: 1, ndensity: 1, num_ms_combs: 1, mus: [1], ns: [1], ls: [0], ms_combs: [0], ctildes: [1.0]}
    - {mu0: 0, rank: 1, ndensity: 1, num_ms_combs: 1, mus: [0], ns: [2], ls: [0], ms_combs: [0], ctildes: [1.0]}
    - {mu0: 0, rank: 1, ndensity: 1, num_ms_combs: 1, mus: [1], ns: [2], ls: [0], ms_combs: [0], ctildes: [1.0]}
    - {mu0: 0, rank: 1, ndensity: 1, num_ms_combs: 1, mus: [0], ns: [3], ls: [0], ms_combs: [0], ctildes: [1.0]}
    - {mu0: 0, rank: 1, ndensity: 1, num_ms_combs: 1, mus: [1], ns: [3], ls: [0], ms_combs: [0], ctildes: [1.0]}
    - {mu0: 0, rank: 1, ndensity: 1, num_ms_combs: 1, mus: [0], ns: [4], ls: [0], ms_combs: [0], ctildes: [1.0]}
    - {mu0: 0, rank: 1, ndensity: 1, num_ms_combs: 1, mus: [1], ns: [4], ls: [0], ms_combs: [0], ctildes: [1.0]}
    - {mu0: 0, rank: 1, ndensity: 1, num_ms_combs: 1, mus: [0], ns: [5], ls: [0], ms_combs: [0], ctildes: [1.0]}
    - {mu0: 0, rank: 1, ndensity: 1, num_ms_combs: 1, mus: [1], ns: [5], ls: [0], ms_combs: [0], ctildes: [1.0]}
    - {mu0: 0, rank: 1, ndensity: 1, num_ms_combs: 1, mus: [0], ns: [6], ls: [0], ms_combs: [0], ctildes: [1.0]}
    - {mu0: 0, rank: 1, ndensity: 1, num_ms_combs: 1, mus: [1], ns: [6], ls: [0], ms_combs: [0], ctildes: [1.0]}
    - {mu0: 0, rank: 1, ndensity: 1, num_ms_combs: 1, mus: [0], ns: [7], ls: [0], ms_combs: [0], ctildes: [1.0]}
    - {mu0: 0, rank: 1, ndensity: 1, num_ms_combs: 1, mus: [1], ns: [7], ls: [0], ms_combs: [0], ctildes: [1.0]}
    - {mu0: 0, rank: 1, ndensity: 1, num_ms_combs: 1, mus: [0], ns: [8], ls: [0], ms_combs: [0], ctildes: [1.0]}
    - {mu0: 0, rank: 1, ndensity: 1, num_ms_combs: 1, mus: [1], ns: [8], ls: [0], ms_combs: [0], ctildes: [1.0]}
    - {mu0: 0, rank: 2, ndensity: 1, num_ms_combs: 1, mus: [0, 0], ns: [1, 1], ls: [0, 0], ms_combs: [0, 0], ctildes: [1.0]}
    - {mu0: 0, rank: 2, ndensity: 1, num_ms_combs: 1, mus: [0, 1], ns: [1, 1], ls: [0, 0], ms_combs: [0, 0], ctildes: [1.0]}
    - {mu0: 0, rank: 2, ndensity: 1, num_ms_combs: 1, mus: [1, 1], ns: [1, 1], ls: [0, 0], ms_combs: [0, 0], ctildes: [1.0]}
    - {mu0: 0, rank: 2, ndensity: 1, num_ms_combs: 1, mus: [0, 0], ns: [1, 2], ls: [0, 0], ms_combs: [0, 0], ctildes: [1.0]}
    - {mu0: 0, rank: 2, ndensity: 1, num_ms_combs: 1, mus: [0, 1], ns: [1, 2], ls: [0, 0], ms_combs: [0, 0], ctildes: [1.0]}
    - {mu0: 0, rank: 2, ndensity: 1, num_ms_combs: 1, mus: [1, 1], ns: [1, 2], ls: [0, 0], ms_combs: [0, 0], ctildes: [1.0]}
    - {mu0: 0, rank: 2, ndensity: 1, num_ms_combs: 1, mus: [0, 0], ns: [1, 3], ls: [0, 0], ms_combs: [0, 0], ctildes: [1.0]}
    - {mu0: 0, rank: 2, ndensity: 1, num_ms_combs: 1, mus: [0, 1], ns: [1, 3], ls: [0, 0], ms_combs: [0, 0], ctildes: [1.0]}
    - {mu0: 0, rank: 2, ndensity: 1, num_ms_combs: 1, mus: [1, 1], ns: [1, 3], ls: [0, 0], ms_combs: [0, 0], ctildes: [1.0]}
    - {mu0: 0, rank: 2, ndensity: 1, num_ms_combs: 1, mus: [0, 0], ns: [1, 4], ls: [0, 0], ms_combs: [0, 0], ctildes: [1.0]}
    - {mu0: 0, rank: 2, ndensity: 1, num_ms_combs: 1, mus: [0, 1], ns: [1, 4], ls: [0, 0], ms_combs: [0, 0], ctildes: [1.0]}
    - {mu0: 0, rank: 2, ndensity: 1, num_ms_combs: 1, mus: [1, 1], ns: [1, 4], ls: [0, 0], ms_combs: [0, 0], ctildes: [1.0]}
    - {mu0: 0, rank: 2, ndensity: 1, num_ms_combs: 1, mus: [0, 0], ns: [1, 5], ls: [0, 0], ms_combs: [0, 0], ctildes: [1.0]}
    - {mu0: 0, rank: 2, ndensity: 1, num_ms_combs: 1, mus: [0, 1], ns: [1, 5], ls: [0, 0], ms_combs: [0, 0], ctildes: [1.0]}
    - {mu0: 0, rank: 2, ndensity: 1, num_ms_combs: 1, mus: [1, 1], ns: [1, 5], ls: [0, 0], ms_combs: [0, 0], ctildes: [1.0]}
    - {mu0: 0, rank: 2, ndensity: 1, num_ms_combs: 1, mus: [0, 0], ns: [1, 6], ls: [0, 0], ms_combs: [0, 0], ctildes: [1.0]}
    - {mu0: 0, rank: 2, ndensity: 1, num_ms_combs: 1, mus: [0, 1], ns: [1, 6], ls: [0, 0], ms_combs: [0, 0], ctildes: [1.0]}
    - {mu0: 0, rank: 2, ndensity: 1, num_ms_combs: 1, mus: [1, 1], ns: [1, 6], ls: [0, 0], ms_combs: [0, 0], ctildes: [1.0]}
    - {mu0: 0, rank: 2, ndensity: 1, num_ms_combs: 1, mus: [0, 1], ns: [2, 1], ls: [0, 0], ms_combs: [0, 0], ctildes: [1.0]}
    - {mu0: 0, rank: 2, ndensity: 1, num_ms_combs: 1, mus: [0, 0], ns: [2, 2], ls: [0, 0], ms_combs: [0, 0], ctildes: [1.0]}
    - {mu0: 0, rank: 2, ndensity: 1, num_ms_combs: 1, mus: [0, 1], ns: [2, 2], ls: [0, 0], ms_combs: [0, 0], ctildes: [1.0]}
    - {mu0: 0, rank: 2, ndensity: 1, num_ms_combs: 1, mus: [1, 1], ns: [2, 2], ls: [0, 0], ms_combs: [0, 0], ctildes: [1.0]}
    - {mu0: 0, rank: 2, ndensity: 1, num_ms_combs: 1, mus: [0, 0], ns: [2, 3], ls: [0, 0], ms_combs: [0, 0], ctildes: [1.0]}
    - {mu0: 0, rank: 2, ndensity: 1, num_ms_combs: 1, mus: [0, 1], ns: [2, 3], ls: [0, 0], ms_combs: [0, 0], ctildes: [1.0]}
    - {mu0: 0, rank: 2, ndensity: 1, num_ms_combs: 1, mus: [1, 1], ns: [2, 3], ls: [0, 0], ms_combs: [0, 0], ctildes: [1.0]}
    - {mu0: 0, rank: 2, ndensity: 1, num_ms_combs: 1, mus: [0, 0], ns: [2, 4], ls: [0, 0], ms_combs: [0, 0], ctildes: [1.0]}
    - {mu0: 0, rank: 2, ndensity: 1, num_ms_combs: 1, mus: [0, 1], ns: [2, 4], ls: [0, 0], ms_combs: [0, 0], ctildes: [1.0]}
    - {mu0: 0, rank: 2, ndensity: 1, num_ms_combs: 1, mus: [1, 1], ns: [2, 4], ls: [0, 0], ms_combs: [0, 0], ctildes: [1.0]}
    - {mu0: 0, rank: 2, ndensity: 1, num_ms_combs: 1, mus: [0, 0], ns: [2, 5], ls: [0, 0], ms_combs: [0, 0], ctildes: [1.0]}
    - {mu0: 0, rank: 2, ndensity: 1, num_ms_combs: 1, mus: [0, 1], ns: [2, 5], ls: [0, 0], ms_combs: [0, 0], ctildes: [1.0]}
    - {mu0: 0, rank: 2, ndensity: 1, num_ms_combs: 1, mus: [1, 1], ns: [2, 5], ls: [0, 0], ms_combs: [0, 0], ctildes: [1.0]}
    - {mu0: 0, rank: 2, ndensity: 1, num_ms_combs: 1, mus: [0, 0], ns: [2, 6], ls: [0, 0], ms_combs: [0, 0], ctildes: [1.0]}
    - {mu0: 0, rank: 2, ndensity: 1, num_ms_combs: 1, mus: [0, 1], ns: [2, 6], ls: [0, 0], ms_combs: [0, 0], ctildes: [1.0]}
    - {mu0: 0, rank: 2, ndensity: 1, num_ms_combs: 1, mus: [1, 1], ns: [2, 6], ls: [0, 0], ms_combs: [0, 0], ctildes: [1.0]}
    - {mu0: 0, rank: 2, ndensity: 1, num_ms_combs: 1, mus: [0, 1], ns: [3, 1], ls: [0, 0], ms_combs: [0, 0], ctildes: [1.0]}
    - {mu0: 0, rank: 2, ndensity: 1, num_ms_combs: 1, mus: [0, 1], ns: [3, 2], ls: [0, 0], ms_combs: [0, 0], ctildes: [1.0]}
    - {mu0: 0, rank: 2, ndensity: 1, num_ms_combs: 1, mus: [0, 0], ns: [3, 3], ls: [0, 0], ms_combs: [0, 0], ctildes: [1.0]}
    - {mu0: 0, rank: 2, ndensity: 1, num_ms_combs: 1, mus: [0, 1], ns: [3, 3], ls: [0, 0], ms_combs: [0, 0], ctildes: [1.0]}
    - {mu0: 0, rank: 2, ndensity: 1, num_ms_combs: 1, mus: [1, 1], ns: [3, 3], ls: [0, 0], ms_combs: [0, 0], ctildes: [1.0]}
    - {mu0: 0, rank: 2, ndensity: 1, num_ms_combs: 1, mus: [0, 0], ns: [3, 4], ls: [0, 0], ms_combs: [0, 0], ctildes: [1.0]}
    - {mu0: 0, rank: 2, ndensity: 1, num_ms_combs: 1, mus: [0, 1], ns: [3, 4], ls: [0, 0], ms_combs: [0, 0], ctildes: [1.0]}
    - {mu0: 0, rank: 2, ndensity: 1, num_ms_combs: 1, mus: [1, 1], ns: [3, 4], ls: [0, 0], ms_combs: [0, 0], ctildes: [1.0]}
    - {mu0: 0, rank: 2, ndensity: 1, num_ms_combs: 1, mus: [0, 0], ns: [3, 5], ls: [0, 0], ms_combs: [0, 0], ctildes: [1.0]}
    - {mu0: 0, rank: 2, ndensity: 1, num_ms_combs: 1, mus: [0, 1], ns: [3, 5], ls: [0, 0], ms_combs: [0, 0], ctildes: [1.0]}
    - {mu0: 0, rank: 2, ndensity: 1, num_ms_combs: 1, mus: [1, 1], ns: [3, 5], ls: [0, 0], ms_combs: [0, 0], ctildes: [1.0]}
    - {mu0: 0, rank: 2, ndensity: 1, num_ms_combs: 1, mus: [0, 0], ns: [3, 6], ls: [0, 0], ms_combs: [0, 0], ctildes: [1.0]}
    - {mu0: 0, rank: 2, ndensity: 1, num_ms_combs: 1, mus: [0, 1], ns: [3, 6], ls: [0, 0], ms_combs: [0, 0], ctildes: [1.0]}
    - {mu0: 0, rank: 2, ndensity: 1, num_ms_combs: 1, mus: [1, 1], ns: [3, 6], ls: [0, 0], ms_combs: [0, 0], ctildes: [1.0]}
    - {mu0: 0, rank: 2, ndensity: 1, num_ms_combs: 1, mus: [0, 1], ns: [4, 1], ls: [0, 0], ms_combs: [0, 0], ctildes: [1.0]}
    - {mu0: 0, rank: 2, ndensity: 1, num_ms_combs: 1, mus: [0, 1], ns: [4, 2], ls: [0, 0], ms_combs: [0, 0], ctildes: [1.0]}
    - {mu0: 0, rank: 2, ndensity: 1, num_ms_combs: 1, mus: [0, 1], ns: [4, 3], ls: [0, 0], ms_combs: [0, 0], ctildes: [1.0]}
    - {mu0: 0, rank: 2, ndensity: 1, num_ms_combs: 1, mus: [0, 0], ns: [4, 4], ls: [0, 0], ms_combs: [0, 0], ctildes: [1.0]}
    - {mu0: 0, rank: 2, ndensity: 1, num_ms_combs: 1, mus: [0, 1], ns: [4, 4], ls: [0, 0], ms_combs: [0, 0], ctildes: [1.0]}
    - {mu0: 0, rank: 2, ndensity: 1, num_ms_combs: 1, mus: [1, 1], ns: [4, 4], ls: [0, 0], ms_combs: [0, 0], ctildes: [1.0]}
    - {mu0: 0, rank: 2, ndensity: 1, num_ms_combs: 1, mus: [0, 0], ns: [4, 5], ls: [0, 0], ms_combs: [0, 0], ctildes: [1.0]}
    - {mu0: 0, rank: 2, ndensity: 1, num_ms_combs: 1, mus: [0, 1], ns: [4, 5], ls: [0, 0], ms_combs: [0, 0], ctildes: [1.0]}
    - {mu0: 0, rank: 2, ndensity: 1, num_ms_combs: 1, mus: [1, 1], ns: [4, 5], ls: [0, 0], ms_combs: [0, 0], ctildes: [1.0]}
    - {mu0: 0, rank: 2, ndensity: 1, num_ms_combs: 1, mus: [0, 0], ns: [4, 6], ls: [0, 0], ms_combs: [0, 0], ctildes: [1.0]}
    - {mu0: 0, rank: 2, ndensity: 1, num_ms_combs: 1, mus: [0, 1], ns: [4, 6], ls: [0, 0], ms_combs: [0, 0], ctildes: [1.0]}
    - {mu0: 0, rank: 2, ndensity: 1, num_ms_combs: 1, mus: [1, 1], ns: [4, 6], ls: [0, 0], ms_combs: [0, 0], ctildes: [1.0]}
    - {mu0: 0, rank: 2, ndensity: 1, num_ms_combs: 1, mus: [0, 1], ns: [5, 1], ls: [0, 0], ms_combs: [0, 0], ctildes: [1.0]}
    - {mu0: 0, rank: 2, ndensity: 1, num_ms_combs: 1, mus: [0, 1], ns: [5, 2], ls: [0, 0], ms_combs: [0, 0], ctildes: [1.0]}
    - {mu0: 0, rank: 2, ndensity: 1, num_ms_combs: 1, mus: [0, 1], ns: [5, 3], ls: [0, 0], ms_combs: [0, 0], ctildes: [1.0]}
    - {mu0: 0, rank: 2, ndensity: 1, num_ms_combs: 1, mus: [0, 1], ns: [5, 4], ls: [0, 0], ms_combs: [0, 0], ctildes: [1.0]}
    - {mu0: 0, rank: 2, ndensity: 1, num_ms_combs: 1, mus: [0, 0], ns: [5, 5], ls: [0, 0], ms_combs: [0, 0], ctildes: [1.0]}
    - {mu0: 0, rank: 2, ndensity: 1, num_ms_combs: 1, mus: [0, 1], ns: [5, 5], ls: [0, 0], ms_combs: [0, 0], ctildes: [1.0]}
    - {mu0: 0, rank: 2, ndensity: 1, num_ms_combs: 1, mus: [1, 1], ns: [5, 5], ls: [0, 0], ms_combs: [0, 0], ctildes: [1.0]}
    - {mu0: 0, rank: 2, ndensity: 1, num_ms_combs: 1, mus: [0, 0], ns: [5, 6], ls: [0, 0], ms_combs: [0, 0], ctildes: [1.0]}
    - {mu0: 0, rank: 2, ndensity: 1, num_ms_combs: 1, mus: [0, 1], ns: [5, 6], ls: [0, 0], ms_combs: [0, 0], ctildes: [1.0]}
    - {mu0: 0, rank: 2, ndensity: 1, num_ms_combs: 1, mus: [1, 1], ns: [5, 6], ls: [0, 0], ms_combs: [0, 0], ctildes: [1.0]}
    - {mu0: 0, rank: 2, ndensity: 1, num_ms_combs: 1, mus: [0, 1], ns: [6, 1], ls: [0, 0], ms_combs: [0, 0], ctildes: [1.0]}
    - {mu0: 0, rank: 2, ndensity: 1, num_ms_combs: 1, mus: [0, 1], ns: [6, 2], ls: [0, 0], ms_combs: [0, 0], ctildes: [1.0]}
    - {mu0: 0, rank: 2, ndensity: 1, num_ms_combs: 1, mus: [0, 1], ns: [6, 3], ls: [0, 0], ms_combs: [0, 0], ctildes: [1.0]}
    - {mu0: 0, rank: 2, ndensity: 1, num_ms_combs: 1, mus: [0, 1], ns: [6, 4], ls: [0, 0], ms_combs: [0, 0], ctildes: [1.0]}
    - {mu0: 0, rank: 2, ndensity: 1, num_ms_combs: 1, mus: [0, 1], ns: [6, 5], ls: [0, 0], ms_combs: [0, 0], ctildes: [1.0]}
    - {mu0: 0, rank: 2, ndensity: 1, num_ms_combs: 1, mus: [0, 0], ns: [6, 6], ls: [0, 0], ms_combs: [0, 0], ctildes: [1.0]}
    - {mu0: 0, rank: 2, ndensity: 1, num_ms_combs: 1, mus: [0, 1], ns: [6, 6], ls: [0, 0], ms_combs: [0, 0], ctildes: [1.0]}
    - {mu0: 0, rank: 2, ndensity: 1, num_ms_combs: 1, mus: [1, 1], ns: [6, 6], ls: [0, 0], ms_combs: [0, 0], ctildes: [1.0]}
    - {mu0: 0, rank: 2, ndensity: 1, num_ms_combs: 3, mus: [0, 0], ns: [1, 1], ls: [1, 1], ms_combs: [-1, 1, 0, 0, 1, -1], ctildes: [0.5773502588272095, -0.5773502588272095, 0.5773502588272095]}
    - {mu0: 0, rank: 2, ndensity: 1, num_ms_combs: 3, mus: [0, 1], ns: [1, 1], ls: [1, 1], ms_combs: [-1, 1, 0, 0, 1, -1], ctildes: [0.5773502588272095, -0.5773502588272095, 0.5773502588272095]}
    - {mu0: 0, rank: 2, ndensity: 1, num_ms_combs: 3, mus: [1, 1], ns: [1, 1], ls: [1, 1], ms_combs: [-1, 1, 0, 0, 1, -1], ctildes: [0.5773502588272095, -0.5773502588272095, 0.5773502588272095]}
    - {mu0: 0, rank: 2, ndensity: 1, num_ms_combs: 3, mus: [0, 0], ns: [1, 2], ls: [1, 1], ms_combs: [-1, 1, 0, 0, 1, -1], ctildes: [0.5773502588272095, -0.5773502588272095, 0.5773502588272095]}
    - {mu0: 0, rank: 2, ndensity: 1, num_ms_combs: 3, mus: [0, 1], ns: [1, 2], ls: [1, 1], ms_combs: [-1, 1, 0, 0, 1, -1], ctildes: [0.5773502588272095, -0.5773502588272095, 0.5773502588272095]}
    - {mu0: 0, rank: 2, ndensity: 1, num_ms_combs: 3, mus: [1, 1], ns: [1, 2], ls: [1, 1], ms_combs: [-1, 1, 0, 0, 1, -1], ctildes: [0.5773502588272095, -0.5773502588272095, 0.5773502588272095]}
    - {mu0: 0, rank: 2, ndensity: 1, num_ms_combs: 3, mus: [0, 0], ns: [1, 3], ls: [1, 1], ms_combs: [-1, 1, 0, 0, 1, -1], ctildes: [0.5773502588272095, -0.5773502588272095, 0.5773502588272095]}
    - {mu0: 0, rank: 2, ndensity: 1, num_ms_combs: 3, mus: [0, 1], ns: [1, 3], ls: [1, 1], ms_combs: [-1, 1, 0, 0, 1, -1], ctildes: [0.5773502588272095, -0.5773502588272095, 0.5773502588272095]}
    - {mu0: 0, rank: 2, ndensity: 1, num_ms_combs: 3, mus: [1, 1], ns: [1, 3], ls: [1, 1], ms_combs: [-1, 1, 0, 0, 1, -1], ctildes: [0.5773502588272095, -0.5773502588272095, 0.5773502588272095]}
    - {mu0: 0, rank: 2, ndensity: 1, num_ms_combs: 3, mus: [0, 0], ns: [1, 4], ls: [1, 1], ms_combs: [-1, 1, 0, 0, 1, -1], ctildes: [0.5773502588272095, -0.5773502588272095, 0.5773502588272095]}
    - {mu0: 0, rank: 2, ndensity: 1, num_ms_combs: 3, mus: [0, 1], ns: [1, 4], ls: [1, 1], ms_combs: [-1, 1, 0, 0, 1, -1], ctildes: [0.5773502588272095, -0.5773502588272095, 0.5773502588272095]}
    - {mu0: 0, rank: 2, ndensity: 1, num_ms_combs: 3, mus: [1, 1], ns: [1, 4], ls: [1, 1], ms_combs: [-1, 1, 0, 0, 1, -1], ctildes: [0.5773502588272095, -0.5773502588272095, 0.5773502588272095]}
    - {mu0: 0, rank: 2, ndensity: 1, num_ms_combs: 3, mus: [0, 0], ns: [1, 5], ls: [1, 1], ms_combs: [-1, 1, 0, 0, 1, -1], ctildes: [0.5773502588272095, -0.5773502588272095, 0.5773502588272095]}
    - {mu0: 0, rank: 2, ndensity: 1, num_ms_combs: 3, mus: [0, 1], ns: [1, 5], ls: [1, 1], ms_combs: [-1, 1, 0, 0, 1, -1], ctildes: [0.5773502588272095, -0.5773502588272095, 0.5773502588272095]}
    - {mu0: 0, rank: 2, ndensity: 1, num_ms_combs: 3, mus: [1, 1], ns: [1, 5], ls: [1, 1], ms_combs: [-1, 1, 0, 0, 1, -1], ctildes: [0.5773502588272095, -0.5773502588272095, 0.5773502588272095]}
    - {mu0: 0, rank: 2, ndensity: 1, num_ms_combs: 3, mus: [0, 0], ns: [1, 6], ls: [1, 1], ms_combs: [-1, 1, 0, 0, 1, -1], ctildes: [0.5773502588272095, -0.5773502588272095, 0.5773502588272095]}
    - {mu0: 0, rank: 2, ndensity: 1, num_ms_combs: 3, mus: [0, 1], ns: [1, 6], ls: [1, 1], ms_combs: [-1, 1, 0, 0, 1, -1], ctildes: [0.5773502588272095, -0.5773502588272095, 0.5773502588272095]}
    - {mu0: 0, rank: 2, ndensity: 1, num_ms_combs: 3, mus: [1, 1], ns: [1, 6], ls: [1, 1], ms_combs: [-1, 1, 0, 0, 1, -1], ctildes: [0.5773502588272095, -0.5773502588272095, 0.5773502588272095]}
    - {mu0: 0, rank: 2, ndensity: 1, num_ms_combs: 3, mus: [0, 1], ns: [2, 1], ls: [1, 1], ms_combs: [-1, 1, 0, 0, 1, -1], ctildes: [0.5773502588272095, -0.5773502588272095, 0.5773502588272095]}
    - {mu0: 0, rank: 2, ndensity: 1, num_ms_combs: 3, mus: [0, 0], ns: [2, 2], ls: [1, 1], ms_combs: [-1, 1, 0, 0, 1, -1], ctildes: [0.5773502588272095, -0.5773502588272095, 0.5773502588272095]}
    - {mu0: 0, rank: 2, ndensity: 1, num_ms_combs: 3, mus: [0, 1], ns: [2, 2], ls: [1, 1], ms_combs: [-1, 1, 0, 0, 1, -1], ctildes: [0.5773502588272095, -0.5773502588272095, 0.5773502588272095]}
    - {mu0: 0, rank: 2, ndensity: 1, num_ms_combs: 3, mus: [1, 1], ns: [2, 2], ls: [1, 1], ms_combs: [-1, 1, 0, 0, 1, -1], ctildes: [0.5773502588272095, -0.5773502588272095, 0.5773502588272095]}
    - {mu0: 0, rank: 2, ndensity: 1, num_ms_combs: 3, mus: [0, 0], ns: [2, 3], ls: [1, 1], ms_combs: [-1, 1, 0, 0, 1, -1], ctildes: [0.5773502588272095, -0.5773502588272095, 0.5773502588272095]}
    - {mu0: 0, rank: 2, ndensity: 1, num_ms_combs: 3, mus: [0, 1], ns: [2, 3], ls: [1, 1], ms_combs: [-1, 1, 0, 0, 1, -1], ctildes: [0.5773502588272095, -0.5773502588272095, 0.5773502588272095]}
    - {mu0: 0, rank: 2, ndensity: 1, num_ms_combs: 3, mus: [1, 1], ns: [2, 3], ls: [1, 1], ms_combs: [-1, 1, 0, 0, 1, -1], ctildes: [0.5773502588272095, -0.5773502588272095, 0.5773502588272095]}
    - {mu0: 0, rank: 2, ndensity: 1, num_ms_combs: 3, mus: [0, 0], ns: [2, 4], ls: [1, 1], ms_combs: [-1, 1, 0, 0, 1, -1], ctildes: [0.5773502588272095, -0.5773502588272095, 0.5773502588272095]}
    - {mu0: 0, rank: 2, ndensity: 1, num_ms_combs: 3, mus: [0, 1], ns: [2, 4], ls: [1, 1], ms_combs: [-1, 1, 0, 0, 1, -1], ctildes: [0.5773502588272095, -0.5773502588272095, 0.5773502588272095]}
    - {mu0: 0, rank: 2, ndensity: 1, num_ms_combs: 3, mus: [1, 1], ns: [2, 4], ls: [1, 1], ms_combs: [-1, 1, 0, 0, 1, -1], ctildes: [0.5773502588272095, -0.5773502588272095, 0.5773502588272095]}
    - {mu0: 0, rank: 2, ndensity: 1, num_ms_combs: 3, mus: [0, 0], ns: [2, 5], ls: [1, 1], ms_combs: [-1, 1, 0, 0, 1, -1], ctildes: [0.5773502588272095, -0.5773502588272095, 0.5773502588272095]}
    - {mu0: 0, rank: 2, ndensity: 1, num_ms_combs: 3, mus: [0, 1], ns: [2, 5], ls: [1, 1], ms_combs: [-1, 1, 0, 0, 1, -1], ctildes: [0.5773502588272095, -0.5773502588272095, 0.5773502588272095]}
    - {mu0: 0, rank: 2, ndensity: 1, num_ms_combs: 3, mus: [1, 1], ns: [2, 5], ls: [1, 1], ms_combs: [-1, 1, 0, 0, 1, -1], ctildes: [0.5773502588272095, -0.5773502588272095, 0.5773502588272095]}
    - {mu0: 0, rank: 2, ndensity: 1, num_ms_combs: 3, mus: [0, 0], ns: [2, 6], ls: [1, 1], ms_combs: [-1, 1, 0, 0, 1, -1], ctildes: [0.5773502588272095, -0.5773502588272095, 0.5773502588272095]}
    - {mu0: 0, rank: 2, ndensity: 1, num_ms_combs: 3, mus: [0, 1], ns: [2, 6], ls: [1, 1], ms_combs: [-1, 1, 0, 0, 1, -1], ctildes: [0.5773502588272095, -0.5773502588272095, 0.5773502588272095]}
    - {mu0: 0, rank: 2, ndensity: 1, num_ms_combs: 3, mus: [1, 1], ns: [2, 6], ls: [1, 1], ms_combs: [-1, 1, 0, 0, 1, -1], ctildes: [0.5773502588272095, -0.5773502588272095, 0.5773502588272095]}
    - {mu0: 0, rank: 2, ndensity: 1, num_ms_combs: 3, mus: [0, 1], ns: [3, 1], ls: [1, 1], ms_combs: [-1, 1, 0, 0, 1, -1], ctildes: [0.5773502588272095, -0.5773502588272095, 0.5773502588272095]}
    - {mu0: 0, rank: 2, ndensity: 1, num_ms_combs: 3, mus: [0, 1], ns: [3, 2], ls: [1, 1], ms_combs: [-1, 1, 0, 0, 1, -1], ctildes: [0.5773502588272095, -0.5773502588272095, 0.5773502588272095]}
    - {mu0: 0, rank: 2, ndensity: 1, num_ms_combs: 3, mus: [0, 0], ns: [3, 3], ls: [1, 1], ms_combs: [-1, 1, 0, 0, 1, -1], ctildes: [0.5773502588272095, -0.5773502588272095, 0.5773502588272095]}
    - {mu0: 0, rank: 2, ndensity: 1, num_ms_combs: 3, mus: [0, 1], ns: [3, 3], ls: [1, 1], ms_combs: [-1, 1, 0, 0, 1, -1], ctildes: [0.5773502588272095, -0.5773502588272095, 0.5773502588272095]}
    - {mu0: 0, rank: 2, ndensity: 1, num_ms_combs: 3, mus: [1, 1], ns: [3, 3], ls: [1, 1], ms_combs: [-1, 1, 0, 0, 1, -1], ctildes: [0.5773502588272095, -0.5773502588272095, 0.5773502588272095]}
    - {mu0: 0, rank: 2, ndensity: 1, num_ms_combs: 3, mus: [0, 0], ns: [3, 4], ls: [1, 1], ms_combs: [-1, 1, 0, 0, 1, -1], ctildes: [0.5773502588272095, -0.5773502588272095, 0.5773502588272095]}
    - {mu0: 0, rank: 2, ndensity: 1, num_ms_combs: 3, mus: [0, 1], ns: [3, 4], ls: [1, 1], ms_combs: [-1, 1, 0, 0, 1, -1], ctildes: [0.5773502588272095, -0.5773502588272095, 0.5773502588272095]}
    - {mu0: 0, rank: 2, ndensity: 1, num_ms_combs: 3, mus: [1, 1], ns: [3, 4], ls: [1, 1], ms_combs: [-1, 1, 0, 0, 1, -1], ctildes: [0.5773502588272095, -0.5773502588272095, 0.5773502588272095]}
    - {mu0: 0, rank: 2, ndensity: 1, num_ms_combs: 3, mus: [0, 0], ns: [3, 5], ls: [1, 1], ms_combs: [-1, 1, 0, 0, 1, -1], ctildes: [0.5773502588272095, -0.5773502588272095, 0.5773502588272095]}
    - {mu0: 0, rank: 2, ndensity: 1, num_ms_combs: 3, mus: [0, 1], ns: [3, 5], ls: [1, 1], ms_combs: [-1, 1, 0, 0, 1, -1], ctildes: [0.5773502588272095, -0.5773502588272095, 0.5773502588272095]}
    - {mu0: 0, rank: 2, ndensity: 1, num_ms_combs: 3, mus: [1, 1], ns: [3, 5], ls: [1, 1], ms_combs: [-1, 1, 0, 0, 1, -1], ctildes: [0.5773502588272095, -0.5773502588272095, 0.5773502588272095]}
    - {mu0: 0, rank: 2, ndensity: 1, num_ms_combs: 3, mus: [0, 0], ns: [3, 6], ls: [1, 1], ms_combs: [-1, 1, 0, 0, 1, -1], ctildes: [0.5773502588272095, -0.5773502588272095, 0.5773502588272095]}
    - {mu0: 0, rank: 2, ndensity: 1, num_ms_combs: 3, mus: [0, 1], ns: [3, 6], ls: [1, 1], ms_combs: [-1, 1, 0, 0, 1, -1], ctildes: [0.5773502588272095, -0.5773502588272095, 0.5773502588272095]}
    - {mu0: 0, rank: 2, ndensity: 1, num_ms_combs: 3, mus: [1, 1], ns: [3, 6], ls: [1, 1], ms_combs: [-1, 1, 0, 0, 1, -1], ctildes: [0.5773502588272095, -0.5773502588272095, 0.5773502588272095]}
    - {mu0: 0, rank: 2, ndensity: 1, num_ms_combs: 3, mus: [0, 1], ns: [4, 1], ls: [1, 1], ms_combs: [-1, 1, 0, 0, 1, -1], ctildes: [0.5773502588272095, -0.5773502588272095, 0.5773502588272095]}
    - {mu0: 0, rank: 2, ndensity: 1, num_ms_combs: 3, mus: [0, 1], ns: [4, 2], ls: [1, 1], ms_combs: [-1, 1, 0, 0, 1, -1], ctildes: [0.5773502588272095, -0.5773502588272095, 0.5773502588272095]}
    - {mu0: 0, rank: 2, ndensity: 1, num_ms_combs: 3, mus: [0, 1], ns: [4, 3], ls: [1, 1], ms_combs: [-1, 1, 0, 0, 1, -1], ctildes: [0.5773502588272095, -0.5773502588272095, 0.5773502588272095]}
    - {mu0: 0, rank: 2, ndensity: 1, num_ms_combs: 3, mus: [0, 0], ns: [4, 4], ls: [1, 1], ms_combs: [-1, 1, 0, 0, 1, -1], ctildes: [0.5773502588272095, -0.5773502588272095, 0.5773502588272095]}
    - {mu0: 0, rank: 2, ndensity: 1, num_ms_combs: 3, mus: [0, 1], ns: [4, 4], ls: [1, 1], ms_combs: [-1, 1, 0, 0, 1, -1], ctildes: [0.5773502588272095, -0.5773502588272095, 0.5773502588272095]}
    - {mu0: 0, rank: 2, ndensity: 1, num_ms_combs: 3, mus: [1, 1], ns: [4, 4], ls: [1, 1], ms_combs: [-1, 1, 0, 0, 1, -1], ctildes: [0.5773502588272095, -0.5773502588272095, 0.5773502588272095]}
    - {mu0: 0, rank: 2, ndensity: 1, num_ms_combs: 3, mus: [0, 0], ns: [4, 5], ls: [1, 1], ms_combs: [-1, 1, 0, 0, 1, -1], ctildes: [0.5773502588272095, -0.5773502588272095, 0.5773502588272095]}
    - {mu0: 0, rank: 2, ndensity: 1, num_ms_combs: 3, mus: [0, 1], ns: [4, 5], ls: [1, 1], ms_combs: [-1, 1, 0, 0, 1, -1], ctildes: [0.5773502588272095, -0.5773502588272095, 0.5773502588272095]}
    - {mu0: 0, rank: 2, ndensity: 1, num_ms_combs: 3, mus: [1, 1], ns: [4, 5], ls: [1, 1], ms_combs: [-1, 1, 0, 0, 1, -1], ctildes: [0.5773502588272095, -0.5773502588272095, 0.5773502588272095]}
    - {mu0: 0, rank: 2, ndensity: 1, num_ms_combs: 3, mus: [0, 0], ns: [4, 6], ls: [1, 1], ms_combs: [-1, 1, 0, 0, 1, -1], ctildes: [0.5773502588272095, -0.5773502588272095, 0.5773502588272095]}
    - {mu0: 0, rank: 2, ndensity: 1, num_ms_combs: 3, mus: [0, 1], ns: [4, 6], ls: [1, 1], ms_combs: [-1, 1, 0, 0, 1, -1], ctildes: [0.5773502588272095, -0.5773502588272095, 0.5773502588272095]}
    - {mu0: 0, rank: 2, ndensity: 1, num_ms_combs: 3, mus: [1, 1], ns: [4, 6], ls: [1, 1], ms_combs: [-1, 1, 0, 0, 1, -1], ctildes: [0.5773502588272095, -0.5773502588272095, 0.5773502588272095]}
    - {mu0: 0, rank: 2, ndensity: 1, num_ms_combs: 3, mus: [0, 1], ns: [5, 1], ls: [1, 1], ms_combs: [-1, 1, 0, 0, 1, -1], ctildes: [0.5773502588272095, -0.5773502588272095, 0.5773502588272095]}
    - {mu0: 0, rank: 2, ndensity: 1, num_ms_combs: 3, mus: [0, 1], ns: [5, 2], ls: [1, 1], ms_combs: [-1, 1, 0, 0, 1, -1], ctildes: [0.5773502588272095, -0.5773502588272095, 0.5773502588272095]}
    - {mu0: 0, rank: 2, ndensity: 1, num_ms_combs: 3, mus: [0, 1], ns: [5, 3], ls: [1, 1], ms_combs: [-1, 1, 0, 0, 1, -1], ctildes: [0.5773502588272095, -0.5773502588272095, 0.5773502588272095]}
    - {mu0: 0, rank: 2, ndensity: 1, num_ms_combs: 3, mus: [0, 1], ns: [5, 4], ls: [1, 1], ms_combs: [-1, 1, 0, 0, 1, -1], ctildes: [0.5773502588272095, -0.5773502588272095, 0.5773502588272095]}
    - {mu0: 0, rank: 2, ndensity: 1, num_ms_combs: 3, mus: [0, 0], ns: [5, 5], ls: [1, 1], ms_combs: [-1, 1, 0, 0, 1, -1], ctildes: [0.5773502588272095, -0.5773502588272095, 0.5773502588272095]}
    - {mu0: 0, rank: 2, ndensity: 1, num_ms_combs: 3, mus: [0, 1], ns: [5, 5], ls: [1, 1], ms_combs: [-1, 1, 0, 0, 1, -1], ctildes: [0.5773502588272095, -0.5773502588272095, 0.5773502588272095]}
    - {mu0: 0, rank: 2, ndensity: 1, num_ms_combs: 3, mus: [1, 1], ns: [5, 5], ls: [1, 1], ms_combs: [-1, 1, 0, 0, 1, -1], ctildes: [0.5773502588272095, -0.5773502588272095, 0.5773502588272095]}
    - {mu0: 0, rank: 2, ndensity: 1, num_ms_combs: 3, mus: [0, 0], ns: [5, 6], ls: [1, 1], ms_combs: [-1, 1, 0, 0, 1, -1], ctildes: [0.5773502588272095, -0.5773502588272095, 0.5773502588272095]}
    - {mu0: 0, rank: 2, ndensity: 1, num_ms_combs: 3, mus: [0, 1], ns: [5, 6], ls: [1, 1], ms_combs: [-1, 1, 0, 0, 1, -1], ctildes: [0.5773502588272095, -0.5773502588272095, 0.5773502588272095]}
    - {mu0: 0, rank: 2, ndensity: 1, num_ms_combs: 3, mus: [1, 1], ns: [5, 6], ls: [1, 1], ms_combs: [-1, 1, 0, 0, 1, -1], ctildes: [0.5773502588272095, -0.5773502588272095, 0.5773502588272095]}
    - {mu0: 0, rank: 2, ndensity: 1, num_ms_combs: 3, mus: [0, 1], ns: [6, 1], ls: [1, 1], ms_combs: [-1, 1, 0, 0, 1, -1], ctildes: [0.5773502588272095, -0.5773502588272095, 0.5773502588272095]}
    - {mu0: 0, rank: 2, ndensity: 1, num_ms_combs: 3, mus: [0, 1], ns: [6, 2], ls: [1, 1], ms_combs: [-1, 1, 0, 0, 1, -1], ctildes: [0.5773502588272095, -0.5773502588272095, 0.5773502588272095]}
    - {mu0: 0, rank: 2, ndensity: 1, num_ms_combs: 3, mus: [0, 1], ns: [6, 3], ls: [1, 1], ms_combs: [-1, 1, 0, 0, 1, -1], ctildes: [0.5773502588272095, -0.5773502588272095, 0.5773502588272095]}
    - {mu0: 0, rank: 2, ndensity: 1, num_ms_combs: 3, mus: [0, 1], ns: [6, 4], ls: [1, 1], ms_combs: [-1, 1, 0, 0, 1, -1], ctildes: [0.5773502588272095, -0.5773502588272095, 0.5773502588272095]}
    - {mu0: 0, rank: 2, ndensity: 1, num_ms_combs: 3, mus: [0, 1], ns: [6, 5], ls: [1, 1], ms_combs: [-1, 1, 0, 0, 1, -1], ctildes: [0.5773502588272095, -0.5773502588272095, 0.5773502588272095]}
    - {mu0: 0, rank: 2, ndensity: 1, num_ms_combs: 3, mus: [0, 0], ns: [6, 6], ls: [1, 1], ms_combs: [-1, 1, 0, 0, 1, -1], ctildes: [0.5773502588272095, -0.5773502588272095, 0.5773502588272095]}
    - {mu0: 0, rank: 2, ndensity: 1, num_ms_combs: 3, mus: [0, 1], ns: [6, 6], ls: [1, 1], ms_combs: [-1, 1, 0, 0, 1, -1], ctildes: [0.5773502588272095, -0.5773502588272095, 0.5773502588272095]}
    - {mu0: 0, rank: 2, ndensity: 1, num_ms_combs: 3, mus: [1, 1], ns: [6, 6], ls: [1, 1], ms_combs: [-1, 1, 0, 0, 1, -1], ctildes: [0.5773502588272095, -0.5773502588272095, 0.5773502588272095]}
    - {mu0: 0, rank: 2, ndensity: 1, num_ms_combs: 5, mus: [0, 0], ns: [1, 1], ls: [2, 2], ms_combs: [-2, 2, -1, 1, 0, 0, 1, -1, 2, -2], ctildes: [0.4472135901451111, -0.4472135901451111, 0.4472135901451111, -0.4472135901451111, 0.4472135901451111]}
    - {mu0: 0, rank: 2, ndensity: 1, num_ms_combs: 5, mus: [0, 1], ns: [1, 1], ls: [2, 2], ms_combs: [-2, 2, -1, 1, 0, 0, 1, -1, 2, -2], ctildes: [0.4472135901451111, -0.4472135901451111, 0.4472135901451111, -0.4472135901451111, 0.4472135901451111]}
    - {mu0: 0, rank: 2, ndensity: 1, num_ms_combs: 5, mus: [1, 1], ns: [1, 1], ls: [2, 2], ms_combs: [-2, 2, -1, 1, 0, 0, 1, -1, 2, -2], ctildes: [0.4472135901451111, -0.4472135901451111, 0.4472135901451111, -0.4472135901451111, 0.4472135901451111]}
    - {mu0: 0, rank: 2, ndensity: 1, num_ms_combs: 5, mus: [0, 0], ns: [1, 2], ls: [2, 2], ms_combs: [-2, 2, -1, 1, 0, 0, 1, -1, 2, -2], ctildes: [0.4472135901451111, -0.4472135901451111, 0.4472135901451111, -0.4472135901451111, 0.4472135901451111]}
    - {mu0: 0, rank: 2, ndensity: 1, num_ms_combs: 5, mus: [0, 1], ns: [1, 2], ls: [2, 2], ms_combs: [-2, 2, -1, 1, 0, 0, 1, -1, 2, -2], ctildes: [0.4472135901451111, -0.4472135901451111, 0.4472135901451111, -0.4472135901451111, 0.4472135901451111]}
    - {mu0: 0, rank: 2, ndensity: 1, num_ms_combs: 5, mus: [1, 1], ns: [1, 2], ls: [2, 2], ms_combs: [-2, 2, -1, 1, 0, 0, 1, -1, 2, -2], ctildes: [0.4472135901451111, -0.4472135901451111, 0.4472135901451111, -0.4472135901451111, 0.4472135901451111]}
    - {mu0: 0, rank: 2, ndensity: 1, num_ms_combs: 5, mus: [0, 0], ns: [1, 3], ls: [2, 2], ms_combs: [-2, 2, -1, 1, 0, 0, 1, -1, 2, -2], ctildes: [0.4472135901451111, -0.4472135901451111, 0.4472135901451111, -0.4472135901451111, 0.4472135901451111]}
    - {mu0: 0, rank: 2, ndensity: 1, num_ms_combs: 5, mus: [0, 1], ns: [1, 3], ls: [2, 2], ms_combs: [-2, 2, -1, 1, 0, 0, 1, -1, 2, -2], ctildes: [0.4472135901451111, -0.4472135901451111, 0.4472135901451111, -0.4472135901451111, 0.4472135901451111]}
    - {mu0: 0, rank: 2, ndensity: 1, num_ms_combs: 5, mus: [1, 1], ns: [1, 3], ls: [2, 2], ms_combs: [-2, 2, -1, 1, 0, 0, 1, -1, 2, -2], ctildes: [0.4472135901451111, -0.4472135901451111, 0.4472135901451111, -0.4472135901451111, 0.4472135901451111]}
    - {mu0: 0, rank: 2, ndensity: 1, num_ms_combs: 5, mus: [0, 0], ns: [1, 4], ls: [2, 2], ms_combs: [-2, 2, -1, 1, 0, 0, 1, -1, 2, -2], ctildes: [0.4472135901451111, -0.4472135901451111, 0.4472135901451111, -0.4472135901451111, 0.4472135901451111]}
    - {mu0: 0, rank: 2, ndensity: 1, num_ms_combs: 5, mus: [0, 1], ns: [1, 4], ls: [2, 2], ms_combs: [-2, 2, -1, 1, 0, 0, 1, -1, 2, -2], ctildes: [0.4472135901451111, -0.4472135901451111, 0.4472135901451111, -0.4472135901451111, 0.4472135901451111]}
    - {mu0: 0, rank: 2, ndensity: 1, num_ms_combs: 5, mus: [1, 1], ns: [1, 4], ls: [2, 2], ms_combs: [-2, 2, -1, 1, 0, 0, 1, -1, 2, -2], ctildes: [0.4472135901451111, -0.4472135901451111, 0.4472135901451111, -0.4472135901451111, 0.4472135901451111]}
    - {mu0: 0, rank: 2, ndensity: 1, num_ms_combs: 5, mus: [0, 0], ns: [1, 5], ls: [2, 2], ms_combs: [-2, 2, -1, 1, 0, 0, 1, -1, 2, -2], ctildes: [0.4472135901451111, -0.4472135901451111, 0.4472135901451111, -0.4472135901451111, 0.4472135901451111]}
    - {mu0: 0, rank: 2, ndensity: 1, num_ms_combs: 5, mus: [0, 1], ns: [1, 5], ls: [2, 2], ms_combs: [-2, 2, -1, 1, 0, 0, 1, -1, 2, -2], ctildes: [0.4472135901451111, -0.4472135901451111, 0.4472135901451111, -0.4472135901451111, 0.4472135901451111]}
    - {mu0: 0, rank: 2, ndensity: 1, num_ms_combs: 5, mus: [1, 1], ns: [1, 5], ls: [2, 2], ms_combs: [-2, 2, -1, 1, 0, 0, 1, -1, 2, -2], ctildes: [0.4472135901451111, -0.4472135901451111, 0.4472135901451111, -0.4472135901451111, 0.4472135901451111]}
    - {mu0: 0, rank: 2, ndensity: 1, num_ms_combs: 5, mus: [0, 0], ns: [1, 6], ls: [2, 2], ms_combs: [-2, 2, -1, 1, 0, 0, 1, -1, 2, -2], ctildes: [0.4472135901451111, -0.4472135901451111, 0.4472135901451111, -0.4472135901451111, 0.4472135901451111]}
    - {mu0: 0, rank: 2, ndensity: 1, num_ms_combs: 5, mus: [0, 1], ns: [1, 6], ls: [2, 2], ms_combs: [-2, 2, -1, 1, 0, 0, 1, -1, 2, -2], ctildes: [0.4472135901451111, -0.4472135901451111, 0.4472135901451111, -0.4472135901451111, 0.4472135901451111]}
    - {mu0: 0, rank: 2, ndensity: 1, num_ms_combs: 5, mus: [1, 1], ns: [1, 6], ls: [2, 2], ms_combs: [-2, 2, -1, 1, 0, 0, 1, -1, 2, -2], ctildes: [0.4472135901451111, -0.4472135901451111, 0.4472135901451111, -0.4472135901451111, 0.4472135901451111]}
    - {mu0: 0, rank: 2, ndensity: 1, num_ms_combs: 5, mus: [0, 1], ns: [2, 1], ls: [2, 2], ms_combs: [-2, 2, -1, 1, 0, 0, 1, -1, 2, -2], ctildes: [0.4472135901451111, -0.4472135901451111, 0.4472135901451111, -0.4472135901451111, 0.4472135901451111]}
    - {mu0: 0, rank: 2, ndensity: 1, num_ms_combs: 5, mus: [0, 0], ns: [2, 2], ls: [2, 2], ms_combs: [-2, 2, -1, 1, 0, 0, 1, -1, 2, -2], ctildes: [0.4472135901451111, -0.4472135901451111, 0.4472135901451111, -0.4472135901451111, 0.4472135901451111]}
    - {mu0: 0, rank: 2, ndensity: 1, num_ms_combs: 5, mus: [0, 1], ns: [2, 2], ls: [2, 2], ms_combs: [-2, 2, -1, 1, 0, 0, 1, -1, 2, -2], ctildes: [0.4472135901451111, -0.4472135901451111, 0.4472135901451111, -0.4472135901451111, 0.4472135901451111]}
    - {mu0: 0, rank: 2, ndensity: 1, num_ms_combs: 5, mus: [1, 1], ns: [2, 2], ls: [2, 2], ms_combs: [-2, 2, -1, 1, 0, 0, 1, -1, 2, -2], ctildes: [0.4472135901451111, -0.4472135901451111, 0.4472135901451111, -0.4472135901451111, 0.4472135901451111]}
    - {mu0: 0, rank: 2, ndensity: 1, num_ms_combs: 5, mus: [0, 0], ns: [2, 3], ls: [2, 2], ms_combs: [-2, 2, -1, 1, 0, 0, 1, -1, 2, -2], ctildes: [0.4472135901451111, -0.4472135901451111, 0.4472135901451111, -0.4472135901451111, 0.4472135901451111]}
    - {mu0: 0, rank: 2, ndensity: 1, num_ms_combs: 5, mus: [0, 1], ns: [2, 3], ls: [2, 2], ms_combs: [-2, 2, -1, 1, 0, 0, 1, -1, 2, -2], ctildes: [0.4472135901451111, -0.4472135901451111, 0.4472135901451111, -0.4472135901451111, 0.4472135901451111]}
    - {mu0: 0, rank: 2, ndensity: 1, num_ms_combs: 5, mus: [1, 1], ns: [2, 3], ls: [2, 2], ms_combs: [-2, 2, -1, 1, 0, 0, 1, -1, 2, -2], ctildes: [0.4472135901451111, -0.4472135901451111, 0.4472135901451111, -0.4472135901451111, 0.4472135901451111]}
    - {mu0: 0, rank: 2, ndensity: 1, num_ms_combs: 5, mus: [0, 0], ns: [2, 4], ls: [2, 2], ms_combs: [-2, 2, -1, 1, 0, 0, 1, -1, 2, -2], ctildes: [0.4472135901451111, -0.4472135901451111, 0.4472135901451111, -0.4472135901451111, 0.4472135901451111]}
    - {mu0: 0, rank: 2, ndensity: 1, num_ms_combs: 5, mus: [0, 1], ns: [2, 4], ls: [2, 2], ms_combs: [-2, 2, -1, 1, 0, 0, 1, -1, 2, -2], ctildes: [0.4472135901451111, -0.4472135901451111, 0.4472135901451111, -0.4472135901451111, 0.4472135901451111]}
    - {mu0: 0, rank: 2, ndensity: 1, num_ms_combs: 5, mus: [1, 1], ns: [2, 4], ls: [2, 2], ms_combs: [-2, 2, -1, 1, 0, 0, 1, -1, 2, -2], ctildes: [0.4472135901451111, -0.4472135901451111, 0.4472135901451111, -0.4472135901451111, 0.4472135901451111]}
    - {mu0: 0, rank: 2, ndensity: 1, num_ms_combs: 5, mus: [0, 0], ns: [2, 5], ls: [2, 2], ms_combs: [-2, 2, -1, 1, 0, 0, 1, -1, 2, -2], ctildes: [0.4472135901451111, -0.4472135901451111, 0.4472135901451111, -0.4472135901451111, 0.4472135901451111]}
    - {mu0: 0, rank: 2, ndensity: 1, num_ms_combs: 5, mus: [0, 1], ns: [2, 5], ls: [2, 2], ms_combs: [-2, 2, -1, 1, 0, 0, 1, -1, 2, -2], ctildes: [0.4472135901451111, -0.4472135901451111, 0.4472135901451111, -0.4472135901451111, 0.4472135901451111]}
    - {mu0: 0, rank: 2, ndensity: 1, num_ms_combs: 5, mus: [1, 1], ns: [2, 5], ls: [2, 2], ms_combs: [-2, 2, -1, 1, 0, 0, 1, -1, 2, -2], ctildes: [0.4472135901451111, -0.4472135901451111, 0.4472135901451111, -0.4472135901451111, 0.4472135901451111]}
    - {mu0: 0, rank: 2, ndensity: 1, num_ms_combs: 5, mus: [0, 0], ns: [2, 6], ls: [2, 2], ms_combs: [-2, 2, -1, 1, 0, 0, 1, -1, 2, -2], ctildes: [0.4472135901451111, -0.4472135901451111, 0.4472135901451111, -0.4472135901451111, 0.4472135901451111]}
    - {mu0: 0, rank: 2, ndensity: 1, num_ms_combs: 5, mus: [0, 1], ns: [2, 6], ls: [2, 2], ms_combs: [-2, 2, -1, 1, 0, 0, 1, -1, 2, -2], ctildes: [0.4472135901451111, -0.4472135901451111, 0.4472135901451111, -0.4472135901451111, 0.4472135901451111]}
    - {mu0: 0, rank: 2, ndensity: 1, num_ms_combs: 5, mus: [1, 1], ns: [2, 6], ls: [2, 2], ms_combs: [-2, 2, -1, 1, 0, 0, 1, -1, 2, -2], ctildes: [0.4472135901451111, -0.4472135901451111, 0.4472135901451111, -0.4472135901451111, 0.4472135901451111]}
    - {mu0: 0, rank: 2, ndensity: 1, num_ms_combs: 5, mus: [0, 1], ns: [3, 1], ls: [2, 2], ms_combs: [-2, 2, -1, 1, 0, 0, 1, -1, 2, -2], ctildes: [0.4472135901451111, -0.4472135901451111, 0.4472135901451111, -0.4472135901451111, 0.4472135901451111]}
    - {mu0: 0, rank: 2, ndensity: 1, num_ms_combs: 5, mus: [0, 1], ns: [3, 2], ls: [2, 2], ms_combs: [-2, 2, -1, 1, 0, 0, 1, -1, 2, -2], ctildes: [0.4472135901451111, -0.4472135901451111, 0.4472135901451111, -0.4472135901451111, 0.4472135901451111]}
    - {mu0: 0, rank: 2, ndensity: 1, num_ms_combs: 5, mus: [0, 0], ns: [3, 3], ls: [2, 2], ms_combs: [-2, 2, -1, 1, 0, 0, 1, -1, 2, -2], ctildes: [0.4472135901451111, -0.4472135901451111, 0.4472135901451111, -0.4472135901451111, 0.4472135901451111]}
    - {mu0: 0, rank: 2, ndensity: 1, num_ms_combs: 5, mus: [0, 1], ns: [3, 3], ls: [2, 2], ms_combs: [-2, 2, -1, 1, 0, 0, 1, -1, 2, -2], ctildes: [0.4472135901451111, -0.4472135901451111, 0.4472135901451111, -0.4472135901451111, 0.4472135901451111]}
    - {mu0: 0, rank: 2, ndensity: 1, num_ms_combs: 5, mus: [1, 1], ns: [3, 3], ls: [2, 2], ms_combs: [-2, 2, -1, 1, 0, 0, 1, -1, 2, -2], ctildes: [0.4472135901451111, -0.4472135901451111, 0.4472135901451111, -0.4472135901451111, 0.4472135901451111]}
    - {mu0: 0, rank: 2, ndensity: 1, num_ms_combs: 5, mus: [0, 0], ns: [3, 4], ls: [2, 2], ms_combs: [-2, 2, -1, 1, 0, 0, 1, -1, 2, -2], ctildes: [0.4472135901451111, -0.4472135901451111, 0.4472135901451111, -0.4472135901451111, 0.4472135901451111]}
    - {mu0: 0, rank: 2, ndensity: 1, num_ms_combs: 5, mus: [0, 1], ns: [3, 4], ls: [2, 2], ms_combs: [-2, 2, -1, 1, 0, 0, 1, -1, 2, -2], ctildes: [0.4472135901451111, -0.4472135901451111, 0.4472135901451111, -0.4472135901451111, 0.4472135901451111]}
    - {mu0: 0, rank: 2, ndensity: 1, num_ms_combs: 5, mus: [1, 1], ns: [3, 4], ls: [2, 2], ms_combs: [-2, 2, -1, 1, 0, 0, 1, -1, 2, -2], ctildes: [0.4472135901451111, -0.4472135901451111, 0.4472135901451111, -0.4472135901451111, 0.4472135901451111]}
    - {mu0: 0, rank: 2, ndensity: 1, num_ms_combs: 5, mus: [0, 0], ns: [3, 5], ls: [2, 2], ms_combs: [-2, 2, -1, 1, 0, 0, 1, -1, 2, -2], ctildes: [0.4472135901451111, -0.4472135901451111, 0.4472135901451111, -0.4472135901451111, 0.4472135901451111]}
    - {mu0: 0, rank: 2, ndensity: 1, num_ms_combs: 5, mus: [0, 1], ns: [3, 5], ls: [2, 2], ms_combs: [-2, 2, -1, 1, 0, 0, 1, -1, 2, -2], ctildes: [0.4472135901451111, -0.4472135901451111, 0.4472135901451111, -0.4472135901451111, 0.4472135901451111]}
    - {mu0: 0, rank: 2, ndensity: 1, num_ms_combs: 5, mus: [1, 1], ns: [3, 5], ls: [2, 2], ms_combs: [-2, 2, -1, 1, 0, 0, 1, -1, 2, -2], ctildes: [0.4472135901451111, -0.4472135901451111, 0.4472135901451111, -0.4472135901451111, 0.4472135901451111]}
    - {mu0: 0, rank: 2, ndensity: 1, num_ms_combs: 5, mus: [0, 0], ns: [3, 6], ls: [2, 2], ms_combs: [-2, 2, -1, 1, 0, 0, 1, -1, 2, -2], ctildes: [0.4472135901451111, -0.4472135901451111, 0.4472135901451111, -0.4472135901451111, 0.4472135901451111]}
    - {mu0: 0, rank: 2, ndensity: 1, num_ms_combs: 5, mus: [0, 1], ns: [3, 6], ls: [2, 2], ms_combs: [-2, 2, -1, 1, 0, 0, 1, -1, 2, -2], ctildes: [0.4472135901451111, -0.4472135901451111, 0.4472135901451111, -0.4472135901451111, 0.4472135901451111]}
    - {mu0: 0, rank: 2, ndensity: 1, num_ms_combs: 5, mus: [1, 1], ns: [3, 6], ls: [2, 2], ms_combs: [-2, 2, -1, 1, 0, 0, 1, -1, 2, -2], ctildes: [0.4472135901451111, -0.4472135901451111, 0.4472135901451111, -0.4472135901451111, 0.4472135901451111]}
    - {mu0: 0, rank: 2, ndensity: 1, num_ms_combs: 5, mus: [0, 1], ns: [4, 1], ls: [2, 2], ms_combs: [-2, 2, -1, 1, 0, 0, 1, -1, 2, -2], ctildes: [0.4472135901451111, -0.4472135901451111, 0.4472135901451111, -0.4472135901451111, 0.4472135901451111]}
    - {mu0: 0, rank: 2, ndensity: 1, num_ms_combs: 5, mus: [0, 1], ns: [4, 2], ls: [2, 2], ms_combs: [-2, 2, -1, 1, 0, 0, 1, -1, 2, -2], ctildes: [0.4472135901451111, -0.4472135901451111, 0.4472135901451111, -0.4472135901451111, 0.4472135901451111]}
    - {mu0: 0, rank: 2, ndensity: 1, num_ms_combs: 5, mus: [0, 1], ns: [4, 3], ls: [2, 2], ms_combs: [-2, 2, -1, 1, 0, 0, 1, -1, 2, -2], ctildes: [0.4472135901451111, -0.4472135901451111, 0.4472135901451111, -0.4472135901451111, 0.4472135901451111]}
    - {mu0: 0, rank: 2, ndensity: 1, num_ms_combs: 5, mus: [0, 0], ns: [4, 4], ls: [2, 2], ms_combs: [-2, 2, -1, 1, 0, 0, 1, -1, 2, -2], ctildes: [0.4472135901451111, -0.4472135901451111, 0.4472135901451111, -0.4472135901451111, 0.4472135901451111]}
    - {mu0: 0, rank: 2, ndensity: 1, num_ms_combs: 5, mus: [0, 1], ns: [4, 4], ls: [2, 2], ms_combs: [-2, 2, -1, 1, 0, 0, 1, -1, 2, -2], ctildes: [0.4472135901451111, -0.4472135901451111, 0.4472135901451111, -0.4472135901451111, 0.4472135901451111]}
    - {mu0: 0, rank: 2, ndensity: 1, num_ms_combs: 5, mus: [1, 1], ns: [4, 4], ls: [2, 2], ms_combs: [-2, 2, -1, 1, 0, 0, 1, -1, 2, -2], ctildes: [0.4472135901451111, -0.4472135901451111, 0.4472135901451111, -0.4472135901451111, 0.4472135901451111]}
    - {mu0: 0, rank: 2, ndensity: 1, num_ms_combs: 5, mus: [0, 0], ns: [4, 5], ls: [2, 2], ms_combs: [-2, 2, -1, 1, 0, 0, 1, -1, 2, -2], ctildes: [0.4472135901451111, -0.4472135901451111, 0.4472135901451111, -0.4472135901451111, 0.4472135901451111]}
    - {mu0: 0, rank: 2, ndensity: 1, num_ms_combs: 5, mus: [0, 1], ns: [4, 5], ls: [2, 2], ms_combs: [-2, 2, -1, 1, 0, 0, 1, -1, 2, -2], ctildes: [0.4472135901451111, -0.4472135901451111, 0.4472135901451111, -0.4472135901451111, 0.4472135901451111]}
    - {mu0: 0, rank: 2, ndensity: 1, num_ms_combs: 5, mus: [1, 1], ns: [4, 5], ls: [2, 2], ms_combs: [-2, 2, -1, 1, 0, 0, 1, -1, 2, -2], ctildes: [0.4472135901451111, -0.4472135901451111, 0.4472135901451111, -0.4472135901451111, 0.4472135901451111]}
    - {mu0: 0, rank: 2, ndensity: 1, num_ms_combs: 5, mus: [0, 0], ns: [4, 6], ls: [2, 2], ms_combs: [-2, 2, -1, 1, 0, 0, 1, -1, 2, -2], ctildes: [0.4472135901451111, -0.4472135901451111, 0.4472135901451111, -0.4472135901451111, 0.4472135901451111]}
    - {mu0: 0, rank: 2, ndensity: 1, num_ms_combs: 5, mus: [0, 1], ns: [4, 6], ls: [2, 2], ms_combs: [-2, 2, -1, 1, 0, 0, 1, -1, 2, -2], ctildes: [0.4472135901451111, -0.4472135901451111, 0.4472135901451111, -0.4472135901451111, 0.4472135901451111]}
    - {mu0: 0, rank: 2, ndensity: 1, num_ms_combs: 5, mus: [1, 1], ns: [4, 6], ls: [2, 2], ms_combs: [-2, 2, -1, 1, 0, 0, 1, -1, 2, -2], ctildes: [0.4472135901451111, -0.4472135901451111, 0.4472135901451111, -0.4472135901451111, 0.4472135901451111]}
    - {mu0: 0, rank: 2, ndensity: 1, num_ms_combs: 5, mus: [0, 1], ns: [5, 1], ls: [2, 2], ms_combs: [-2, 2, -1, 1, 0, 0, 1, -1, 2, -2], ctildes: [0.4472135901451111, -0.4472135901451111, 0.4472135901451111, -0.4472135901451111, 0.4472135901451111]}
    - {mu0: 0, rank: 2, ndensity: 1, num_ms_combs: 5, mus: [0, 1], ns: [5, 2], ls: [2, 2], ms_combs: [-2, 2, -1, 1, 0, 0, 1, -1, 2, -2], ctildes: [0.4472135901451111, -0.4472135901451111, 0.4472135901451111, -0.4472135901451111, 0.4472135901451111]}
    - {mu0: 0, rank: 2, ndensity: 1, num_ms_combs: 5, mus: [0, 1], ns: [5, 3], ls: [2, 2], ms_combs: [-2, 2, -1, 1, 0, 0, 1, -1, 2, -2], ctildes: [0.4472135901451111, -0.4472135901451111, 0.4472135901451111, -0.4472135901451111, 0.4472135901451111]}
    - {mu0: 0, rank: 2, ndensity: 1, num_ms_combs: 5, mus: [0, 1], ns: [5, 4], ls: [2, 2], ms_combs: [-2, 2, -1, 1, 0, 0, 1, -1, 2, -2], ctildes: [0.4472135901451111, -0.4472135901451111, 0.4472135901451111, -0.4472135901451111, 0.4472135901451111]}
    - {mu0: 0, rank: 2, ndensity: 1, num_ms_combs: 5, mus: [0, 0], ns: [5, 5], ls: [2, 2], ms_combs: [-2, 2, -1, 1, 0, 0, 1, -1, 2, -2], ctildes: [0.4472135901451111, -0.4472135901451111, 0.4472135901451111, -0.4472135901451111, 0.4472135901451111]}
    - {mu0: 0, rank: 2, ndensity: 1, num_ms_combs: 5, mus: [0, 1], ns: [5, 5], ls: [2, 2], ms_combs: [-2, 2, -1, 1, 0, 0, 1, -1, 2, -2], ctildes: [0.4472135901451111, -0.4472135901451111, 0.4472135901451111, -0.4472135901451111, 0.4472135901451111]}
    - {mu0: 0, rank: 2, ndensity: 1, num_ms_combs: 5, mus: [1, 1], ns: [5, 5], ls: [2, 2], ms_combs: [-2, 2, -1, 1, 0, 0, 1, -1, 2, -2], ctildes: [0.4472135901451111, -0.4472135901451111, 0.4472135901451111, -0.4472135901451111, 0.4472135901451111]}
    - {mu0: 0, rank: 2, ndensity: 1, num_ms_combs: 5, mus: [0, 0], ns: [5, 6], ls: [2, 2], ms_combs: [-2, 2, -1, 1, 0, 0, 1, -1, 2, -2], ctildes: [0.4472135901451111, -0.4472135901451111, 0.4472135901451111, -0.4472135901451111, 0.4472135901451111]}
    - {mu0: 0, rank: 2, ndensity: 1, num_ms_combs: 5, mus: [0, 1], ns: [5, 6], ls: [2, 2], ms_combs: [-2, 2, -1, 1, 0, 0, 1, -1, 2, -2], ctildes: [0.4472135901451111, -0.4472135901451111, 0.4472135901451111, -0.4472135901451111, 0.4472135901451111]}
    - {mu0: 0, rank: 2, ndensity: 1, num_ms_combs: 5, mus: [1, 1], ns: [5, 6], ls: [2, 2], ms_combs: [-2, 2, -1, 1, 0, 0, 1, -1, 2, -2], ctildes: [0.4472135901451111, -0.4472135901451111, 0.4472135901451111, -0.4472135901451111, 0.4472135901451111]}
    - {mu0: 0, rank: 2, ndensity: 1, num_ms_combs: 5, mus: [0, 1], ns: [6, 1], ls: [2, 2], ms_combs: [-2, 2, -1, 1, 0, 0, 1, -1, 2, -2], ctildes: [0.4472135901451111, -0.4472135901451111, 0.4472135901451111, -0.4472135901451111, 0.4472135901451111]}
    - {mu0: 0, rank: 2, ndensity: 1, num_ms_combs: 5, mus: [0, 1], ns: [6, 2], ls: [2, 2], ms_combs: [-2, 2, -1, 1, 0, 0, 1, -1, 2, -2], ctildes: [0.4472135901451111, -0.4472135901451111, 0.4472135901451111, -0.4472135901451111, 0.4472135901451111]}
    - {mu0: 0, rank: 2, ndensity: 1, num_ms_combs: 5, mus: [0, 1], ns: [6, 3], ls: [2, 2], ms_combs: [-2, 2, -1, 1, 0, 0, 1, -1, 2, -2], ctildes: [0.4472135901451111, -0.4472135901451111, 0.4472135901451111, -0.4472135901451111, 0.4472135901451111]}
    - {mu0: 0, rank: 2, ndensity: 1, num_ms_combs: 5, mus: [0, 1], ns: [6, 4], ls: [2, 2], ms_combs: [-2, 2, -1, 1, 0, 0, 1, -1, 2, -2], ctildes: [0.4472135901451111, -0.4472135901451111, 0.4472135901451111, -0.4472135901451111, 0.4472135901451111]}
    - {mu0: 0, rank: 2, ndensity: 1, num_ms_combs: 5, mus: [0, 1], ns: [6, 5], ls: [2, 2], ms_combs: [-2, 2, -1, 1, 0, 0, 1, -1, 2, -2], ctildes: [0.4472135901451111, -0.4472135901451111, 0.4472135901451111, -0.4472135901451111, 0.4472135901451111]}
    - {mu0: 0, rank: 2, ndensity: 1, num_ms_combs: 5, mus: [0, 0], ns: [6, 6], ls: [2, 2], ms_combs: [-2, 2, -1, 1, 0, 0, 1, -1, 2, -2], ctildes: [0.4472135901451111, -0.4472135901451111, 0.4472135901451111, -0.4472135901451111, 0.4472135901451111]}
    - {mu0: 0, rank: 2, ndensity: 1, num_ms_combs: 5, mus: [0, 1], ns: [6, 6], ls: [2, 2], ms_combs: [-2, 2, -1, 1, 0, 0, 1, -1, 2, -2], ctildes: [0.4472135901451111, -0.4472135901451111, 0.4472135901451111, -0.4472135901451111, 0.4472135901451111]}
    - {mu0: 0, rank: 2, ndensity: 1, num_ms_combs: 5, mus: [1, 1], ns: [6, 6], ls: [2, 2], ms_combs: [-2, 2, -1, 1, 0, 0, 1, -1, 2, -2], ctildes: [0.4472135901451111, -0.4472135901451111, 0.4472135901451111, -0.4472135901451111, 0.4472135901451111]}
    - {mu0: 0, rank: 2, ndensity: 1, num_ms_combs: 7, mus: [0, 0], ns: [1, 1], ls: [3, 3], ms_combs: [-3, 3, -2, 2, -1, 1, 0, 0, 1, -1, 2, -2, 3, -3], ctildes: [0.37796446681022644, -0.37796446681022644, 0.37796446681022644, -0.37796446681022644, 0.37796446681022644, -0.37796446681022644, 0.37796446681022644]}
    - {mu0: 0, rank: 2, ndensity: 1, num_ms_combs: 7, mus: [0, 1], ns: [1, 1], ls: [3, 3], ms_combs: [-3, 3, -2, 2, -1, 1, 0, 0, 1, -1, 2, -2, 3, -3], ctildes: [0.37796446681022644, -0.37796446681022644, 0.37796446681022644, -0.37796446681022644, 0.37796446681022644, -0.37796446681022644, 0.37796446681022644]}
    - {mu0: 0, rank: 2, ndensity: 1, num_ms_combs: 7, mus: [1, 1], ns: [1, 1], ls: [3, 3], ms_combs: [-3, 3, -2, 2, -1, 1, 0, 0, 1, -1, 2, -2, 3, -3], ctildes: [0.37796446681022644, -0.37796446681022644, 0.37796446681022644, -0.37796446681022644, 0.37796446681022644, -0.37796446681022644, 0.37796446681022644]}
    - {mu0: 0, rank: 2, ndensity: 1, num_ms_combs: 7, mus: [0, 0], ns: [1, 2], ls: [3, 3], ms_combs: [-3, 3, -2, 2, -1, 1, 0, 0, 1, -1, 2, -2, 3, -3], ctildes: [0.37796446681022644, -0.37796446681022644, 0.37796446681022644, -0.37796446681022644, 0.37796446681022644, -0.37796446681022644, 0.37796446681022644]}
    - {mu0: 0, rank: 2, ndensity: 1, num_ms_combs: 7, mus: [0, 1], ns: [1, 2], ls: [3, 3], ms_combs: [-3, 3, -2, 2, -1, 1, 0, 0, 1, -1, 2, -2, 3, -3], ctildes: [0.37796446681022644, -0.37796446681022644, 0.37796446681022644, -0.37796446681022644, 0.37796446681022644, -0.37796446681022644, 0.37796446681022644]}
    - {mu0: 0, rank: 2, ndensity: 1, num_ms_combs: 7, mus: [1, 1], ns: [1, 2], ls: [3, 3], ms_combs: [-3, 3, -2, 2, -1, 1, 0, 0, 1, -1, 2, -2, 3, -3], ctildes: [0.37796446681022644, -0.37796446681022644, 0.37796446681022644, -0.37796446681022644, 0.37796446681022644, -0.37796446681022644, 0.37796446681022644]}
    - {mu0: 0, rank: 2, ndensity: 1, num_ms_combs: 7, mus: [0, 0], ns: [1, 3], ls: [3, 3], ms_combs: [-3, 3, -2, 2, -1, 1, 0, 0, 1, -1, 2, -2, 3, -3], ctildes: [0.37796446681022644, -0.37796446681022644, 0.37796446681022644, -0.37796446681022644, 0.37796446681022644, -0.37796446681022644, 0.37796446681022644]}
    - {mu0: 0, rank: 2, ndensity: 1, num_ms_combs: 7, mus: [0, 1], ns: [1, 3], ls: [3, 3], ms_combs: [-3, 3, -2, 2, -1, 1, 0, 0, 1, -1, 2, -2, 3, -3], ctildes: [0.37796446681022644, -0.37796446681022644, 0.37796446681022644, -0.37796446681022644, 0.37796446681022644, -0.37796446681022644, 0.37796446681022644]}
    - {mu0: 0, rank: 2, ndensity: 1, num_ms_combs: 7, mus: [1, 1], ns: [1, 3], ls: [3, 3], ms_combs: [-3, 3, -2, 2, -1, 1, 0, 0, 1, -1, 2, -2, 3, -3], ctildes: [0.37796446681022644, -0.37796446681022644, 0.37796446681022644, -0.37796446681022644, 0.37796446681022644, -0.37796446681022644, 0.37796446681022644]}
    - {mu0: 0, rank: 2, ndensity: 1, num_ms_combs: 7, mus: [0, 0], ns: [1, 4], ls: [3, 3], ms_combs: [-3, 3, -2, 2, -1, 1, 0, 0, 1, -1, 2, -2, 3, -3], ctildes: [0.37796446681022644, -0.37796446681022644, 0.37796446681022644, -0.37796446681022644, 0.37796446681022644, -0.37796446681022644, 0.37796446681022644]}
    - {mu0: 0, rank: 2, ndensity: 1, num_ms_combs: 7, mus: [0, 1], ns: [1, 4], ls: [3, 3], ms_combs: [-3, 3, -2, 2, -1, 1, 0, 0, 1, -1, 2, -2, 3, -3], ctildes: [0.37796446681022644, -0.37796446681022644, 0.37796446681022644, -0.37796446681022644, 0.37796446681022644, -0.37796446681022644, 0.37796446681022644]}
    - {mu0: 0, rank: 2, ndensity: 1, num_ms_combs: 7, mus: [1, 1], ns: [1, 4], ls: [3, 3], ms_combs: [-3, 3, -2, 2, -1, 1, 0, 0, 1, -1, 2, -2, 3, -3], ctildes: [0.37796446681022644, -0.37796446681022644, 0.37796446681022644, -0.37796446681022644, 0.37796446681022644, -0.37796446681022644, 0.37796446681022644]}
    - {mu0: 0, rank: 2, ndensity: 1, num_ms_combs: 7, mus: [0, 0], ns: [1, 5], ls: [3, 3], ms_combs: [-3, 3, -2, 2, -1, 1, 0, 0, 1, -1, 2, -2, 3, -3], ctildes: [0.37796446681022644, -0.37796446681022644, 0.37796446681022644, -0.37796446681022644, 0.37796446681022644, -0.37796446681022644, 0.37796446681022644]}
    - {mu0: 0, rank: 2, ndensity: 1, num_ms_combs: 7, mus: [0, 1], ns: [1, 5], ls: [3, 3], ms_combs: [-3, 3, -2, 2, -1, 1, 0, 0, 1, -1, 2, -2, 3, -3], ctildes: [0.37796446681022644, -0.37796446681022644, 0.37796446681022644, -0.37796446681022644, 0.37796446681022644, -0.37796446681022644, 0.37796446681022644]}
    - {mu0: 0, rank: 2, ndensity: 1, num_ms_combs: 7, mus: [1, 1], ns: [1, 5], ls: [3, 3], ms_combs: [-3, 3, -2, 2, -1, 1, 0, 0, 1, -1, 2, -2, 3, -3], ctildes: [0.37796446681022644, -0.37796446681022644, 0.37796446681022644, -0.37796446681022644, 0.37796446681022644, -0.37796446681022644, 0.37796446681022644]}
    - {mu0: 0, rank: 2, ndensity: 1, num_ms_combs: 7, mus: [0, 0], ns: [1, 6], ls: [3, 3], ms_combs: [-3, 3, -2, 2, -1, 1, 0, 0, 1, -1, 2, -2, 3, -3], ctildes: [0.37796446681022644, -0.37796446681022644, 0.37796446681022644, -0.37796446681022644, 0.37796446681022644, -0.37796446681022644, 0.37796446681022644]}
    - {mu0: 0, rank: 2, ndensity: 1, num_ms_combs: 7, mus: [0, 1], ns: [1, 6], ls: [3, 3], ms_combs: [-3, 3, -2, 2, -1, 1, 0, 0, 1, -1, 2, -2, 3, -3], ctildes: [0.37796446681022644, -0.37796446681022644, 0.37796446681022644, -0.37796446681022644, 0.37796446681022644, -0.37796446681022644, 0.37796446681022644]}
    - {mu0: 0, rank: 2, ndensity: 1, num_ms_combs: 7, mus: [1, 1], ns: [1, 6], ls: [3, 3], ms_combs: [-3, 3, -2, 2, -1, 1, 0, 0, 1, -1, 2, -2, 3, -3], ctildes: [0.37796446681022644, -0.37796446681022644, 0.37796446681022644, -0.37796446681022644, 0.37796446681022644, -0.37796446681022644, 0.37796446681022644]}
    - {mu0: 0, rank: 2, ndensity: 1, num_ms_combs: 7, mus: [0, 1], ns: [2, 1], ls: [3, 3], ms_combs: [-3, 3, -2, 2, -1, 1, 0, 0, 1, -1, 2, -2, 3, -3], ctildes: [0.37796446681022644, -0.37796446681022644, 0.37796446681022644, -0.37796446681022644, 0.37796446681022644, -0.37796446681022644, 0.37796446681022644]}
    - {mu0: 0, rank: 2, ndensity: 1, num_ms_combs: 7, mus: [0, 0], ns: [2, 2], ls: [3, 3], ms_combs: [-3, 3, -2, 2, -1, 1, 0, 0, 1, -1, 2, -2, 3, -3], ctildes: [0.37796446681022644, -0.37796446681022644, 0.37796446681022644, -0.37796446681022644, 0.37796446681022644, -0.37796446681022644, 0.37796446681022644]}
    - {mu0: 0, rank: 2, ndensity: 1, num_ms_combs: 7, mus: [0, 1], ns: [2, 2], ls: [3, 3], ms_combs: [-3, 3, -2, 2, -1, 1, 0, 0, 1, -1, 2, -2, 3, -3], ctildes: [0.37796446681022644, -0.37796446681022644, 0.37796446681022644, -0.37796446681022644, 0.37796446681022644, -0.37796446681022644, 0.37796446681022644]}
    - {mu0: 0, rank: 2, ndensity: 1, num_ms_combs: 7, mus: [1, 1], ns: [2, 2], ls: [3, 3], ms_combs: [-3, 3, -2, 2, -1, 1, 0, 0, 1, -1, 2, -2, 3, -3], ctildes: [0.37796446681022644, -0.37796446681022644, 0.37796446681022644, -0.37796446681022644, 0.37796446681022644, -0.37796446681022644, 0.37796446681022644]}
    - {mu0: 0, rank: 2, ndensity: 1, num_ms_combs: 7, mus: [0, 0], ns: [2, 3], ls: [3, 3], ms_combs: [-3, 3, -2, 2, -1, 1, 0, 0, 1, -1, 2, -2, 3, -3], ctildes: [0.37796446681022644, -0.37796446681022644, 0.37796446681022644, -0.37796446681022644, 0.37796446681022644, -0.37796446681022644, 0.37796446681022644]}
    - {mu0: 0, rank: 2, ndensity: 1, num_ms_combs: 7, mus: [0, 1], ns: [2, 3], ls: [3, 3], ms_combs: [-3, 3, -2, 2, -1, 1, 0, 0, 1, -1, 2, -2, 3, -3], ctildes: [0.37796446681022644, -0.37796446681022644, 0.37796446681022644, -0.37796446681022644, 0.37796446681022644, -0.37796446681022644, 0.37796446681022644]}
    - {mu0: 0, rank: 2, ndensity: 1, num_ms_combs: 7, mus: [1, 1], ns: [2, 3], ls: [3, 3], ms_combs: [-3, 3, -2, 2, -1, 1, 0, 0, 1, -1, 2, -2, 3, -3], ctildes: [0.37796446681022644, -0.37796446681022644, 0.37796446681022644, -0.37796446681022644, 0.37796446681022644, -0.37796446681022644, 0.37796446681022644]}
    - {mu0: 0, rank: 2, ndensity: 1, num_ms_combs: 7, mus: [0, 0], ns: [2, 4], ls: [3, 3], ms_combs: [-3, 3, -2, 2, -1, 1, 0, 0, 1, -1, 2, -2, 3, -3], ctildes: [0.37796446681022644, -0.37796446681022644, 0.37796446681022644, -0.37796446681022644, 0.37796446681022644, -0.37796446681022644, 0.37796446681022644]}
    - {mu0: 0, rank: 2, ndensity: 1, num_ms_combs: 7, mus: [0, 1], ns: [2, 4], ls: [3, 3], ms_combs: [-3, 3, -2, 2, -1, 1, 0, 0, 1, -1, 2, -2, 3, -3], ctildes: [0.37796446681022644, -0.37796446681022644, 0.37796446681022644, -0.37796446681022644, 0.37796446681022644, -0.37796446681022644, 0.37796446681022644]}
    - {mu0: 0, rank: 2, ndensity: 1, num_ms_combs: 7, mus: [1, 1], ns: [2, 4], ls: [3, 3], ms_combs: [-3, 3, -2, 2, -1, 1, 0, 0, 1, -1, 2, -2, 3, -3], ctildes: [0.37796446681022644, -0.37796446681022644, 0.37796446681022644, -0.37796446681022644, 0.37796446681022644, -0.37796446681022644, 0.37796446681022644]}
    - {mu0: 0, rank: 2, ndensity: 1, num_ms_combs: 7, mus: [0, 0], ns: [2, 5], ls: [3, 3], ms_combs: [-3, 3, -2, 2, -1, 1, 0, 0, 1, -1, 2, -2, 3, -3], ctildes: [0.37796446681022644, -0.37796446681022644, 0.37796446681022644, -0.37796446681022644, 0.37796446681022644, -0.37796446681022644, 0.37796446681022644]}
    - {mu0: 0, rank: 2, ndensity: 1, num_ms_combs: 7, mus: [0, 1], ns: [2, 5], ls: [3, 3], ms_combs: [-3, 3, -2, 2, -1, 1, 0, 0, 1, -1, 2, -2, 3, -3], ctildes: [0.37796446681022644, -0.37796446681022644, 0.37796446681022644, -0.37796446681022644, 0.37796446681022644, -0.37796446681022644, 0.37796446681022644]}
    - {mu0: 0, rank: 2, ndensity: 1, num_ms_combs: 7, mus: [1, 1], ns: [2, 5], ls: [3, 3], ms_combs: [-3, 3, -2, 2, -1, 1, 0, 0, 1, -1, 2, -2, 3, -3], ctildes: [0.37796446681022644, -0.37796446681022644, 0.37796446681022644, -0.37796446681022644, 0.37796446681022644, -0.37796446681022644, 0.37796446681022644]}
    - {mu0: 0, rank: 2, ndensity: 1, num_ms_combs: 7, mus: [0, 0], ns: [2, 6], ls: [3, 3], ms_combs: [-3, 3, -2, 2, -1, 1, 0, 0, 1, -1, 2, -2, 3, -3], ctildes: [0.37796446681022644, -0.37796446681022644, 0.37796446681022644, -0.37796446681022644, 0.37796446681022644, -0.37796446681022644, 0.37796446681022644]}
    - {mu0: 0, rank: 2, ndensity: 1, num_ms_combs: 7, mus: [0, 1], ns: [2, 6], ls: [3, 3], ms_combs: [-3, 3, -2, 2, -1, 1, 0, 0, 1, -1, 2, -2, 3, -3], ctildes: [0.37796446681022644, -0.37796446681022644, 0.37796446681022644, -0.37796446681022644, 0.37796446681022644, -0.37796446681022644, 0.37796446681022644]}
    - {mu0: 0, rank: 2, ndensity: 1, num_ms_combs: 7, mus: [1, 1], ns: [2, 6], ls: [3, 3], ms_combs: [-3, 3, -2, 2, -1, 1, 0, 0, 1, -1, 2, -2, 3, -3], ctildes: [0.37796446681022644, -0.37796446681022644, 0.37796446681022644, -0.37796446681022644, 0.37796446681022644, -0.37796446681022644, 0.37796446681022644]}
    - {mu0: 0, rank: 2, ndensity: 1, num_ms_combs: 7, mus: [0, 1], ns: [3, 1], ls: [3, 3], ms_combs: [-3, 3, -2, 2, -1, 1, 0, 0, 1, -1, 2, -2, 3, -3], ctildes: [0.37796446681022644, -0.37796446681022644, 0.37796446681022644, -0.37796446681022644, 0.37796446681022644, -0.37796446681022644, 0.37796446681022644]}
    - {mu0: 0, rank: 2, ndensity: 1, num_ms_combs: 7, mus: [0, 1], ns: [3, 2], ls: [3, 3], ms_combs: [-3, 3, -2, 2, -1, 1, 0, 0, 1, -1, 2, -2, 3, -3], ctildes: [0.37796446681022644, -0.37796446681022644, 0.37796446681022644, -0.37796446681022644, 0.37796446681022644, -0.37796446681022644, 0.37796446681022644]}
    - {mu0: 0, rank: 2, ndensity: 1, num_ms_combs: 7, mus: [0, 0], ns: [3, 3], ls: [3, 3], ms_combs: [-3, 3, -2, 2, -1, 1, 0, 0, 1, -1, 2, -2, 3, -3], ctildes: [0.37796446681022644, -0.37796446681022644, 0.37796446681022644, -0.37796446681022644, 0.37796446681022644, -0.37796446681022644, 0.37796446681022644]}
    - {mu0: 0, rank: 2, ndensity: 1, num_ms_combs: 7, mus: [0, 1], ns: [3, 3], ls: [3, 3], ms_combs: [-3, 3, -2, 2, -1, 1, 0, 0, 1, -1, 2, -2, 3, -3], ctildes: [0.37796446681022644, -0.37796446681022644, 0.37796446681022644, -0.37796446681022644, 0.37796446681022644, -0.37796446681022644, 0.37796446681022644]}
    - {mu0: 0, rank: 2, ndensity: 1, num_ms_combs: 7, mus: [1, 1], ns: [3, 3], ls: [3, 3], ms_combs: [-3, 3, -2, 2, -1, 1, 0, 0, 1, -1, 2, -2, 3, -3], ctildes: [0.37796446681022644, -0.37796446681022644, 0.37796446681022644, -0.37796446681022644, 0.37796446681022644, -0.37796446681022644, 0.37796446681022644]}
    - {mu0: 0, rank: 2, ndensity: 1, num_ms_combs: 7, mus: [0, 0], ns: [3, 4], ls: [3, 3], ms_combs: [-3, 3, -2, 2, -1, 1, 0, 0, 1, -1, 2, -2, 3, -3], ctildes: [0.37796446681022644, -0.37796446681022644, 0.37796446681022644, -0.37796446681022644, 0.37796446681022644, -0.37796446681022644, 0.37796446681022644]}
    - {mu0: 0, rank: 2, ndensity: 1, num_ms_combs: 7, mus: [0, 1], ns: [3, 4], ls: [3, 3], ms_combs: [-3, 3, -2, 2, -1, 1, 0, 0, 1, -1, 2, -2, 3, -3], ctildes: [0.37796446681022644, -0.37796446681022644, 0.37796446681022644, -0.37796446681022644, 0.37796446681022644, -0.37796446681022644, 0.37796446681022644]}
    - {mu0: 0, rank: 2, ndensity: 1, num_ms_combs: 7, mus: [1, 1], ns: [3, 4], ls: [3, 3], ms_combs: [-3, 3, -2, 2, -1, 1, 0, 0, 1, -1, 2, -2, 3, -3], ctildes: [0.37796446681022644, -0.37796446681022644, 0.37796446681022644, -0.37796446681022644, 0.37796446681022644, -0.37796446681022644, 0.37796446681022644]}
    - {mu0: 0, rank: 2, ndensity: 1, num_ms_combs: 7, mus: [0, 0], ns: [3, 5], ls: [3, 3], ms_combs: [-3, 3, -2, 2, -1, 1, 0, 0, 1, -1, 2, -2, 3, -3], ctildes: [0.37796446681022644, -0.37796446681022644, 0.37796446681022644, -0.37796446681022644, 0.37796446681022644, -0.37796446681022644, 0.37796446681022644]}
    - {mu0: 0, rank: 2, ndensity: 1, num_ms_combs: 7, mus: [0, 1], ns: [3, 5], ls: [3, 3], ms_combs: [-3, 3, -2, 2, -1, 1, 0, 0, 1, -1, 2, -2, 3, -3], ctildes: [0.37796446681022644, -0.37796446681022644, 0.37796446681022644, -0.37796446681022644, 0.37796446681022644, -0.37796446681022644, 0.37796446681022644]}
    - {mu0: 0, rank: 2, ndensity: 1, num_ms_combs: 7, mus: [1, 1], ns: [3, 5], ls: [3, 3], ms_combs: [-3, 3, -2, 2, -1, 1, 0, 0, 1, -1, 2, -2, 3, -3], ctildes: [0.37796446681022644, -0.37796446681022644, 0.37796446681022644, -0.37796446681022644, 0.37796446681022644, -0.37796446681022644, 0.37796446681022644]}
    - {mu0: 0, rank: 2, ndensity: 1, num_ms_combs: 7, mus: [0, 0], ns: [3, 6], ls: [3, 3], ms_combs: [-3, 3, -2, 2, -1, 1, 0, 0, 1, -1, 2, -2, 3, -3], ctildes: [0.37796446681022644, -0.37796446681022644, 0.37796446681022644, -0.37796446681022644, 0.37796446681022644, -0.37796446681022644, 0.37796446681022644]}
    - {mu0: 0, rank: 2, ndensity: 1, num_ms_combs: 7, mus: [0, 1], ns: [3, 6], ls: [3, 3], ms_combs: [-3, 3, -2, 2, -1, 1, 0, 0, 1, -1, 2, -2, 3, -3], ctildes: [0.37796446681022644, -0.37796446681022644, 0.37796446681022644, -0.37796446681022644, 0.37796446681022644, -0.37796446681022644, 0.37796446681022644]}
    - {mu0: 0, rank: 2, ndensity: 1, num_ms_combs: 7, mus: [1, 1], ns: [3, 6], ls: [3, 3], ms_combs: [-3, 3, -2, 2, -1, 1, 0, 0, 1, -1, 2, -2, 3, -3], ctildes: [0.37796446681022644, -0.37796446681022644, 0.37796446681022644, -0.37796446681022644, 0.37796446681022644, -0.37796446681022644, 0.37796446681022644]}
    - {mu0: 0, rank: 2, ndensity: 1, num_ms_combs: 7, mus: [0, 1], ns: [4, 1], ls: [3, 3], ms_combs: [-3, 3, -2, 2, -1, 1, 0, 0, 1, -1, 2, -2, 3, -3], ctildes: [0.37796446681022644, -0.37796446681022644, 0.37796446681022644, -0.37796446681022644, 0.37796446681022644, -0.37796446681022644, 0.37796446681022644]}
    - {mu0: 0, rank: 2, ndensity: 1, num_ms_combs: 7, mus: [0, 1], ns: [4, 2], ls: [3, 3], ms_combs: [-3, 3, -2, 2, -1, 1, 0, 0, 1, -1, 2, -2, 3, -3], ctildes: [0.37796446681022644, -0.37796446681022644, 0.37796446681022644, -0.37796446681022644, 0.37796446681022644, -0.37796446681022644, 0.37796446681022644]}
    - {mu0: 0, rank: 2, ndensity: 1, num_ms_combs: 7, mus: [0, 1], ns: [4, 3], ls: [3, 3], ms_combs: [-3, 3, -2, 2, -1, 1, 0, 0, 1, -1, 2, -2, 3, -3], ctildes: [0.37796446681022644, -0.37796446681022644, 0.37796446681022644, -0.37796446681022644, 0.37796446681022644, -0.37796446681022644, 0.37796446681022644]}
    - {mu0: 0, rank: 2, ndensity: 1, num_ms_combs: 7, mus: [0, 0], ns: [4, 4], ls: [3, 3], ms_combs: [-3, 3, -2, 2, -1, 1, 0, 0, 1, -1, 2, -2, 3, -3], ctildes: [0.37796446681022644, -0.37796446681022644, 0.37796446681022644, -0.37796446681022644, 0.37796446681022644, -0.37796446681022644, 0.37796446681022644]}
    - {mu0: 0, rank: 2, ndensity: 1, num_ms_combs: 7, mus: [0, 1], ns: [4, 4], ls: [3, 3], ms_combs: [-3, 3, -2, 2, -1, 1, 0, 0, 1, -1, 2, -2, 3, -3], ctildes: [0.37796446681022644, -0.37796446681022644, 0.37796446681022644, -0.37796446681022644, 0.37796446681022644, -0.37796446681022644, 0.37796446681022644]}
    - {mu0: 0, rank: 2, ndensity: 1, num_ms_combs: 7, mus: [1, 1], ns: [4, 4], ls: [3, 3], ms_combs: [-3, 3, -2, 2, -1, 1, 0, 0, 1, -1, 2, -2, 3, -3], ctildes: [0.37796446681022644, -0.37796446681022644, 0.37796446681022644, -0.37796446681022644, 0.37796446681022644, -0.37796446681022644, 0.37796446681022644]}
    - {mu0: 0, rank: 2, ndensity: 1, num_ms_combs: 7, mus: [0, 0], ns: [4, 5], ls: [3, 3], ms_combs: [-3, 3, -2, 2, -1, 1, 0, 0, 1, -1, 2, -2, 3, -3], ctildes: [0.37796446681022644, -0.37796446681022644, 0.37796446681022644, -0.37796446681022644, 0.37796446681022644, -0.37796446681022644, 0.37796446681022644]}
    - {mu0: 0, rank: 2, ndensity: 1, num_ms_combs: 7, mus: [0, 1], ns: [4, 5], ls: [3, 3], ms_combs: [-3, 3, -2, 2, -1, 1, 0, 0, 1, -1, 2, -2, 3, -3], ctildes: [0.37796446681022644, -0.37796446681022644, 0.37796446681022644, -0.37796446681022644, 0.37796446681022644, -0.37796446681022644, 0.37796446681022644]}
    - {mu0: 0, rank: 2, ndensity: 1, num_ms_combs: 7, mus: [1, 1], ns: [4, 5], ls: [3, 3], ms_combs: [-3, 3, -2, 2, -1, 1, 0, 0, 1, -1, 2, -2, 3, -3], ctildes: [0.37796446681022644, -0.37796446681022644, 0.37796446681022644, -0.37796446681022644, 0.37796446681022644, -0.37796446681022644, 0.37796446681022644]}
    - {mu0: 0, rank: 2, ndensity: 1, num_ms_combs: 7, mus: [0, 0], ns: [4, 6], ls: [3, 3], ms_combs: [-3, 3, -2, 2, -1, 1, 0, 0, 1, -1, 2, -2, 3, -3], ctildes: [0.37796446681022644, -0.37796446681022644, 0.37796446681022644, -0.37796446681022644, 0.37796446681022644, -0.37796446681022644, 0.37796446681022644]}
    - {mu0: 0, rank: 2, ndensity: 1, num_ms_combs: 7, mus: [0, 1], ns: [4, 6], ls: [3, 3], ms_combs: [-3, 3, -2, 2, -1, 1, 0, 0, 1, -1, 2, -2, 3, -3], ctildes: [0.37796446681022644, -0.37796446681022644, 0.37796446681022644, -0.37796446681022644, 0.37796446681022644, -0.37796446681022644, 0.37796446681022644]}
    - {mu0: 0, rank: 2, ndensity: 1, num_ms_combs: 7, mus: [1, 1], ns: [4, 6], ls: [3, 3], ms_combs: [-3, 3, -2, 2, -1, 1, 0, 0, 1, -1, 2, -2, 3, -3], ctildes: [0.37796446681022644, -0.37796446681022644, 0.37796446681022644, -0.37796446681022644, 0.37796446681022644, -0.37796446681022644, 0.37796446681022644]}
    - {mu0: 0, rank: 2, ndensity: 1, num_ms_combs: 7, mus: [0, 1], ns: [5, 1], ls: [3, 3], ms_combs: [-3, 3, -2, 2, -1, 1, 0, 0, 1, -1, 2, -2, 3, -3], ctildes: [0.37796446681022644, -0.37796446681022644, 0.37796446681022644, -0.37796446681022644, 0.37796446681022644, -0.37796446681022644, 0.37796446681022644]}
    - {mu0: 0, rank: 2, ndensity: 1, num_ms_combs: 7, mus: [0, 1], ns: [5, 2], ls: [3, 3], ms_combs: [-3, 3, -2, 2, -1, 1, 0, 0, 1, -1, 2, -2, 3, -3], ctildes: [0.37796446681022644, -0.37796446681022644, 0.37796446681022644, -0.37796446681022644, 0.37796446681022644, -0.37796446681022644, 0.37796446681022644]}
    - {mu0: 0, rank: 2, ndensity: 1, num_ms_combs: 7, mus: [0, 1], ns: [5, 3], ls: [3, 3], ms_combs: [-3, 3, -2, 2, -1, 1, 0, 0, 1, -1, 2, -2, 3, -3], ctildes: [0.37796446681022644, -0.37796446681022644, 0.37796446681022644, -0.37796446681022644, 0.37796446681022644, -0.37796446681022644, 0.37796446681022644]}
    - {mu0: 0, rank: 2, ndensity: 1, num_ms_combs: 7, mus: [0, 1], ns: [5, 4], ls: [3, 3], ms_combs: [-3, 3, -2, 2, -1, 1, 0, 0, 1, -1, 2, -2, 3, -3], ctildes: [0.37796446681022644, -0.37796446681022644, 0.37796446681022644, -0.37796446681022644, 0.37796446681022644, -0.37796446681022644, 0.37796446681022644]}
    - {mu0: 0, rank: 2, ndensity: 1, num_ms_combs: 7, mus: [0, 0], ns: [5, 5], ls: [3, 3], ms_combs: [-3, 3, -2, 2, -1, 1, 0, 0, 1, -1, 2, -2, 3, -3], ctildes: [0.37796446681022644, -0.37796446681022644, 0.37796446681022644, -0.37796446681022644, 0.37796446681022644, -0.37796446681022644, 0.37796446681022644]}
    - {mu0: 0, rank: 2, ndensity: 1, num_ms_combs: 7, mus: [0, 1], ns: [5, 5], ls: [3, 3], ms_combs: [-3, 3, -2, 2, -1, 1, 0, 0, 1, -1, 2, -2, 3, -3], ctildes: [0.37796446681022644, -0.37796446681022644, 0.37796446681022644, -0.37796446681022644, 0.37796446681022644, -0.37796446681022644, 0.37796446681022644]}
    - {mu0: 0, rank: 2, ndensity: 1, num_ms_combs: 7, mus: [1, 1], ns: [5, 5], ls: [3, 3], ms_combs: [-3, 3, -2, 2, -1, 1, 0, 0, 1, -1, 2, -2, 3, -3], ctildes: [0.37796446681022644, -0.37796446681022644, 0.37796446681022644, -0.37796446681022644, 0.37796446681022644, -0.37796446681022644, 0.37796446681022644]}
    - {mu0: 0, rank: 2, ndensity: 1, num_ms_combs: 7, mus: [0, 0], ns: [5, 6], ls: [3, 3], ms_combs: [-3, 3, -2, 2, -1, 1, 0, 0, 1, -1, 2, -2, 3, -3], ctildes: [0.37796446681022644, -0.37796446681022644, 0.37796446681022644, -0.37796446681022644, 0.37796446681022644, -0.37796446681022644, 0.37796446681022644]}
    - {mu0: 0, rank: 2, ndensity: 1, num_ms_combs: 7, mus: [0, 1], ns: [5, 6], ls: [3, 3], ms_combs: [-3, 3, -2, 2, -1, 1, 0, 0, 1, -1, 2, -2, 3, -3], ctildes: [0.37796446681022644, -0.37796446681022644, 0.37796446681022644, -0.37796446681022644, 0.37796446681022644, -0.37796446681022644, 0.37796446681022644]}
    - {mu0: 0, rank: 2, ndensity: 1, num_ms_combs: 7, mus: [1, 1], ns: [5, 6], ls: [3, 3], ms_combs: [-3, 3, -2, 2, -1, 1, 0, 0, 1, -1, 2, -2, 3, -3], ctildes: [0.37796446681022644, -0.37796446681022644, 0.37796446681022644, -0.37796446681022644, 0.37796446681022644, -0.37796446681022644, 0.37796446681022644]}
    - {mu0: 0, rank: 2, ndensity: 1, num_ms_combs: 7, mus: [0, 1], ns: [6, 1], ls: [3, 3], ms_combs: [-3, 3, -2, 2, -1, 1, 0, 0, 1, -1, 2, -2, 3, -3], ctildes: [0.37796446681022644, -0.37796446681022644, 0.37796446681022644, -0.37796446681022644, 0.37796446681022644, -0.37796446681022644, 0.37796446681022644]}
    - {mu0: 0, rank: 2, ndensity: 1, num_ms_combs: 7, mus: [0, 1], ns: [6, 2], ls: [3, 3], ms_combs: [-3, 3, -2, 2, -1, 1, 0, 0, 1, -1, 2, -2, 3, -3], ctildes: [0.37796446681022644, -0.37796446681022644, 0.37796446681022644, -0.37796446681022644, 0.37796446681022644, -0.37796446681022644, 0.37796446681022644]}
    - {mu0: 0, rank: 2, ndensity: 1, num_ms_combs: 7, mus: [0, 1], ns: [6, 3], ls: [3, 3], ms_combs: [-3, 3, -2, 2, -1, 1, 0, 0, 1, -1, 2, -2, 3, -3], ctildes: [0.37796446681022644, -0.37796446681022644, 0.37796446681022644, -0.37796446681022644, 0.37796446681022644, -0.37796446681022644, 0.37796446681022644]}
    - {mu0: 0, rank: 2, ndensity: 1, num_ms_combs: 7, mus: [0, 1], ns: [6, 4], ls: [3, 3], ms_combs: [-3, 3, -2, 2, -1, 1, 0, 0, 1, -1, 2, -2, 3, -3], ctildes: [0.37796446681022644, -0.37796446681022644, 0.37796446681022644, -0.37796446681022644, 0.37796446681022644, -0.37796446681022644, 0.37796446681022644]}
    - {mu0: 0, rank: 2, ndensity: 1, num_ms_combs: 7, mus: [0, 1], ns: [6, 5], ls: [3, 3], ms_combs: [-3, 3, -2, 2, -1, 1, 0, 0, 1, -1, 2, -2, 3, -3], ctildes: [0.37796446681022644, -0.37796446681022644, 0.37796446681022644, -0.37796446681022644, 0.37796446681022644, -0.37796446681022644, 0.37796446681022644]}
    - {mu0: 0, rank: 2, ndensity: 1, num_ms_combs: 7, mus: [0, 0], ns: [6, 6], ls: [3, 3], ms_combs: [-3, 3, -2, 2, -1, 1, 0, 0, 1, -1, 2, -2, 3, -3], ctildes: [0.37796446681022644, -0.37796446681022644, 0.37796446681022644, -0.37796446681022644, 0.37796446681022644, -0.37796446681022644, 0.37796446681022644]}
    - {mu0: 0, rank: 2, ndensity: 1, num_ms_combs: 7, mus: [0, 1], ns: [6, 6], ls: [3, 3], ms_combs: [-3, 3, -2, 2, -1, 1, 0, 0, 1, -1, 2, -2, 3, -3], ctildes: [0.37796446681022644, -0.37796446681022644, 0.37796446681022644, -0.37796446681022644, 0.37796446681022644, -0.37796446681022644, 0.37796446681022644]}
    - {mu0: 0, rank: 2, ndensity: 1, num_ms_combs: 7, mus: [1, 1], ns: [6, 6], ls: [3, 3], ms_combs: [-3, 3, -2, 2, -1, 1, 0, 0, 1, -1, 2, -2, 3, -3], ctildes: [0.37796446681022644, -0.37796446681022644, 0.37796446681022644, -0.37796446681022644, 0.37796446681022644, -0.37796446681022644, 0.37796446681022644]}
    - {mu0: 0, rank: 2, ndensity: 1, num_ms_combs: 9, mus: [0, 0], ns: [1, 1], ls: [4, 4], ms_combs: [-4, 4, -3, 3, -2, 2, -1, 1, 0, 0, 1, -1, 2, -2, 3, -3, 4, -4], ctildes: [0.3333333432674408, -0.3333333432674408, 0.3333333432674408, -0.3333333432674408, 0.3333333432674408, -0.3333333432674408, 0.3333333432674408, -0.3333333432674408, 0.3333333432674408]}
    - {mu0: 0, rank: 2, ndensity: 1, num_ms_combs: 9, mus: [0, 1], ns: [1, 1], ls: [4, 4], ms_combs: [-4, 4, -3, 3, -2, 2, -1, 1, 0, 0, 1, -1, 2, -2, 3, -3, 4, -4], ctildes: [0.3333333432674408, -0.3333333432674408, 0.3333333432674408, -0.3333333432674408, 0.3333333432674408, -0.3333333432674408, 0.3333333432674408, -0.3333333432674408, 0.3333333432674408]}
    - {mu0: 0, rank: 2, ndensity: 1, num_ms_combs: 9, mus: [1, 1], ns: [1, 1], ls: [4, 4], ms_combs: [-4, 4, -3, 3, -2, 2, -1, 1, 0, 0, 1, -1, 2, -2, 3, -3, 4, -4], ctildes: [0.3333333432674408, -0.3333333432674408, 0.3333333432674408, -0.3333333432674408, 0.3333333432674408, -0.3333333432674408, 0.3333333432674408, -0.3333333432674408, 0.3333333432674408]}
    - {mu0: 0, rank: 2, ndensity: 1, num_ms_combs: 9, mus: [0, 0], ns: [1, 2], ls: [4, 4], ms_combs: [-4, 4, -3, 3, -2, 2, -1, 1, 0, 0, 1, -1, 2, -2, 3, -3, 4, -4], ctildes: [0.3333333432674408, -0.3333333432674408, 0.3333333432674408, -0.3333333432674408, 0.3333333432674408, -0.3333333432674408, 0.3333333432674408, -0.3333333432674408, 0.3333333432674408]}
    - {mu0: 0, rank: 2, ndensity: 1, num_ms_combs: 9, mus: [0, 1], ns: [1, 2], ls: [4, 4], ms_combs: [-4, 4, -3, 3, -2, 2, -1, 1, 0, 0, 1, -1, 2, -2, 3, -3, 4, -4], ctildes: [0.3333333432674408, -0.3333333432674408, 0.3333333432674408, -0.3333333432674408, 0.3333333432674408, -0.3333333432674408, 0.3333333432674408, -0.3333333432674408, 0.3333333432674408]}
    - {mu0: 0, rank: 2, ndensity: 1, num_ms_combs: 9, mus: [1, 1], ns: [1, 2], ls: [4, 4], ms_combs: [-4, 4, -3, 3, -2, 2, -1, 1, 0, 0, 1, -1, 2, -2, 3, -3, 4, -4], ctildes: [0.3333333432674408, -0.3333333432674408, 0.3333333432674408, -0.3333333432674408, 0.3333333432674408, -0.3333333432674408, 0.3333333432674408, -0.3333333432674408, 0.3333333432674408]}
    - {mu0: 0, rank: 2, ndensity: 1, num_ms_combs: 9, mus: [0, 0], ns: [1, 3], ls: [4, 4], ms_combs: [-4, 4, -3, 3, -2, 2, -1, 1, 0, 0, 1, -1, 2, -2, 3, -3, 4, -4], ctildes: [0.3333333432674408, -0.3333333432674408, 0.3333333432674408, -0.3333333432674408, 0.3333333432674408, -0.3333333432674408, 0.3333333432674408, -0.3333333432674408, 0.3333333432674408]}
    - {mu0: 0, rank: 2, ndensity: 1, num_ms_combs: 9, mus: [0, 1], ns: [1, 3], ls: [4, 4], ms_combs: [-4, 4, -3, 3, -2, 2, -1, 1, 0, 0, 1, -1, 2, -2, 3, -3, 4, -4], ctildes: [0.3333333432674408, -0.3333333432674408, 0.3333333432674408, -0.3333333432674408, 0.3333333432674408, -0.3333333432674408, 0.3333333432674408, -0.3333333432674408, 0.3333333432674408]}
    - {mu0: 0, rank: 2, ndensity: 1, num_ms_combs: 9, mus: [1, 1], ns: [1, 3], ls: [4, 4], ms_combs: [-4, 4, -3, 3, -2, 2, -1, 1, 0, 0, 1, -1, 2, -2, 3, -3, 4, -4], ctildes: [0.3333333432674408, -0.3333333432674408, 0.3333333432674408, -0.3333333432674408, 0.3333333432674408, -0.3333333432674408, 0.3333333432674408, -0.3333333432674408, 0.3333333432674408]}
    - {mu0: 0, rank: 2, ndensity: 1, num_ms_combs: 9, mus: [0, 0], ns: [1, 4], ls: [4, 4], ms_combs: [-4, 4, -3, 3, -2, 2, -1, 1, 0, 0, 1, -1, 2, -2, 3, -3, 4, -4], ctildes: [0.3333333432674408, -0.3333333432674408, 0.3333333432674408, -0.3333333432674408, 0.3333333432674408, -0.3333333432674408, 0.3333333432674408, -0.3333333432674408, 0.3333333432674408]}
    - {mu0: 0, rank: 2, ndensity: 1, num_ms_combs: 9, mus: [0, 1], ns: [1, 4], ls: [4, 4], ms_combs: [-4, 4, -3, 3, -2, 2, -1, 1, 0, 0, 1, -1, 2, -2, 3, -3, 4, -4], ctildes: [0.3333333432674408, -0.3333333432674408, 0.3333333432674408, -0.3333333432674408, 0.3333333432674408, -0.3333333432674408, 0.3333333432674408, -0.3333333432674408, 0.3333333432674408]}
    - {mu0: 0, rank: 2, ndensity: 1, num_ms_combs: 9, mus: [1, 1], ns: [1, 4], ls: [4, 4], ms_combs: [-4, 4, -3, 3, -2, 2, -1, 1, 0, 0, 1, -1, 2, -2, 3, -3, 4, -4], ctildes: [0.3333333432674408, -0.3333333432674408, 0.3333333432674408, -0.3333333432674408, 0.3333333432674408, -0.3333333432674408, 0.3333333432674408, -0.3333333432674408, 0.3333333432674408]}
    - {mu0: 0, rank: 2, ndensity: 1, num_ms_combs: 9, mus: [0, 0], ns: [1, 5], ls: [4, 4], ms_combs: [-4, 4, -3, 3, -2, 2, -1, 1, 0, 0, 1, -1, 2, -2, 3, -3, 4, -4], ctildes: [0.3333333432674408, -0.3333333432674408, 0.3333333432674408, -0.3333333432674408, 0.3333333432674408, -0.3333333432674408, 0.3333333432674408, -0.3333333432674408, 0.3333333432674408]}
    - {mu0: 0, rank: 2, ndensity: 1, num_ms_combs: 9, mus: [0, 1], ns: [1, 5], ls: [4, 4], ms_combs: [-4, 4, -3, 3, -2, 2, -1, 1, 0, 0, 1, -1, 2, -2, 3, -3, 4, -4], ctildes: [0.3333333432674408, -0.3333333432674408, 0.3333333432674408, -0.3333333432674408, 0.3333333432674408, -0.3333333432674408, 0.3333333432674408, -0.3333333432674408, 0.3333333432674408]}
    - {mu0: 0, rank: 2, ndensity: 1, num_ms_combs: 9, mus: [1, 1], ns: [1, 5], ls: [4, 4], ms_combs: [-4, 4, -3, 3, -2, 2, -1, 1, 0, 0, 1, -1, 2, -2, 3, -3, 4, -4], ctildes: [0.3333333432674408, -0.3333333432674408, 0.3333333432674408, -0.3333333432674408, 0.3333333432674408, -0.3333333432674408, 0.3333333432674408, -0.3333333432674408, 0.3333333432674408]}
    - {mu0: 0, rank: 2, ndensity: 1, num_ms_combs: 9, mus: [0, 0], ns: [1, 6], ls: [4, 4], ms_combs: [-4, 4, -3, 3, -2, 2, -1, 1, 0, 0, 1, -1, 2, -2, 3, -3, 4, -4], ctildes: [0.3333333432674408, -0.3333333432674408, 0.3333333432674408, -0.3333333432674408, 0.3333333432674408, -0.3333333432674408, 0.3333333432674408, -0.3333333432674408, 0.3333333432674408]}
    - {mu0: 0, rank: 2, ndensity: 1, num_ms_combs: 9, mus: [0, 1], ns: [1, 6], ls: [4, 4], ms_combs: [-4, 4, -3, 3, -2, 2, -1, 1, 0, 0, 1, -1, 2, -2, 3, -3, 4, -4], ctildes: [0.3333333432674408, -0.3333333432674408, 0.3333333432674408, -0.3333333432674408, 0.3333333432674408, -0.3333333432674408, 0.3333333432674408, -0.3333333432674408, 0.3333333432674408]}
    - {mu0: 0, rank: 2, ndensity: 1, num_ms_combs: 9, mus: [1, 1], ns: [1, 6], ls: [4, 4], ms_combs: [-4, 4, -3, 3, -2, 2, -1, 1, 0, 0, 1, -1, 2, -2, 3, -3, 4, -4], ctildes: [0.3333333432674408, -0.3333333432674408, 0.3333333432674408, -0.3333333432674408, 0.3333333432674408, -0.3333333432674408, 0.3333333432674408, -0.3333333432674408, 0.3333333432674408]}
    - {mu0: 0, rank: 2, ndensity: 1, num_ms_combs: 9, mus: [0, 1], ns: [2, 1], ls: [4, 4], ms_combs: [-4, 4, -3, 3, -2, 2, -1, 1, 0, 0, 1, -1, 2, -2, 3, -3, 4, -4], ctildes: [0.3333333432674408, -0.3333333432674408, 0.3333333432674408, -0.3333333432674408, 0.3333333432674408, -0.3333333432674408, 0.3333333432674408, -0.3333333432674408, 0.3333333432674408]}
    - {mu0: 0, rank: 2, ndensity: 1, num_ms_combs: 9, mus: [0, 0], ns: [2, 2], ls: [4, 4], ms_combs: [-4, 4, -3, 3, -2, 2, -1, 1, 0, 0, 1, -1, 2, -2, 3, -3, 4, -4], ctildes: [0.3333333432674408, -0.3333333432674408, 0.3333333432674408, -0.3333333432674408, 0.3333333432674408, -0.3333333432674408, 0.3333333432674408, -0.3333333432674408, 0.3333333432674408]}
    - {mu0: 0, rank: 2, ndensity: 1, num_ms_combs: 9, mus: [0, 1], ns: [2, 2], ls: [4, 4], ms_combs: [-4, 4, -3, 3, -2, 2, -1, 1, 0, 0, 1, -1, 2, -2, 3, -3, 4, -4], ctildes: [0.3333333432674408, -0.3333333432674408, 0.3333333432674408, -0.3333333432674408, 0.3333333432674408, -0.3333333432674408, 0.3333333432674408, -0.3333333432674408, 0.3333333432674408]}
    - {mu0: 0, rank: 2, ndensity: 1, num_ms_combs: 9, mus: [1, 1], ns: [2, 2], ls: [4, 4], ms_combs: [-4, 4, -3, 3, -2, 2, -1, 1, 0, 0, 1, -1, 2, -2, 3, -3, 4, -4], ctildes: [0.3333333432674408, -0.3333333432674408, 0.3333333432674408, -0.3333333432674408, 0.3333333432674408, -0.3333333432674408, 0.3333333432674408, -0.3333333432674408, 0.3333333432674408]}
    - {mu0: 0, rank: 2, ndensity: 1, num_ms_combs: 9, mus: [0, 0], ns: [2, 3], ls: [4, 4], ms_combs: [-4, 4, -3, 3, -2, 2, -1, 1, 0, 0, 1, -1, 2, -2, 3, -3, 4, -4], ctildes: [0.3333333432674408, -0.3333333432674408, 0.3333333432674408, -0.3333333432674408, 0.3333333432674408, -0.3333333432674408, 0.3333333432674408, -0.3333333432674408, 0.3333333432674408]}
    - {mu0: 0, rank: 2, ndensity: 1, num_ms_combs: 9, mus: [0, 1], ns: [2, 3], ls: [4, 4], ms_combs: [-4, 4, -3, 3, -2, 2, -1, 1, 0, 0, 1, -1, 2, -2, 3, -3, 4, -4], ctildes: [0.3333333432674408, -0.3333333432674408, 0.3333333432674408, -0.3333333432674408, 0.3333333432674408, -0.3333333432674408, 0.3333333432674408, -0.3333333432674408, 0.3333333432674408]}
    - {mu0: 0, rank: 2, ndensity: 1, num_ms_combs: 9, mus: [1, 1], ns: [2, 3], ls: [4, 4], ms_combs: [-4, 4, -3, 3, -2, 2, -1, 1, 0, 0, 1, -1, 2, -2, 3, -3, 4, -4], ctildes: [0.3333333432674408, -0.3333333432674408, 0.3333333432674408, -0.3333333432674408, 0.3333333432674408, -0.3333333432674408, 0.3333333432674408, -0.3333333432674408, 0.3333333432674408]}
    - {mu0: 0, rank: 2, ndensity: 1, num_ms_combs: 9, mus: [0, 0], ns: [2, 4], ls: [4, 4], ms_combs: [-4, 4, -3, 3, -2, 2, -1, 1, 0, 0, 1, -1, 2, -2, 3, -3, 4, -4], ctildes: [0.3333333432674408, -0.3333333432674408, 0.3333333432674408, -0.3333333432674408, 0.3333333432674408, -0.3333333432674408, 0.3333333432674408, -0.3333333432674408, 0.3333333432674408]}
    - {mu0: 0, rank: 2, ndensity: 1, num_ms_combs: 9, mus: [0, 1], ns: [2, 4], ls: [4, 4], ms_combs: [-4, 4, -3, 3, -2, 2, -1, 1, 0, 0, 1, -1, 2, -2, 3, -3, 4, -4], ctildes: [0.3333333432674408, -0.3333333432674408, 0.3333333432674408, -0.3333333432674408, 0.3333333432674408, -0.3333333432674408, 0.3333333432674408, -0.3333333432674408, 0.3333333432674408]}
    - {mu0: 0, rank: 2, ndensity: 1, num_ms_combs: 9, mus: [1, 1], ns: [2, 4], ls: [4, 4], ms_combs: [-4, 4, -3, 3, -2, 2, -1, 1, 0, 0, 1, -1, 2, -2, 3, -3, 4, -4], ctildes: [0.3333333432674408, -0.3333333432674408, 0.3333333432674408, -0.3333333432674408, 0.3333333432674408, -0.3333333432674408, 0.3333333432674408, -0.3333333432674408, 0.3333333432674408]}
    - {mu0: 0, rank: 2, ndensity: 1, num_ms_combs: 9, mus: [0, 0], ns: [2, 5], ls: [4, 4], ms_combs: [-4, 4, -3, 3, -2, 2, -1, 1, 0, 0, 1, -1, 2, -2, 3, -3, 4, -4], ctildes: [0.3333333432674408, -0.3333333432674408, 0.3333333432674408, -0.3333333432674408, 0.3333333432674408, -0.3333333432674408, 0.3333333432674408, -0.3333333432674408, 0.3333333432674408]}
    - {mu0: 0, rank: 2, ndensity: 1, num_ms_combs: 9, mus: [0, 1], ns: [2, 5], ls: [4, 4], ms_combs: [-4, 4, -3, 3, -2, 2, -1, 1, 0, 0, 1, -1, 2, -2, 3, -3, 4, -4], ctildes: [0.3333333432674408, -0.3333333432674408, 0.3333333432674408, -0.3333333432674408, 0.3333333432674408, -0.3333333432674408, 0.3333333432674408, -0.3333333432674408, 0.3333333432674408]}
    - {mu0: 0, rank: 2, ndensity: 1, num_ms_combs: 9, mus: [1, 1], ns: [2, 5], ls: [4, 4], ms_combs: [-4, 4, -3, 3, -2, 2, -1, 1, 0, 0, 1, -1, 2, -2, 3, -3, 4, -4], ctildes: [0.3333333432674408, -0.3333333432674408, 0.3333333432674408, -0.3333333432674408, 0.3333333432674408, -0.3333333432674408, 0.3333333432674408, -0.3333333432674408, 0.3333333432674408]}
    - {mu0: 0, rank: 2, ndensity: 1, num_ms_combs: 9, mus: [0, 0], ns: [2, 6], ls: [4, 4], ms_combs: [-4, 4, -3, 3, -2, 2, -1, 1, 0, 0, 1, -1, 2, -2, 3, -3, 4, -4], ctildes: [0.3333333432674408, -0.3333333432674408, 0.3333333432674408, -0.3333333432674408, 0.3333333432674408, -0.3333333432674408, 0.3333333432674408, -0.3333333432674408, 0.3333333432674408]}
    - {mu0: 0, rank: 2, ndensity: 1, num_ms_combs: 9, mus: [0, 1], ns: [2, 6], ls: [4, 4], ms_combs: [-4, 4, -3, 3, -2, 2, -1, 1, 0, 0, 1, -1, 2, -2, 3, -3, 4, -4], ctildes: [0.3333333432674408, -0.3333333432674408, 0.3333333432674408, -0.3333333432674408, 0.3333333432674408, -0.3333333432674408, 0.3333333432674408, -0.3333333432674408, 0.3333333432674408]}
    - {mu0: 0, rank: 2, ndensity: 1, num_ms_combs: 9, mus: [1, 1], ns: [2, 6], ls: [4, 4], ms_combs: [-4, 4, -3, 3, -2, 2, -1, 1, 0, 0, 1, -1, 2, -2, 3, -3, 4, -4], ctildes: [0.3333333432674408, -0.3333333432674408, 0.3333333432674408, -0.3333333432674408, 0.3333333432674408, -0.3333333432674408, 0.3333333432674408, -0.3333333432674408, 0.3333333432674408]}
    - {mu0: 0, rank: 2, ndensity: 1, num_ms_combs: 9, mus: [0, 1], ns: [3, 1], ls: [4, 4], ms_combs: [-4, 4, -3, 3, -2, 2, -1, 1, 0, 0, 1, -1, 2, -2, 3, -3, 4, -4], ctildes: [0.3333333432674408, -0.3333333432674408, 0.3333333432674408, -0.3333333432674408, 0.3333333432674408, -0.3333333432674408, 0.3333333432674408, -0.3333333432674408, 0.3333333432674408]}
    - {mu0: 0, rank: 2, ndensity: 1, num_ms_combs: 9, mus: [0, 1], ns: [3, 2], ls: [4, 4], ms_combs: [-4, 4, -3, 3, -2, 2, -1, 1, 0, 0, 1, -1, 2, -2, 3, -3, 4, -4], ctildes: [0.3333333432674408, -0.3333333432674408, 0.3333333432674408, -0.3333333432674408, 0.3333333432674408, -0.3333333432674408, 0.3333333432674408, -0.3333333432674408, 0.3333333432674408]}
    - {mu0: 0, rank: 2, ndensity: 1, num_ms_combs: 9, mus: [0, 0], ns: [3, 3], ls: [4, 4], ms_combs: [-4, 4, -3, 3, -2, 2, -1, 1, 0, 0, 1, -1, 2, -2, 3, -3, 4, -4], ctildes: [0.3333333432674408, -0.3333333432674408, 0.3333333432674408, -0.3333333432674408, 0.3333333432674408, -0.3333333432674408, 0.3333333432674408, -0.3333333432674408, 0.3333333432674408]}
    - {mu0: 0, rank: 2, ndensity: 1, num_ms_combs: 9, mus: [0, 1], ns: [3, 3], ls: [4, 4], ms_combs: [-4, 4, -3, 3, -2, 2, -1, 1, 0, 0, 1, -1, 2, -2, 3, -3, 4, -4], ctildes: [0.3333333432674408, -0.3333333432674408, 0.3333333432674408, -0.3333333432674408, 0.3333333432674408, -0.3333333432674408, 0.3333333432674408, -0.3333333432674408, 0.3333333432674408]}
    - {mu0: 0, rank: 2, ndensity: 1, num_ms_combs: 9, mus: [1, 1], ns: [3, 3], ls: [4, 4], ms_combs: [-4, 4, -3, 3, -2, 2, -1, 1, 0, 0, 1, -1, 2, -2, 3, -3, 4, -4], ctildes: [0.3333333432674408, -0.3333333432674408, 0.3333333432674408, -0.3333333432674408, 0.3333333432674408, -0.3333333432674408, 0.3333333432674408, -0.3333333432674408, 0.3333333432674408]}
    - {mu0: 0, rank: 2, ndensity: 1, num_ms_combs: 9, mus: [0, 0], ns: [3, 4], ls: [4, 4], ms_combs: [-4, 4, -3, 3, -2, 2, -1, 1, 0, 0, 1, -1, 2, -2, 3, -3, 4, -4], ctildes: [0.3333333432674408, -0.3333333432674408, 0.3333333432674408, -0.3333333432674408, 0.3333333432674408, -0.3333333432674408, 0.3333333432674408, -0.3333333432674408, 0.3333333432674408]}
    - {mu0: 0, rank: 2, ndensity: 1, num_ms_combs: 9, mus: [0, 1], ns: [3, 4], ls: [4, 4], ms_combs: [-4, 4, -3, 3, -2, 2, -1, 1, 0, 0, 1, -1, 2, -2, 3, -3, 4, -4], ctildes: [0.3333333432674408, -0.3333333432674408, 0.3333333432674408, -0.3333333432674408, 0.3333333432674408, -0.3333333432674408, 0.3333333432674408, -0.3333333432674408, 0.3333333432674408]}
    - {mu0: 0, rank: 2, ndensity: 1, num_ms_combs: 9, mus: [1, 1], ns: [3, 4], ls: [4, 4], ms_combs: [-4, 4, -3, 3, -2, 2, -1, 1, 0, 0, 1, -1, 2, -2, 3, -3, 4, -4], ctildes: [0.3333333432674408, -0.3333333432674408, 0.3333333432674408, -0.3333333432674408, 0.3333333432674408, -0.3333333432674408, 0.3333333432674408, -0.3333333432674408, 0.3333333432674408]}
    - {mu0: 0, rank: 2, ndensity: 1, num_ms_combs: 9, mus: [0, 0], ns: [3, 5], ls: [4, 4], ms_combs: [-4, 4, -3, 3, -2, 2, -1, 1, 0, 0, 1, -1, 2, -2, 3, -3, 4, -4], ctildes: [0.3333333432674408, -0.3333333432674408, 0.3333333432674408, -0.3333333432674408, 0.3333333432674408, -0.3333333432674408, 0.3333333432674408, -0.3333333432674408, 0.3333333432674408]}
    - {mu0: 0, rank: 2, ndensity: 1, num_ms_combs: 9, mus: [0, 1], ns: [3, 5], ls: [4, 4], ms_combs: [-4, 4, -3, 3, -2, 2, -1, 1, 0, 0, 1, -1, 2, -2, 3, -3, 4, -4], ctildes: [0.3333333432674408, -0.3333333432674408, 0.3333333432674408, -0.3333333432674408, 0.3333333432674408, -0.3333333432674408, 0.3333333432674408, -0.3333333432674408, 0.3333333432674408]}
    - {mu0: 0, rank: 2, ndensity: 1, num_ms_combs: 9, mus: [1, 1], ns: [3, 5], ls: [4, 4], ms_combs: [-4, 4, -3, 3, -2, 2, -1, 1, 0, 0, 1, -1, 2, -2, 3, -3, 4, -4], ctildes: [0.3333333432674408, -0.3333333432674408, 0.3333333432674408, -0.3333333432674408, 0.3333333432674408, -0.3333333432674408, 0.3333333432674408, -0.3333333432674408, 0.3333333432674408]}
    - {mu0: 0, rank: 2, ndensity: 1, num_ms_combs: 9, mus: [0, 0], ns: [3, 6], ls: [4, 4], ms_combs: [-4, 4, -3, 3, -2, 2, -1, 1, 0, 0, 1, -1, 2, -2, 3, -3, 4, -4], ctildes: [0.3333333432674408, -0.3333333432674408, 0.3333333432674408, -0.3333333432674408, 0.3333333432674408, -0.3333333432674408, 0.3333333432674408, -0.3333333432674408, 0.3333333432674408]}
    - {mu0: 0, rank: 2, ndensity: 1, num_ms_combs: 9, mus: [0, 1], ns: [3, 6], ls: [4, 4], ms_combs: [-4, 4, -3, 3, -2, 2, -1, 1, 0, 0, 1, -1, 2, -2, 3, -3, 4, -4], ctildes: [0.3333333432674408, -0.3333333432674408, 0.3333333432674408, -0.3333333432674408, 0.3333333432674408, -0.3333333432674408, 0.3333333432674408, -0.3333333432674408, 0.3333333432674408]}
    - {mu0: 0, rank: 2, ndensity: 1, num_ms_combs: 9, mus: [1, 1], ns: [3, 6], ls: [4, 4], ms_combs: [-4, 4, -3, 3, -2, 2, -1, 1, 0, 0, 1, -1, 2, -2, 3, -3, 4, -4], ctildes: [0.3333333432674408, -0.3333333432674408, 0.3333333432674408, -0.3333333432674408, 0.3333333432674408, -0.3333333432674408, 0.3333333432674408, -0.3333333432674408, 0.3333333432674408]}
    - {mu0: 0, rank: 2, ndensity: 1, num_ms_combs: 9, mus: [0, 1], ns: [4, 1], ls: [4, 4], ms_combs: [-4, 4, -3, 3, -2, 2, -1, 1, 0, 0, 1, -1, 2, -2, 3, -3, 4, -4], ctildes: [0.3333333432674408, -0.3333333432674408, 0.3333333432674408, -0.3333333432674408, 0.3333333432674408, -0.3333333432674408, 0.3333333432674408, -0.3333333432674408, 0.3333333432674408]}
    - {mu0: 0, rank: 2, ndensity: 1, num_ms_combs: 9, mus: [0, 1], ns: [4, 2], ls: [4, 4], ms_combs: [-4, 4, -3, 3, -2, 2, -1, 1, 0, 0, 1, -1, 2, -2, 3, -3, 4, -4], ctildes: [0.3333333432674408, -0.3333333432674408, 0.3333333432674408, -0.3333333432674408, 0.3333333432674408, -0.3333333432674408, 0.3333333432674408, -0.3333333432674408, 0.3333333432674408]}
    - {mu0: 0, rank: 2, ndensity: 1, num_ms_combs: 9, mus: [0, 1], ns: [4, 3], ls: [4, 4], ms_combs: [-4, 4, -3, 3, -2, 2, -1, 1, 0, 0, 1, -1, 2, -2, 3, -3, 4, -4], ctildes: [0.3333333432674408, -0.3333333432674408, 0.3333333432674408, -0.3333333432674408, 0.3333333432674408, -0.3333333432674408, 0.3333333432674408, -0.3333333432674408, 0.3333333432674408]}
    - {mu0: 0, rank: 2, ndensity: 1, num_ms_combs: 9, mus: [0, 0], ns: [4, 4], ls: [4, 4], ms_combs: [-4, 4, -3, 3, -2, 2, -1, 1, 0, 0, 1, -1, 2, -2, 3, -3, 4, -4], ctildes: [0.3333333432674408, -0.3333333432674408, 0.3333333432674408, -0.3333333432674408, 0.3333333432674408, -0.3333333432674408, 0.3333333432674408, -0.3333333432674408, 0.3333333432674408]}
    - {mu0: 0, rank: 2, ndensity: 1, num_ms_combs: 9, mus: [0, 1], ns: [4, 4], ls: [4, 4], ms_combs: [-4, 4, -3, 3, -2, 2, -1, 1, 0, 0, 1, -1, 2, -2, 3, -3, 4, -4], ctildes: [0.3333333432674408, -0.3333333432674408, 0.3333333432674408, -0.3333333432674408, 0.3333333432674408, -0.3333333432674408, 0.3333333432674408, -0.3333333432674408, 0.3333333432674408]}
    - {mu0: 0, rank: 2, ndensity: 1, num_ms_combs: 9, mus: [1, 1], ns: [4, 4], ls: [4, 4], ms_combs: [-4, 4, -3, 3, -2, 2, -1, 1, 0, 0, 1, -1, 2, -2, 3, -3, 4, -4], ctildes: [0.3333333432674408, -0.3333333432674408, 0.3333333432674408, -0.3333333432674408, 0.3333333432674408, -0.3333333432674408, 0.3333333432674408, -0.3333333432674408, 0.3333333432674408]}
    - {mu0: 0, rank: 2, ndensity: 1, num_ms_combs: 9, mus: [0, 0], ns: [4, 5], ls: [4, 4], ms_combs: [-4, 4, -3, 3, -2, 2, -1, 1, 0, 0, 1, -1, 2, -2, 3, -3, 4, -4], ctildes: [0.3333333432674408, -0.3333333432674408, 0.3333333432674408, -0.3333333432674408, 0.3333333432674408, -0.3333333432674408, 0.3333333432674408, -0.3333333432674408, 0.3333333432674408]}
    - {mu0: 0, rank: 2, ndensity: 1, num_ms_combs: 9, mus: [0, 1], ns: [4, 5], ls: [4, 4], ms_combs: [-4, 4, -3, 3, -2, 2, -1, 1, 0, 0, 1, -1, 2, -2, 3, -3, 4, -4], ctildes: [0.3333333432674408, -0.3333333432674408, 0.3333333432674408, -0.3333333432674408, 0.3333333432674408, -0.3333333432674408, 0.3333333432674408, -0.3333333432674408, 0.3333333432674408]}
    - {mu0: 0, rank: 2, ndensity: 1, num_ms_combs: 9, mus: [1, 1], ns: [4, 5], ls: [4, 4], ms_combs: [-4, 4, -3, 3, -2, 2, -1, 1, 0, 0, 1, -1, 2, -2, 3, -3, 4, -4], ctildes: [0.3333333432674408, -0.3333333432674408, 0.3333333432674408, -0.3333333432674408, 0.3333333432674408, -0.3333333432674408, 0.3333333432674408, -0.3333333432674408, 0.3333333432674408]}
    - {mu0: 0, rank: 2, ndensity: 1, num_ms_combs: 9, mus: [0, 0], ns: [4, 6], ls: [4, 4], ms_combs: [-4, 4, -3, 3, -2, 2, -1, 1, 0, 0, 1, -1, 2, -2, 3, -3, 4, -4], ctildes: [0.3333333432674408, -0.3333333432674408, 0.3333333432674408, -0.3333333432674408, 0.3333333432674408, -0.3333333432674408, 0.3333333432674408, -0.3333333432674408, 0.3333333432674408]}
    - {mu0: 0, rank: 2, ndensity: 1, num_ms_combs: 9, mus: [0, 1], ns: [4, 6], ls: [4, 4], ms_combs: [-4, 4, -3, 3, -2, 2, -1, 1, 0, 0, 1, -1, 2, -2, 3, -3, 4, -4], ctildes: [0.3333333432674408, -0.3333333432674408, 0.3333333432674408, -0.3333333432674408, 0.3333333432674408, -0.3333333432674408, 0.3333333432674408, -0.3333333432674408, 0.3333333432674408]}
    - {mu0: 0, rank: 2, ndensity: 1, num_ms_combs: 9, mus: [1, 1], ns: [4, 6], ls: [4, 4], ms_combs: [-4, 4, -3, 3, -2, 2, -1, 1, 0, 0, 1, -1, 2, -2, 3, -3, 4, -4], ctildes: [0.3333333432674408, -0.3333333432674408, 0.3333333432674408, -0.3333333432674408, 0.3333333432674408, -0.3333333432674408, 0.3333333432674408, -0.3333333432674408, 0.3333333432674408]}
    - {mu0: 0, rank: 2, ndensity: 1, num_ms_combs: 9, mus: [0, 1], ns: [5, 1], ls: [4, 4], ms_combs: [-4, 4, -3, 3, -2, 2, -1, 1, 0, 0, 1, -1, 2, -2, 3, -3, 4, -4], ctildes: [0.3333333432674408, -0.3333333432674408, 0.3333333432674408, -0.3333333432674408, 0.3333333432674408, -0.3333333432674408, 0.3333333432674408, -0.3333333432674408, 0.3333333432674408]}
